svm_type c_svc
kernel_type rbf
gamma 0.2
nr_class 3
total_sv 23579
rho -0.5748571109261615 -0.9976554946484787 -0.9990815085095778
label 0 1 2
nr_sv 10792 10755 2032
SV
1.0 0.0 1:1.0 2:0.0 3:0.0 4:0.0 5:0.0 
1.0 0.0 1:1.0 2:0.0 3:0.0 4:0.0 5:0.0 
1.0 0.0 1:1.0 2:0.0 3:0.0 4:0.0 5:0.0 
1.0 0.0 1:1.0 2:0.0 3:0.0 4:0.0 5:0.0 
1.0 0.0 1:1.0 2:0.0 3:0.0 4:0.0 5:0.0 
1.0 0.0 1:1.0 2:0.0 3:0.0 4:0.0 5:0.0 
1.0 0.0 1:1.0 2:0.0 3:0.0 4:0.0 5:0.0 
1.0 0.0 1:1.0 2:0.0 3:0.0 4:0.0 5:0.0 
1.0 0.0 1:1.0 2:0.0 3:0.0 4:0.0 5:0.0 
1.0 0.0 1:1.0 2:0.0 3:0.0 4:1.0 5:0.0 
1.0 0.0 1:1.0 2:0.0 3:0.0 4:0.0 5:0.0 
1.0 0.0 1:1.0 2:0.0 3:0.0 4:0.0 5:0.0 
1.0 0.0 1:1.0 2:0.0 3:0.0 4:0.0 5:0.0 
1.0 0.0 1:1.0 2:0.0 3:0.0 4:0.0 5:0.0 
1.0 0.0 1:1.0 2:0.0 3:0.0 4:0.0 5:0.0 
1.0 0.0 1:1.0 2:0.0 3:0.0 4:1.0 5:0.0 
1.0 0.0 1:1.0 2:0.0 3:0.0 4:1.0 5:0.0 
1.0 0.0 1:1.0 2:0.0 3:0.0 4:0.0 5:0.0 
1.0 0.0 1:1.0 2:0.0 3:0.0 4:0.0 5:0.0 
1.0 0.0 1:1.0 2:0.0 3:0.0 4:0.0 5:0.0 
1.0 0.0 1:1.0 2:0.0 3:0.0 4:0.0 5:0.0 
1.0 0.0 1:1.0 2:0.0 3:0.0 4:0.0 5:0.0 
1.0 0.0 1:1.0 2:0.0 3:0.0 4:0.0 5:0.0 
1.0 0.0 1:1.0 2:0.0 3:0.0 4:0.0 5:0.0 
1.0 0.0 1:1.0 2:0.0 3:0.0 4:0.0 5:0.0 
1.0 0.0 1:1.0 2:0.0 3:0.0 4:0.0 5:0.0 
1.0 0.0 1:1.0 2:0.0 3:0.0 4:0.0 5:0.0 
1.0 0.0 1:1.0 2:0.0 3:0.0 4:0.0 5:0.0 
1.0 0.0 1:1.0 2:0.0 3:0.0 4:0.0 5:1.0 
1.0 0.0 1:1.0 2:0.0 3:0.0 4:0.0 5:0.0 
1.0 0.0 1:1.0 2:0.0 3:0.0 4:0.0 5:0.0 
1.0 0.0 1:1.0 2:0.0 3:0.0 4:0.0 5:0.0 
1.0 0.0 1:1.0 2:0.0 3:0.0 4:0.0 5:0.0 
1.0 0.0 1:1.0 2:0.0 3:0.0 4:0.0 5:0.0 
1.0 0.0 1:1.0 2:0.0 3:0.0 4:0.0 5:0.0 
1.0 0.0 1:1.0 2:0.0 3:0.0 4:0.0 5:0.0 
1.0 0.0 1:1.0 2:0.0 3:0.0 4:1.0 5:0.0 
1.0 0.0 1:1.0 2:0.0 3:0.0 4:0.0 5:0.0 
1.0 0.0 1:1.0 2:0.0 3:0.0 4:0.0 5:0.0 
1.0 0.0 1:1.0 2:0.0 3:0.0 4:1.0 5:0.0 
1.0 0.0 1:1.0 2:0.0 3:0.0 4:0.0 5:0.0 
1.0 0.0 1:1.0 2:0.0 3:0.0 4:0.0 5:0.0 
1.0 0.0 1:1.0 2:0.0 3:0.0 4:0.0 5:0.0 
1.0 0.0 1:1.0 2:0.0 3:0.0 4:0.0 5:0.0 
1.0 0.0 1:1.0 2:0.0 3:0.0 4:0.0 5:0.0 
1.0 0.0 1:1.0 2:0.0 3:0.0 4:1.0 5:0.0 
1.0 0.0 1:1.0 2:0.0 3:0.0 4:0.0 5:0.0 
1.0 0.41599999674849686 1:0.0 2:0.0 3:0.0 4:1.0 5:1.0 
1.0 0.0 1:1.0 2:0.0 3:0.0 4:0.0 5:0.0 
1.0 0.0 1:1.0 2:0.0 3:0.0 4:0.0 5:0.0 
1.0 0.0 1:1.0 2:0.0 3:0.0 4:0.0 5:0.0 
1.0 0.0 1:1.0 2:0.0 3:0.0 4:1.0 5:0.0 
1.0 0.0 1:1.0 2:0.0 3:0.0 4:0.0 5:0.0 
1.0 0.0 1:1.0 2:0.0 3:0.0 4:0.0 5:0.0 
1.0 0.0 1:1.0 2:0.0 3:0.0 4:0.0 5:0.0 
1.0 0.0 1:1.0 2:0.0 3:0.0 4:1.0 5:0.0 
1.0 0.0 1:1.0 2:0.0 3:0.0 4:0.0 5:0.0 
1.0 0.0 1:1.0 2:0.0 3:0.0 4:0.0 5:0.0 
1.0 0.0 1:1.0 2:0.0 3:0.0 4:0.0 5:1.0 
1.0 0.0 1:1.0 2:0.0 3:0.0 4:0.0 5:0.0 
1.0 0.0 1:1.0 2:0.0 3:0.0 4:0.0 5:0.0 
1.0 0.0 1:1.0 2:0.0 3:0.0 4:0.0 5:0.0 
1.0 0.0 1:1.0 2:0.0 3:0.0 4:1.0 5:0.0 
1.0 0.0 1:1.0 2:0.0 3:0.0 4:0.0 5:0.0 
1.0 0.0 1:1.0 2:0.0 3:0.0 4:0.0 5:1.0 
0.4527301889569424 0.0 1:0.0 2:0.0 3:0.0 4:1.0 5:0.0 
1.0 0.0 1:0.0 2:0.0 3:0.0 4:1.0 5:0.0 
1.0 0.0 1:0.0 2:0.0 3:0.0 4:1.0 5:0.0 
1.0 0.0 1:1.0 2:0.0 3:0.0 4:1.0 5:0.0 
1.0 0.0 1:0.0 2:0.0 3:0.0 4:1.0 5:0.0 
1.0 0.0 1:0.0 2:0.0 3:0.0 4:1.0 5:0.0 
1.0 0.0 1:0.0 2:0.0 3:0.0 4:1.0 5:0.0 
1.0 0.0 1:0.0 2:0.0 3:0.0 4:1.0 5:0.0 
1.0 0.0 1:0.0 2:0.0 3:0.0 4:1.0 5:0.0 
1.0 0.0 1:1.0 2:0.0 3:0.0 4:0.0 5:0.0 
1.0 0.0 1:1.0 2:0.0 3:0.0 4:0.0 5:0.0 
1.0 0.0 1:0.0 2:0.0 3:0.0 4:1.0 5:0.0 
1.0 0.0 1:1.0 2:0.0 3:0.0 4:0.0 5:1.0 
1.0 0.0 1:0.0 2:0.0 3:0.0 4:1.0 5:0.0 
1.0 0.0 1:0.0 2:0.0 3:0.0 4:1.0 5:0.0 
1.0 0.0 1:1.0 2:0.0 3:0.0 4:0.0 5:0.0 
1.0 0.0 1:0.0 2:0.0 3:0.0 4:1.0 5:0.0 
1.0 0.0 1:0.0 2:0.0 3:0.0 4:1.0 5:0.0 
1.0 0.0 1:0.0 2:0.0 3:0.0 4:1.0 5:0.0 
1.0 0.0 1:0.0 2:0.0 3:0.0 4:1.0 5:0.0 
1.0 0.0 1:1.0 2:0.0 3:0.0 4:0.0 5:0.0 
1.0 0.0 1:1.0 2:0.0 3:0.0 4:0.0 5:0.0 
1.0 0.0 1:1.0 2:0.0 3:0.0 4:0.0 5:0.0 
1.0 0.0 1:0.0 2:0.0 3:0.0 4:1.0 5:0.0 
1.0 0.0 1:0.0 2:0.0 3:0.0 4:1.0 5:0.0 
1.0 0.0 1:0.0 2:0.0 3:0.0 4:1.0 5:0.0 
1.0 0.0 1:0.0 2:0.0 3:0.0 4:1.0 5:0.0 
1.0 0.0 1:0.0 2:0.0 3:0.0 4:1.0 5:0.0 
1.0 0.0 1:1.0 2:0.0 3:0.0 4:0.0 5:0.0 
1.0 0.0 1:1.0 2:0.0 3:0.0 4:1.0 5:0.0 
1.0 0.0 1:1.0 2:0.0 3:0.0 4:0.0 5:0.0 
1.0 0.0 1:0.0 2:0.0 3:0.0 4:1.0 5:0.0 
1.0 0.0 1:0.0 2:0.0 3:0.0 4:1.0 5:0.0 
1.0 0.0 1:1.0 2:0.0 3:0.0 4:0.0 5:0.0 
1.0 0.0 1:1.0 2:0.0 3:0.0 4:0.0 5:0.0 
1.0 0.0 1:0.0 2:0.0 3:0.0 4:1.0 5:0.0 
1.0 0.0 1:0.0 2:0.0 3:0.0 4:1.0 5:0.0 
1.0 0.0 1:1.0 2:0.0 3:0.0 4:0.0 5:0.0 
1.0 0.0 1:0.0 2:0.0 3:0.0 4:1.0 5:0.0 
1.0 0.0 1:0.0 2:0.0 3:0.0 4:1.0 5:0.0 
1.0 0.0 1:1.0 2:0.0 3:0.0 4:0.0 5:0.0 
1.0 0.0 1:0.0 2:0.0 3:0.0 4:1.0 5:0.0 
1.0 0.0 1:1.0 2:0.0 3:0.0 4:0.0 5:0.0 
1.0 0.0 1:0.0 2:0.0 3:0.0 4:1.0 5:0.0 
1.0 0.0 1:1.0 2:0.0 3:0.0 4:0.0 5:0.0 
1.0 0.0 1:1.0 2:0.0 3:0.0 4:0.0 5:1.0 
1.0 0.0 1:1.0 2:0.0 3:0.0 4:0.0 5:0.0 
1.0 0.0 1:0.0 2:0.0 3:0.0 4:1.0 5:0.0 
1.0 0.0 1:1.0 2:0.0 3:0.0 4:0.0 5:0.0 
1.0 0.0 1:0.0 2:0.0 3:0.0 4:1.0 5:0.0 
1.0 0.0 1:0.0 2:0.0 3:0.0 4:1.0 5:0.0 
1.0 0.0 1:0.0 2:0.0 3:0.0 4:1.0 5:0.0 
1.0 0.0 1:0.0 2:0.0 3:0.0 4:1.0 5:0.0 
1.0 0.0 1:0.0 2:0.0 3:0.0 4:1.0 5:0.0 
1.0 0.0 1:1.0 2:0.0 3:0.0 4:0.0 5:1.0 
1.0 0.0 1:0.0 2:0.0 3:0.0 4:1.0 5:0.0 
1.0 0.0 1:0.0 2:0.0 3:0.0 4:1.0 5:0.0 
1.0 0.0 1:0.0 2:0.0 3:0.0 4:1.0 5:0.0 
1.0 0.0 1:1.0 2:0.0 3:0.0 4:0.0 5:0.0 
1.0 0.0 1:1.0 2:0.0 3:0.0 4:0.0 5:0.0 
1.0 0.0 1:1.0 2:0.0 3:0.0 4:0.0 5:0.0 
1.0 0.0 1:0.0 2:0.0 3:0.0 4:1.0 5:0.0 
1.0 0.0 1:1.0 2:0.0 3:0.0 4:0.0 5:0.0 
1.0 0.0 1:1.0 2:0.0 3:0.0 4:0.0 5:0.0 
1.0 0.0 1:0.0 2:0.0 3:0.0 4:1.0 5:0.0 
1.0 0.0 1:1.0 2:0.0 3:0.0 4:0.0 5:0.0 
1.0 0.0 1:0.0 2:0.0 3:0.0 4:1.0 5:0.0 
1.0 0.0 1:1.0 2:0.0 3:0.0 4:0.0 5:0.0 
1.0 0.0 1:1.0 2:0.0 3:0.0 4:0.0 5:0.0 
1.0 0.0 1:0.0 2:0.0 3:0.0 4:1.0 5:0.0 
1.0 0.0 1:0.0 2:0.0 3:0.0 4:1.0 5:0.0 
1.0 0.0 1:1.0 2:0.0 3:0.0 4:1.0 5:0.0 
1.0 0.0 1:0.0 2:0.0 3:0.0 4:1.0 5:0.0 
1.0 0.0 1:0.0 2:0.0 3:0.0 4:1.0 5:0.0 
1.0 0.0 1:0.0 2:0.0 3:0.0 4:1.0 5:0.0 
1.0 0.0 1:0.0 2:0.0 3:0.0 4:1.0 5:0.0 
1.0 0.0 1:1.0 2:0.0 3:0.0 4:0.0 5:0.0 
1.0 0.0 1:1.0 2:0.0 3:0.0 4:0.0 5:0.0 
1.0 0.0 1:1.0 2:0.0 3:0.0 4:1.0 5:0.0 
1.0 0.0 1:1.0 2:0.0 3:0.0 4:0.0 5:0.0 
1.0 0.0 1:0.0 2:0.0 3:0.0 4:1.0 5:0.0 
1.0 0.0 1:0.0 2:0.0 3:0.0 4:1.0 5:0.0 
1.0 0.0 1:0.0 2:0.0 3:0.0 4:1.0 5:0.0 
1.0 0.0 1:0.0 2:0.0 3:0.0 4:1.0 5:0.0 
1.0 0.0 1:0.0 2:0.0 3:0.0 4:1.0 5:0.0 
1.0 0.0 1:0.0 2:0.0 3:0.0 4:1.0 5:0.0 
1.0 0.0 1:0.0 2:0.0 3:0.0 4:1.0 5:0.0 
1.0 0.0 1:1.0 2:0.0 3:0.0 4:0.0 5:0.0 
1.0 0.0 1:0.0 2:0.0 3:0.0 4:1.0 5:0.0 
1.0 0.0 1:0.0 2:0.0 3:0.0 4:1.0 5:0.0 
1.0 0.0 1:0.0 2:0.0 3:0.0 4:1.0 5:0.0 
1.0 0.0 1:0.0 2:0.0 3:0.0 4:1.0 5:0.0 
1.0 0.0 1:1.0 2:0.0 3:0.0 4:1.0 5:0.0 
1.0 0.0 1:0.0 2:0.0 3:0.0 4:1.0 5:0.0 
1.0 0.0 1:0.0 2:0.0 3:0.0 4:1.0 5:0.0 
1.0 0.0 1:0.0 2:0.0 3:0.0 4:1.0 5:0.0 
1.0 0.0 1:0.0 2:0.0 3:0.0 4:1.0 5:0.0 
1.0 0.0 1:1.0 2:0.0 3:0.0 4:0.0 5:0.0 
1.0 0.0 1:1.0 2:0.0 3:0.0 4:0.0 5:0.0 
1.0 0.0 1:0.0 2:0.0 3:0.0 4:1.0 5:0.0 
1.0 0.0 1:0.0 2:0.0 3:0.0 4:1.0 5:0.0 
1.0 0.0 1:1.0 2:0.0 3:0.0 4:0.0 5:0.0 
1.0 0.0 1:1.0 2:0.0 3:0.0 4:0.0 5:0.0 
1.0 0.0 1:0.0 2:0.0 3:0.0 4:1.0 5:0.0 
1.0 0.0 1:0.0 2:0.0 3:0.0 4:1.0 5:0.0 
1.0 0.0 1:0.0 2:0.0 3:0.0 4:1.0 5:0.0 
1.0 0.0 1:1.0 2:0.0 3:0.0 4:0.0 5:0.0 
1.0 0.0 1:1.0 2:0.0 3:0.0 4:0.0 5:0.0 
1.0 0.0 1:0.0 2:0.0 3:0.0 4:1.0 5:0.0 
1.0 0.0 1:0.0 2:0.0 3:0.0 4:1.0 5:0.0 
1.0 0.0 1:0.0 2:0.0 3:0.0 4:1.0 5:0.0 
1.0 0.0 1:1.0 2:0.0 3:0.0 4:0.0 5:0.0 
1.0 0.0 1:1.0 2:0.0 3:0.0 4:0.0 5:0.0 
1.0 0.0 1:0.0 2:0.0 3:0.0 4:1.0 5:0.0 
1.0 0.0 1:0.0 2:0.0 3:0.0 4:1.0 5:0.0 
1.0 0.0 1:0.0 2:0.0 3:0.0 4:1.0 5:0.0 
1.0 0.0 1:0.0 2:0.0 3:0.0 4:1.0 5:0.0 
1.0 0.0 1:0.0 2:0.0 3:0.0 4:1.0 5:0.0 
1.0 0.0 1:1.0 2:0.0 3:0.0 4:0.0 5:0.0 
1.0 0.0 1:1.0 2:0.0 3:0.0 4:0.0 5:0.0 
1.0 0.0 1:1.0 2:0.0 3:0.0 4:0.0 5:0.0 
1.0 0.0 1:1.0 2:0.0 3:0.0 4:1.0 5:0.0 
1.0 0.0 1:1.0 2:0.0 3:0.0 4:0.0 5:0.0 
1.0 0.0 1:0.0 2:0.0 3:0.0 4:1.0 5:0.0 
1.0 0.0 1:0.0 2:0.0 3:0.0 4:1.0 5:0.0 
1.0 0.0 1:1.0 2:0.0 3:0.0 4:0.0 5:0.0 
1.0 0.0 1:0.0 2:0.0 3:0.0 4:1.0 5:0.0 
1.0 0.0 1:1.0 2:0.0 3:0.0 4:0.0 5:0.0 
1.0 0.0 1:0.0 2:0.0 3:0.0 4:1.0 5:0.0 
1.0 0.0 1:0.0 2:0.0 3:0.0 4:1.0 5:0.0 
1.0 0.0 1:0.0 2:0.0 3:0.0 4:1.0 5:0.0 
1.0 0.0 1:1.0 2:0.0 3:0.0 4:0.0 5:0.0 
1.0 0.0 1:0.0 2:0.0 3:0.0 4:1.0 5:0.0 
1.0 0.0 1:1.0 2:0.0 3:0.0 4:0.0 5:0.0 
1.0 0.0 1:0.0 2:0.0 3:0.0 4:1.0 5:0.0 
1.0 0.0 1:0.0 2:0.0 3:0.0 4:1.0 5:0.0 
1.0 0.0 1:0.0 2:0.0 3:0.0 4:1.0 5:0.0 
1.0 0.0 1:0.0 2:0.0 3:0.0 4:1.0 5:0.0 
1.0 0.0 1:0.0 2:0.0 3:0.0 4:1.0 5:0.0 
1.0 0.0 1:1.0 2:0.0 3:0.0 4:0.0 5:0.0 
1.0 0.0 1:0.0 2:0.0 3:0.0 4:1.0 5:0.0 
1.0 0.0 1:0.0 2:0.0 3:0.0 4:1.0 5:0.0 
1.0 0.0 1:1.0 2:0.0 3:0.0 4:0.0 5:0.0 
1.0 0.0 1:1.0 2:0.0 3:0.0 4:0.0 5:0.0 
1.0 0.0 1:1.0 2:0.0 3:0.0 4:0.0 5:0.0 
1.0 0.0 1:0.0 2:0.0 3:0.0 4:1.0 5:0.0 
1.0 0.0 1:0.0 2:0.0 3:0.0 4:1.0 5:0.0 
1.0 0.0 1:0.0 2:0.0 3:0.0 4:1.0 5:0.0 
1.0 0.0 1:1.0 2:0.0 3:0.0 4:0.0 5:0.0 
1.0 0.0 1:0.0 2:0.0 3:0.0 4:1.0 5:0.0 
1.0 0.0 1:0.0 2:0.0 3:0.0 4:1.0 5:0.0 
1.0 0.0 1:1.0 2:0.0 3:0.0 4:0.0 5:0.0 
1.0 0.0 1:0.0 2:0.0 3:0.0 4:1.0 5:0.0 
1.0 0.0 1:0.0 2:0.0 3:0.0 4:1.0 5:0.0 
1.0 0.0 1:1.0 2:0.0 3:0.0 4:0.0 5:0.0 
1.0 0.0 1:1.0 2:0.0 3:0.0 4:0.0 5:0.0 
1.0 0.0 1:1.0 2:0.0 3:0.0 4:0.0 5:0.0 
1.0 0.0 1:1.0 2:0.0 3:0.0 4:0.0 5:0.0 
1.0 0.0 1:0.0 2:0.0 3:0.0 4:1.0 5:0.0 
1.0 0.0 1:0.0 2:0.0 3:0.0 4:1.0 5:0.0 
1.0 0.0 1:0.0 2:0.0 3:0.0 4:1.0 5:0.0 
1.0 0.0 1:1.0 2:0.0 3:0.0 4:0.0 5:0.0 
1.0 0.0 1:1.0 2:0.0 3:0.0 4:0.0 5:0.0 
1.0 0.0 1:1.0 2:0.0 3:0.0 4:0.0 5:1.0 
1.0 0.0 1:0.0 2:0.0 3:0.0 4:1.0 5:0.0 
1.0 0.0 1:1.0 2:0.0 3:0.0 4:1.0 5:0.0 
1.0 0.0 1:1.0 2:0.0 3:0.0 4:0.0 5:0.0 
1.0 0.0 1:0.0 2:0.0 3:0.0 4:1.0 5:0.0 
1.0 0.0 1:0.0 2:0.0 3:0.0 4:1.0 5:0.0 
1.0 0.0 1:1.0 2:0.0 3:0.0 4:0.0 5:0.0 
1.0 0.0 1:0.0 2:0.0 3:0.0 4:1.0 5:0.0 
1.0 0.0 1:1.0 2:0.0 3:0.0 4:1.0 5:0.0 
1.0 0.0 1:1.0 2:0.0 3:0.0 4:0.0 5:0.0 
1.0 0.0 1:0.0 2:0.0 3:0.0 4:1.0 5:0.0 
1.0 0.0 1:0.0 2:0.0 3:0.0 4:1.0 5:0.0 
1.0 0.0 1:1.0 2:0.0 3:0.0 4:0.0 5:0.0 
1.0 0.0 1:0.0 2:0.0 3:0.0 4:1.0 5:0.0 
1.0 0.0 1:1.0 2:0.0 3:0.0 4:0.0 5:0.0 
1.0 0.0 1:1.0 2:0.0 3:0.0 4:0.0 5:0.0 
1.0 0.0 1:0.0 2:0.0 3:0.0 4:1.0 5:0.0 
1.0 0.0 1:0.0 2:0.0 3:0.0 4:1.0 5:0.0 
1.0 0.0 1:1.0 2:0.0 3:0.0 4:0.0 5:0.0 
1.0 0.0 1:0.0 2:0.0 3:0.0 4:1.0 5:0.0 
1.0 0.0 1:0.0 2:0.0 3:0.0 4:1.0 5:0.0 
1.0 0.0 1:0.0 2:0.0 3:0.0 4:1.0 5:0.0 
1.0 0.0 1:0.0 2:0.0 3:0.0 4:1.0 5:0.0 
1.0 0.0 1:0.0 2:0.0 3:0.0 4:1.0 5:0.0 
1.0 0.0 1:0.0 2:0.0 3:0.0 4:1.0 5:0.0 
1.0 0.0 1:0.0 2:0.0 3:0.0 4:1.0 5:0.0 
1.0 0.0 1:1.0 2:0.0 3:0.0 4:0.0 5:0.0 
1.0 0.0 1:0.0 2:0.0 3:0.0 4:1.0 5:0.0 
1.0 0.0 1:1.0 2:0.0 3:0.0 4:0.0 5:0.0 
1.0 0.0 1:0.0 2:0.0 3:0.0 4:1.0 5:0.0 
1.0 0.0 1:1.0 2:0.0 3:0.0 4:0.0 5:0.0 
1.0 0.0 1:0.0 2:0.0 3:0.0 4:1.0 5:0.0 
1.0 0.0 1:0.0 2:0.0 3:0.0 4:1.0 5:0.0 
1.0 0.0 1:0.0 2:0.0 3:0.0 4:1.0 5:0.0 
1.0 0.0 1:0.0 2:0.0 3:0.0 4:1.0 5:0.0 
1.0 0.0 1:1.0 2:0.0 3:0.0 4:0.0 5:0.0 
1.0 0.0 1:1.0 2:0.0 3:0.0 4:1.0 5:0.0 
1.0 0.0 1:1.0 2:0.0 3:0.0 4:0.0 5:0.0 
1.0 0.0 1:0.0 2:0.0 3:0.0 4:1.0 5:0.0 
1.0 0.0 1:0.0 2:0.0 3:0.0 4:1.0 5:0.0 
1.0 0.0 1:0.0 2:0.0 3:0.0 4:1.0 5:0.0 
1.0 0.0 1:1.0 2:0.0 3:0.0 4:0.0 5:0.0 
1.0 0.0 1:0.0 2:0.0 3:0.0 4:1.0 5:0.0 
1.0 0.0 1:0.0 2:0.0 3:0.0 4:1.0 5:0.0 
1.0 0.0 1:1.0 2:0.0 3:0.0 4:0.0 5:0.0 
1.0 0.0 1:0.0 2:0.0 3:0.0 4:1.0 5:0.0 
1.0 0.0 1:0.0 2:0.0 3:0.0 4:1.0 5:0.0 
1.0 0.0 1:0.0 2:0.0 3:0.0 4:1.0 5:0.0 
1.0 0.0 1:1.0 2:0.0 3:0.0 4:0.0 5:0.0 
1.0 0.0 1:1.0 2:0.0 3:0.0 4:0.0 5:0.0 
1.0 0.0 1:1.0 2:0.0 3:0.0 4:1.0 5:0.0 
1.0 0.0 1:0.0 2:0.0 3:0.0 4:1.0 5:0.0 
1.0 0.0 1:0.0 2:0.0 3:0.0 4:1.0 5:0.0 
1.0 0.0 1:1.0 2:0.0 3:0.0 4:0.0 5:0.0 
1.0 0.0 1:0.0 2:0.0 3:0.0 4:1.0 5:0.0 
1.0 0.0 1:0.0 2:0.0 3:0.0 4:1.0 5:0.0 
1.0 0.0 1:0.0 2:0.0 3:0.0 4:1.0 5:0.0 
1.0 0.0 1:0.0 2:0.0 3:0.0 4:1.0 5:0.0 
1.0 0.0 1:0.0 2:0.0 3:0.0 4:1.0 5:0.0 
1.0 0.0 1:0.0 2:0.0 3:0.0 4:1.0 5:0.0 
1.0 0.0 1:1.0 2:0.0 3:0.0 4:0.0 5:0.0 
1.0 0.0 1:0.0 2:0.0 3:0.0 4:1.0 5:0.0 
1.0 0.0 1:1.0 2:0.0 3:0.0 4:0.0 5:0.0 
1.0 0.0 1:1.0 2:0.0 3:0.0 4:1.0 5:0.0 
1.0 0.0 1:0.0 2:0.0 3:0.0 4:1.0 5:0.0 
1.0 0.0 1:0.0 2:0.0 3:0.0 4:1.0 5:0.0 
1.0 0.0 1:0.0 2:0.0 3:0.0 4:1.0 5:0.0 
1.0 0.0 1:0.0 2:0.0 3:0.0 4:1.0 5:0.0 
1.0 0.0 1:1.0 2:0.0 3:0.0 4:0.0 5:0.0 
1.0 0.0 1:1.0 2:0.0 3:0.0 4:0.0 5:0.0 
1.0 0.0 1:0.0 2:0.0 3:0.0 4:1.0 5:0.0 
1.0 0.0 1:0.0 2:0.0 3:0.0 4:1.0 5:0.0 
1.0 0.0 1:0.0 2:0.0 3:0.0 4:1.0 5:0.0 
1.0 0.0 1:0.0 2:0.0 3:0.0 4:1.0 5:0.0 
1.0 0.0 1:0.0 2:0.0 3:0.0 4:1.0 5:0.0 
1.0 0.0 1:0.0 2:0.0 3:0.0 4:1.0 5:0.0 
1.0 0.0 1:1.0 2:0.0 3:0.0 4:0.0 5:0.0 
1.0 0.0 1:0.0 2:0.0 3:0.0 4:1.0 5:0.0 
1.0 0.0 1:0.0 2:0.0 3:0.0 4:1.0 5:0.0 
1.0 0.0 1:1.0 2:0.0 3:0.0 4:0.0 5:0.0 
1.0 0.0 1:1.0 2:0.0 3:0.0 4:0.0 5:0.0 
1.0 0.0 1:0.0 2:0.0 3:0.0 4:1.0 5:0.0 
1.0 0.0 1:1.0 2:0.0 3:0.0 4:0.0 5:0.0 
1.0 0.0 1:1.0 2:0.0 3:0.0 4:0.0 5:0.0 
1.0 0.0 1:0.0 2:0.0 3:0.0 4:1.0 5:0.0 
1.0 0.0 1:0.0 2:0.0 3:0.0 4:1.0 5:0.0 
1.0 0.0 1:1.0 2:0.0 3:0.0 4:0.0 5:0.0 
1.0 0.0 1:0.0 2:0.0 3:0.0 4:1.0 5:0.0 
1.0 0.0 1:0.0 2:0.0 3:0.0 4:1.0 5:0.0 
1.0 0.0 1:0.0 2:0.0 3:0.0 4:1.0 5:0.0 
1.0 0.0 1:0.0 2:0.0 3:0.0 4:1.0 5:0.0 
1.0 0.0 1:0.0 2:0.0 3:0.0 4:1.0 5:0.0 
1.0 0.0 1:0.0 2:0.0 3:0.0 4:1.0 5:0.0 
1.0 0.0 1:1.0 2:0.0 3:0.0 4:0.0 5:0.0 
1.0 0.0 1:0.0 2:0.0 3:0.0 4:1.0 5:0.0 
1.0 0.0 1:0.0 2:0.0 3:0.0 4:1.0 5:0.0 
1.0 0.0 1:0.0 2:0.0 3:0.0 4:1.0 5:0.0 
1.0 0.0 1:0.0 2:0.0 3:0.0 4:1.0 5:0.0 
1.0 0.0 1:0.0 2:0.0 3:0.0 4:0.0 5:1.0 
1.0 0.0 1:0.0 2:0.0 3:0.0 4:1.0 5:0.0 
1.0 0.0 1:0.0 2:0.0 3:0.0 4:1.0 5:0.0 
1.0 0.0 1:1.0 2:0.0 3:0.0 4:0.0 5:0.0 
1.0 0.0 1:0.0 2:0.0 3:0.0 4:1.0 5:0.0 
1.0 0.0 1:1.0 2:0.0 3:0.0 4:0.0 5:0.0 
1.0 0.0 1:1.0 2:0.0 3:0.0 4:0.0 5:0.0 
1.0 0.0 1:1.0 2:0.0 3:0.0 4:0.0 5:1.0 
1.0 0.0 1:0.0 2:0.0 3:0.0 4:0.0 5:1.0 
1.0 0.0 1:0.0 2:0.0 3:0.0 4:1.0 5:0.0 
1.0 0.0 1:0.0 2:0.0 3:0.0 4:1.0 5:0.0 
1.0 0.0 1:0.0 2:0.0 3:0.0 4:1.0 5:0.0 
1.0 0.0 1:0.0 2:0.0 3:0.0 4:1.0 5:0.0 
1.0 0.0 1:0.0 2:0.0 3:0.0 4:0.0 5:1.0 
1.0 0.0 1:1.0 2:0.0 3:0.0 4:0.0 5:0.0 
1.0 0.0 1:0.0 2:0.0 3:0.0 4:1.0 5:0.0 
1.0 0.0 1:1.0 2:0.0 3:0.0 4:0.0 5:0.0 
1.0 0.0 1:0.0 2:0.0 3:0.0 4:1.0 5:0.0 
1.0 0.0 1:1.0 2:0.0 3:0.0 4:0.0 5:0.0 
1.0 0.0 1:0.0 2:0.0 3:0.0 4:1.0 5:0.0 
1.0 0.0 1:0.0 2:0.0 3:0.0 4:0.0 5:1.0 
1.0 0.0 1:1.0 2:0.0 3:0.0 4:0.0 5:0.0 
1.0 0.0 1:0.0 2:0.0 3:0.0 4:1.0 5:0.0 
1.0 0.0 1:0.0 2:0.0 3:0.0 4:1.0 5:0.0 
1.0 0.0 1:1.0 2:0.0 3:0.0 4:0.0 5:0.0 
1.0 0.0 1:0.0 2:0.0 3:0.0 4:1.0 5:0.0 
1.0 0.0 1:1.0 2:0.0 3:0.0 4:0.0 5:0.0 
1.0 0.0 1:0.0 2:0.0 3:0.0 4:1.0 5:0.0 
1.0 0.0 1:1.0 2:0.0 3:0.0 4:0.0 5:0.0 
1.0 0.0 1:1.0 2:0.0 3:0.0 4:0.0 5:0.0 
1.0 0.0 1:1.0 2:0.0 3:0.0 4:0.0 5:0.0 
1.0 0.0 1:0.0 2:0.0 3:0.0 4:1.0 5:0.0 
1.0 0.0 1:1.0 2:0.0 3:0.0 4:0.0 5:0.0 
1.0 0.0 1:1.0 2:0.0 3:0.0 4:0.0 5:0.0 
1.0 0.0 1:0.0 2:0.0 3:0.0 4:1.0 5:0.0 
1.0 0.0 1:0.0 2:0.0 3:0.0 4:1.0 5:0.0 
1.0 0.0 1:0.0 2:0.0 3:0.0 4:1.0 5:0.0 
1.0 0.0 1:0.0 2:0.0 3:0.0 4:1.0 5:0.0 
1.0 0.0 1:0.0 2:0.0 3:0.0 4:1.0 5:0.0 
1.0 0.0 1:1.0 2:0.0 3:0.0 4:1.0 5:0.0 
1.0 0.0 1:0.0 2:0.0 3:0.0 4:1.0 5:0.0 
1.0 0.0 1:0.0 2:0.0 3:0.0 4:0.0 5:1.0 
1.0 0.0 1:0.0 2:0.0 3:0.0 4:1.0 5:0.0 
1.0 0.0 1:0.0 2:0.0 3:0.0 4:1.0 5:0.0 
1.0 0.0 1:0.0 2:0.0 3:0.0 4:1.0 5:0.0 
1.0 0.0 1:0.0 2:0.0 3:0.0 4:0.0 5:1.0 
1.0 0.0 1:0.0 2:0.0 3:0.0 4:1.0 5:0.0 
1.0 0.0 1:0.0 2:0.0 3:0.0 4:1.0 5:0.0 
1.0 0.0 1:1.0 2:0.0 3:0.0 4:0.0 5:0.0 
1.0 0.0 1:1.0 2:0.0 3:0.0 4:0.0 5:1.0 
1.0 0.0 1:0.0 2:0.0 3:0.0 4:1.0 5:0.0 
1.0 0.0 1:0.0 2:0.0 3:0.0 4:1.0 5:0.0 
1.0 0.0 1:0.0 2:0.0 3:0.0 4:1.0 5:0.0 
1.0 0.0 1:0.0 2:0.0 3:0.0 4:1.0 5:0.0 
1.0 0.0 1:0.0 2:0.0 3:0.0 4:1.0 5:0.0 
1.0 0.0 1:1.0 2:0.0 3:0.0 4:0.0 5:0.0 
1.0 0.0 1:0.0 2:0.0 3:0.0 4:1.0 5:0.0 
1.0 0.0 1:0.0 2:0.0 3:0.0 4:1.0 5:0.0 
1.0 0.0 1:0.0 2:0.0 3:0.0 4:1.0 5:0.0 
1.0 0.0 1:1.0 2:0.0 3:0.0 4:0.0 5:0.0 
1.0 0.0 1:1.0 2:0.0 3:0.0 4:0.0 5:1.0 
1.0 0.0 1:1.0 2:0.0 3:0.0 4:0.0 5:0.0 
1.0 0.0 1:0.0 2:0.0 3:0.0 4:1.0 5:0.0 
1.0 0.0 1:1.0 2:0.0 3:0.0 4:0.0 5:0.0 
1.0 0.0 1:0.0 2:0.0 3:0.0 4:1.0 5:0.0 
1.0 0.0 1:0.0 2:0.0 3:0.0 4:1.0 5:0.0 
1.0 0.0 1:0.0 2:0.0 3:0.0 4:0.0 5:1.0 
1.0 0.0 1:1.0 2:0.0 3:0.0 4:0.0 5:0.0 
1.0 0.0 1:0.0 2:0.0 3:0.0 4:1.0 5:0.0 
1.0 0.0 1:0.0 2:0.0 3:0.0 4:1.0 5:0.0 
1.0 0.0 1:0.0 2:0.0 3:0.0 4:1.0 5:0.0 
1.0 0.0 1:1.0 2:0.0 3:0.0 4:0.0 5:0.0 
1.0 0.0 1:0.0 2:0.0 3:0.0 4:1.0 5:0.0 
1.0 0.0 1:0.0 2:0.0 3:0.0 4:1.0 5:0.0 
1.0 0.0 1:0.0 2:0.0 3:0.0 4:1.0 5:0.0 
1.0 0.0 1:0.0 2:0.0 3:0.0 4:1.0 5:0.0 
1.0 0.0 1:0.0 2:0.0 3:0.0 4:1.0 5:0.0 
1.0 0.0 1:0.0 2:0.0 3:0.0 4:1.0 5:0.0 
1.0 0.0 1:1.0 2:0.0 3:0.0 4:0.0 5:0.0 
1.0 0.0 1:1.0 2:0.0 3:0.0 4:0.0 5:0.0 
1.0 0.0 1:0.0 2:0.0 3:0.0 4:1.0 5:0.0 
1.0 0.0 1:0.0 2:0.0 3:0.0 4:1.0 5:0.0 
1.0 0.0 1:1.0 2:0.0 3:0.0 4:0.0 5:0.0 
1.0 0.0 1:1.0 2:0.0 3:0.0 4:0.0 5:0.0 
1.0 0.0 1:0.0 2:0.0 3:0.0 4:1.0 5:0.0 
1.0 0.0 1:0.0 2:0.0 3:0.0 4:1.0 5:0.0 
1.0 0.0 1:0.0 2:0.0 3:0.0 4:1.0 5:0.0 
1.0 0.0 1:0.0 2:0.0 3:0.0 4:1.0 5:0.0 
1.0 0.0 1:1.0 2:0.0 3:0.0 4:0.0 5:0.0 
1.0 0.0 1:1.0 2:0.0 3:0.0 4:0.0 5:0.0 
1.0 0.0 1:1.0 2:0.0 3:0.0 4:0.0 5:0.0 
1.0 0.0 1:0.0 2:0.0 3:0.0 4:1.0 5:0.0 
1.0 0.0 1:1.0 2:0.0 3:0.0 4:0.0 5:0.0 
1.0 0.0 1:1.0 2:0.0 3:0.0 4:0.0 5:0.0 
1.0 0.0 1:1.0 2:0.0 3:0.0 4:0.0 5:0.0 
1.0 0.0 1:0.0 2:0.0 3:0.0 4:1.0 5:0.0 
1.0 0.0 1:0.0 2:0.0 3:0.0 4:1.0 5:0.0 
1.0 0.0 1:0.0 2:0.0 3:0.0 4:1.0 5:0.0 
1.0 0.0 1:0.0 2:0.0 3:0.0 4:1.0 5:0.0 
1.0 0.0 1:1.0 2:0.0 3:0.0 4:0.0 5:0.0 
1.0 0.0 1:0.0 2:0.0 3:0.0 4:1.0 5:0.0 
1.0 0.0 1:0.0 2:0.0 3:0.0 4:1.0 5:0.0 
1.0 0.0 1:1.0 2:0.0 3:0.0 4:0.0 5:0.0 
1.0 0.0 1:1.0 2:0.0 3:0.0 4:0.0 5:0.0 
1.0 0.0 1:1.0 2:0.0 3:0.0 4:0.0 5:1.0 
1.0 0.0 1:0.0 2:0.0 3:0.0 4:1.0 5:0.0 
1.0 0.0 1:1.0 2:0.0 3:0.0 4:0.0 5:0.0 
1.0 0.0 1:0.0 2:0.0 3:0.0 4:1.0 5:0.0 
1.0 0.0 1:0.0 2:0.0 3:0.0 4:0.0 5:1.0 
1.0 0.0 1:0.0 2:0.0 3:0.0 4:1.0 5:0.0 
1.0 0.0 1:0.0 2:0.0 3:0.0 4:0.0 5:1.0 
1.0 0.0 1:0.0 2:0.0 3:0.0 4:1.0 5:0.0 
0.4740882066772171 0.0 1:0.0 2:0.0 3:0.0 4:0.0 5:0.0 
1.0 0.0 1:0.0 2:0.0 3:0.0 4:0.0 5:0.0 
1.0 0.0 1:0.0 2:0.0 3:0.0 4:0.0 5:0.0 
1.0 0.0 1:0.0 2:0.0 3:0.0 4:0.0 5:0.0 
1.0 0.0 1:0.0 2:0.0 3:0.0 4:0.0 5:0.0 
1.0 0.0 1:0.0 2:0.0 3:0.0 4:1.0 5:0.0 
1.0 0.0 1:0.0 2:0.0 3:0.0 4:0.0 5:0.0 
1.0 0.0 1:0.0 2:0.0 3:0.0 4:0.0 5:0.0 
1.0 0.0 1:0.0 2:0.0 3:0.0 4:0.0 5:0.0 
1.0 0.0 1:0.0 2:0.0 3:0.0 4:0.0 5:0.0 
1.0 0.0 1:0.0 2:0.0 3:0.0 4:0.0 5:0.0 
1.0 0.0 1:0.0 2:0.0 3:0.0 4:0.0 5:1.0 
1.0 0.0 1:0.0 2:0.0 3:0.0 4:0.0 5:0.0 
1.0 0.0 1:0.0 2:0.0 3:0.0 4:0.0 5:0.0 
1.0 0.0 1:0.0 2:0.0 3:0.0 4:0.0 5:0.0 
1.0 0.0 1:0.0 2:0.0 3:0.0 4:0.0 5:0.0 
1.0 0.0 1:0.0 2:0.0 3:0.0 4:0.0 5:0.0 
1.0 0.0 1:0.0 2:0.0 3:0.0 4:0.0 5:0.0 
1.0 0.0 1:0.0 2:0.0 3:0.0 4:0.0 5:0.0 
1.0 0.0 1:0.0 2:0.0 3:0.0 4:0.0 5:0.0 
1.0 0.0 1:0.0 2:0.0 3:0.0 4:0.0 5:0.0 
1.0 0.0 1:0.0 2:0.0 3:0.0 4:0.0 5:0.0 
1.0 0.0 1:0.0 2:0.0 3:0.0 4:0.0 5:0.0 
1.0 0.0 1:0.0 2:0.0 3:0.0 4:1.0 5:0.0 
1.0 0.0 1:0.0 2:0.0 3:0.0 4:1.0 5:0.0 
1.0 0.0 1:0.0 2:0.0 3:0.0 4:0.0 5:0.0 
1.0 0.0 1:0.0 2:0.0 3:0.0 4:1.0 5:0.0 
1.0 0.0 1:1.0 2:0.0 3:0.0 4:0.0 5:0.0 
1.0 0.0 1:1.0 2:0.0 3:0.0 4:0.0 5:0.0 
1.0 0.0 1:0.0 2:0.0 3:0.0 4:0.0 5:0.0 
1.0 0.0 1:0.0 2:0.0 3:0.0 4:0.0 5:0.0 
1.0 0.0 1:0.0 2:0.0 3:0.0 4:0.0 5:0.0 
1.0 0.0 1:0.0 2:0.0 3:0.0 4:0.0 5:0.0 
1.0 0.0 1:0.0 2:0.0 3:0.0 4:0.0 5:0.0 
1.0 0.0 1:0.0 2:0.0 3:0.0 4:0.0 5:0.0 
1.0 0.0 1:1.0 2:0.0 3:0.0 4:0.0 5:0.0 
1.0 0.0 1:0.0 2:0.0 3:0.0 4:0.0 5:0.0 
1.0 0.0 1:0.0 2:0.0 3:0.0 4:0.0 5:0.0 
1.0 0.0 1:0.0 2:0.0 3:0.0 4:0.0 5:0.0 
1.0 0.0 1:0.0 2:0.0 3:0.0 4:1.0 5:0.0 
1.0 0.0 1:0.0 2:0.0 3:0.0 4:1.0 5:0.0 
1.0 0.0 1:0.0 2:0.0 3:0.0 4:0.0 5:0.0 
1.0 0.0 1:0.0 2:0.0 3:0.0 4:0.0 5:0.0 
1.0 0.0 1:0.0 2:0.0 3:0.0 4:0.0 5:0.0 
1.0 0.0 1:0.0 2:0.0 3:0.0 4:0.0 5:0.0 
1.0 0.0 1:0.0 2:0.0 3:0.0 4:0.0 5:0.0 
1.0 0.0 1:0.0 2:0.0 3:0.0 4:0.0 5:0.0 
1.0 0.0 1:0.0 2:0.0 3:0.0 4:0.0 5:0.0 
1.0 0.0 1:0.0 2:0.0 3:0.0 4:0.0 5:0.0 
1.0 0.0 1:0.0 2:0.0 3:0.0 4:0.0 5:0.0 
1.0 0.0 1:0.0 2:0.0 3:0.0 4:0.0 5:0.0 
1.0 0.0 1:0.0 2:0.0 3:0.0 4:0.0 5:0.0 
1.0 0.0 1:0.0 2:0.0 3:0.0 4:0.0 5:0.0 
1.0 0.0 1:0.0 2:0.0 3:0.0 4:0.0 5:0.0 
1.0 0.0 1:0.0 2:0.0 3:0.0 4:1.0 5:0.0 
1.0 0.0 1:0.0 2:0.0 3:0.0 4:0.0 5:0.0 
1.0 0.0 1:0.0 2:0.0 3:0.0 4:0.0 5:0.0 
1.0 0.0 1:0.0 2:0.0 3:0.0 4:1.0 5:0.0 
1.0 0.0 1:0.0 2:0.0 3:0.0 4:0.0 5:0.0 
1.0 0.0 1:0.0 2:0.0 3:0.0 4:0.0 5:0.0 
1.0 0.0 1:0.0 2:0.0 3:0.0 4:1.0 5:0.0 
1.0 0.0 1:0.0 2:0.0 3:0.0 4:1.0 5:0.0 
1.0 0.0 1:1.0 2:0.0 3:0.0 4:0.0 5:0.0 
1.0 0.0 1:0.0 2:0.0 3:0.0 4:0.0 5:0.0 
1.0 0.0 1:1.0 2:0.0 3:0.0 4:0.0 5:0.0 
1.0 0.0 1:0.0 2:0.0 3:0.0 4:0.0 5:0.0 
1.0 0.0 1:0.0 2:0.0 3:0.0 4:0.0 5:0.0 
1.0 0.0 1:0.0 2:0.0 3:0.0 4:0.0 5:0.0 
1.0 0.0 1:0.0 2:0.0 3:0.0 4:0.0 5:0.0 
1.0 0.0 1:0.0 2:0.0 3:0.0 4:0.0 5:0.0 
1.0 0.0 1:0.0 2:0.0 3:0.0 4:0.0 5:0.0 
1.0 0.0 1:0.0 2:0.0 3:0.0 4:0.0 5:0.0 
1.0 0.0 1:0.0 2:0.0 3:0.0 4:0.0 5:0.0 
1.0 0.0 1:1.0 2:0.0 3:0.0 4:0.0 5:0.0 
1.0 0.0 1:0.0 2:0.0 3:0.0 4:0.0 5:0.0 
1.0 0.0 1:0.0 2:0.0 3:0.0 4:0.0 5:0.0 
1.0 0.0 1:0.0 2:0.0 3:0.0 4:1.0 5:0.0 
1.0 0.0 1:0.0 2:0.0 3:0.0 4:0.0 5:0.0 
1.0 0.0 1:0.0 2:0.0 3:0.0 4:0.0 5:0.0 
1.0 0.0 1:0.0 2:0.0 3:0.0 4:0.0 5:0.0 
1.0 0.0 1:0.0 2:0.0 3:0.0 4:0.0 5:0.0 
1.0 0.0 1:1.0 2:0.0 3:0.0 4:0.0 5:0.0 
1.0 0.0 1:0.0 2:0.0 3:0.0 4:0.0 5:0.0 
1.0 0.0 1:0.0 2:0.0 3:0.0 4:0.0 5:0.0 
1.0 0.0 1:1.0 2:0.0 3:0.0 4:0.0 5:0.0 
1.0 0.0 1:1.0 2:0.0 3:0.0 4:0.0 5:0.0 
1.0 0.0 1:1.0 2:0.0 3:0.0 4:0.0 5:0.0 
1.0 0.0 1:0.0 2:0.0 3:0.0 4:0.0 5:0.0 
1.0 0.0 1:0.0 2:0.0 3:0.0 4:0.0 5:0.0 
1.0 0.0 1:0.0 2:0.0 3:0.0 4:0.0 5:0.0 
1.0 0.0 1:0.0 2:0.0 3:0.0 4:0.0 5:0.0 
1.0 0.0 1:0.0 2:0.0 3:0.0 4:1.0 5:0.0 
1.0 0.0 1:0.0 2:0.0 3:0.0 4:0.0 5:0.0 
1.0 0.0 1:0.0 2:0.0 3:0.0 4:1.0 5:0.0 
1.0 0.0 1:0.0 2:0.0 3:0.0 4:0.0 5:0.0 
1.0 0.0 1:0.0 2:0.0 3:0.0 4:0.0 5:0.0 
1.0 0.0 1:0.0 2:0.0 3:0.0 4:0.0 5:0.0 
1.0 0.0 1:1.0 2:0.0 3:0.0 4:0.0 5:1.0 
1.0 0.0 1:0.0 2:0.0 3:0.0 4:1.0 5:0.0 
1.0 0.0 1:0.0 2:0.0 3:0.0 4:0.0 5:0.0 
1.0 0.0 1:0.0 2:0.0 3:0.0 4:0.0 5:0.0 
1.0 0.0 1:0.0 2:0.0 3:0.0 4:1.0 5:0.0 
1.0 0.0 1:0.0 2:0.0 3:0.0 4:0.0 5:0.0 
1.0 0.0 1:0.0 2:0.0 3:0.0 4:0.0 5:0.0 
1.0 0.0 1:0.0 2:0.0 3:0.0 4:0.0 5:0.0 
1.0 0.0 1:0.0 2:0.0 3:0.0 4:0.0 5:0.0 
1.0 0.0 1:0.0 2:0.0 3:0.0 4:0.0 5:0.0 
1.0 0.0 1:0.0 2:0.0 3:0.0 4:0.0 5:0.0 
1.0 0.0 1:0.0 2:0.0 3:0.0 4:0.0 5:0.0 
1.0 0.0 1:0.0 2:0.0 3:0.0 4:1.0 5:0.0 
1.0 0.0 1:0.0 2:0.0 3:0.0 4:0.0 5:0.0 
1.0 0.0 1:0.0 2:0.0 3:0.0 4:0.0 5:0.0 
1.0 0.0 1:0.0 2:0.0 3:0.0 4:0.0 5:0.0 
1.0 0.0 1:0.0 2:0.0 3:0.0 4:1.0 5:0.0 
1.0 0.0 1:0.0 2:0.0 3:0.0 4:0.0 5:0.0 
1.0 0.0 1:0.0 2:0.0 3:0.0 4:0.0 5:0.0 
1.0 0.0 1:0.0 2:0.0 3:0.0 4:0.0 5:0.0 
1.0 0.0 1:0.0 2:0.0 3:0.0 4:0.0 5:0.0 
1.0 0.0 1:0.0 2:0.0 3:0.0 4:0.0 5:0.0 
1.0 0.0 1:0.0 2:0.0 3:0.0 4:0.0 5:0.0 
1.0 0.0 1:0.0 2:0.0 3:0.0 4:0.0 5:0.0 
1.0 0.0 1:0.0 2:0.0 3:0.0 4:0.0 5:0.0 
1.0 0.0 1:0.0 2:0.0 3:0.0 4:0.0 5:0.0 
1.0 0.0 1:1.0 2:0.0 3:0.0 4:0.0 5:0.0 
1.0 0.0 1:0.0 2:0.0 3:0.0 4:0.0 5:0.0 
1.0 0.0 1:0.0 2:0.0 3:0.0 4:0.0 5:0.0 
1.0 0.0 1:0.0 2:0.0 3:0.0 4:0.0 5:0.0 
1.0 0.0 1:0.0 2:0.0 3:0.0 4:0.0 5:0.0 
1.0 0.0 1:0.0 2:0.0 3:0.0 4:0.0 5:0.0 
1.0 0.0 1:0.0 2:0.0 3:0.0 4:0.0 5:0.0 
1.0 0.0 1:0.0 2:0.0 3:0.0 4:0.0 5:0.0 
1.0 0.0 1:0.0 2:0.0 3:0.0 4:0.0 5:0.0 
1.0 0.0 1:0.0 2:0.0 3:0.0 4:0.0 5:0.0 
1.0 0.0 1:0.0 2:0.0 3:0.0 4:0.0 5:0.0 
1.0 0.0 1:0.0 2:0.0 3:0.0 4:0.0 5:0.0 
1.0 0.0 1:0.0 2:0.0 3:0.0 4:0.0 5:0.0 
1.0 0.0 1:0.0 2:0.0 3:0.0 4:0.0 5:0.0 
1.0 0.0 1:0.0 2:0.0 3:0.0 4:0.0 5:0.0 
1.0 0.0 1:1.0 2:0.0 3:0.0 4:0.0 5:0.0 
1.0 0.0 1:0.0 2:0.0 3:0.0 4:0.0 5:0.0 
1.0 0.0 1:0.0 2:0.0 3:0.0 4:0.0 5:0.0 
1.0 0.0 1:0.0 2:0.0 3:0.0 4:0.0 5:0.0 
1.0 0.0 1:0.0 2:0.0 3:0.0 4:0.0 5:0.0 
1.0 0.0 1:0.0 2:0.0 3:0.0 4:0.0 5:0.0 
1.0 0.0 1:0.0 2:0.0 3:0.0 4:0.0 5:0.0 
1.0 0.0 1:0.0 2:0.0 3:0.0 4:0.0 5:0.0 
1.0 0.0 1:0.0 2:0.0 3:0.0 4:0.0 5:0.0 
1.0 0.0 1:0.0 2:0.0 3:0.0 4:0.0 5:0.0 
1.0 0.0 1:0.0 2:0.0 3:0.0 4:0.0 5:1.0 
1.0 0.0 1:0.0 2:0.0 3:0.0 4:0.0 5:0.0 
1.0 0.0 1:0.0 2:0.0 3:0.0 4:0.0 5:0.0 
1.0 0.0 1:0.0 2:0.0 3:0.0 4:1.0 5:0.0 
1.0 0.0 1:0.0 2:0.0 3:0.0 4:0.0 5:0.0 
1.0 0.0 1:0.0 2:0.0 3:0.0 4:0.0 5:0.0 
1.0 0.0 1:0.0 2:0.0 3:0.0 4:1.0 5:0.0 
1.0 0.0 1:0.0 2:0.0 3:0.0 4:0.0 5:0.0 
1.0 0.0 1:0.0 2:0.0 3:0.0 4:0.0 5:0.0 
1.0 0.0 1:0.0 2:0.0 3:0.0 4:0.0 5:0.0 
1.0 0.0 1:0.0 2:0.0 3:0.0 4:0.0 5:0.0 
1.0 0.0 1:0.0 2:0.0 3:0.0 4:0.0 5:0.0 
1.0 0.0 1:1.0 2:0.0 3:0.0 4:0.0 5:0.0 
1.0 0.0 1:0.0 2:0.0 3:0.0 4:0.0 5:0.0 
1.0 0.0 1:0.0 2:0.0 3:0.0 4:0.0 5:1.0 
1.0 0.0 1:0.0 2:0.0 3:0.0 4:0.0 5:0.0 
1.0 0.0 1:0.0 2:0.0 3:0.0 4:0.0 5:0.0 
1.0 0.0 1:1.0 2:0.0 3:0.0 4:1.0 5:0.0 
1.0 0.0 1:0.0 2:0.0 3:0.0 4:0.0 5:0.0 
1.0 0.0 1:0.0 2:0.0 3:0.0 4:0.0 5:0.0 
1.0 0.0 1:0.0 2:0.0 3:0.0 4:0.0 5:0.0 
1.0 0.0 1:0.0 2:0.0 3:0.0 4:1.0 5:0.0 
1.0 0.0 1:0.0 2:0.0 3:0.0 4:0.0 5:0.0 
1.0 0.0 1:0.0 2:0.0 3:0.0 4:0.0 5:0.0 
1.0 1.0 1:0.0 2:0.0 3:0.0 4:1.0 5:1.0 
1.0 0.0 1:0.0 2:0.0 3:0.0 4:0.0 5:0.0 
1.0 0.0 1:0.0 2:0.0 3:0.0 4:0.0 5:0.0 
1.0 0.0 1:0.0 2:0.0 3:0.0 4:0.0 5:0.0 
1.0 0.0 1:0.0 2:0.0 3:0.0 4:0.0 5:0.0 
1.0 0.0 1:0.0 2:0.0 3:0.0 4:0.0 5:0.0 
1.0 0.0 1:0.0 2:0.0 3:0.0 4:0.0 5:0.0 
1.0 0.0 1:0.0 2:0.0 3:0.0 4:0.0 5:0.0 
1.0 0.0 1:0.0 2:0.0 3:0.0 4:1.0 5:0.0 
1.0 0.0 1:0.0 2:0.0 3:0.0 4:0.0 5:0.0 
1.0 0.0 1:0.0 2:0.0 3:0.0 4:0.0 5:0.0 
1.0 0.0 1:0.0 2:0.0 3:0.0 4:0.0 5:0.0 
1.0 0.0 1:0.0 2:0.0 3:0.0 4:0.0 5:0.0 
1.0 0.0 1:0.0 2:0.0 3:0.0 4:0.0 5:0.0 
1.0 0.0 1:0.0 2:0.0 3:0.0 4:1.0 5:0.0 
1.0 0.0 1:0.0 2:0.0 3:0.0 4:0.0 5:0.0 
1.0 0.0 1:0.0 2:0.0 3:0.0 4:0.0 5:0.0 
1.0 0.0 1:0.0 2:0.0 3:0.0 4:1.0 5:0.0 
1.0 0.0 1:0.0 2:0.0 3:0.0 4:0.0 5:1.0 
1.0 0.0 1:0.0 2:0.0 3:0.0 4:0.0 5:0.0 
1.0 0.0 1:1.0 2:0.0 3:0.0 4:0.0 5:0.0 
1.0 0.0 1:0.0 2:0.0 3:0.0 4:0.0 5:0.0 
1.0 0.0 1:0.0 2:0.0 3:0.0 4:0.0 5:0.0 
1.0 0.0 1:0.0 2:0.0 3:0.0 4:0.0 5:0.0 
1.0 0.0 1:0.0 2:0.0 3:0.0 4:0.0 5:0.0 
1.0 0.0 1:0.0 2:0.0 3:0.0 4:0.0 5:0.0 
1.0 0.0 1:0.0 2:0.0 3:0.0 4:0.0 5:1.0 
1.0 0.0 1:0.0 2:0.0 3:0.0 4:0.0 5:0.0 
1.0 0.0 1:0.0 2:0.0 3:0.0 4:0.0 5:0.0 
1.0 0.0 1:0.0 2:0.0 3:0.0 4:0.0 5:0.0 
1.0 0.0 1:0.0 2:0.0 3:0.0 4:0.0 5:0.0 
1.0 0.0 1:0.0 2:0.0 3:0.0 4:0.0 5:0.0 
1.0 0.0 1:0.0 2:0.0 3:0.0 4:0.0 5:0.0 
1.0 0.0 1:0.0 2:0.0 3:0.0 4:0.0 5:0.0 
1.0 0.0 1:0.0 2:0.0 3:0.0 4:0.0 5:0.0 
1.0 0.0 1:0.0 2:0.0 3:0.0 4:0.0 5:0.0 
1.0 0.0 1:0.0 2:0.0 3:0.0 4:0.0 5:0.0 
1.0 0.0 1:0.0 2:0.0 3:0.0 4:0.0 5:0.0 
1.0 0.0 1:1.0 2:0.0 3:0.0 4:0.0 5:0.0 
1.0 0.0 1:0.0 2:0.0 3:0.0 4:0.0 5:0.0 
1.0 0.0 1:0.0 2:0.0 3:0.0 4:1.0 5:0.0 
1.0 0.0 1:0.0 2:0.0 3:0.0 4:1.0 5:0.0 
1.0 0.0 1:0.0 2:0.0 3:0.0 4:1.0 5:0.0 
1.0 0.0 1:0.0 2:0.0 3:0.0 4:0.0 5:0.0 
1.0 0.0 1:0.0 2:0.0 3:0.0 4:0.0 5:0.0 
1.0 0.0 1:0.0 2:0.0 3:0.0 4:0.0 5:0.0 
1.0 0.0 1:0.0 2:0.0 3:0.0 4:0.0 5:0.0 
1.0 0.0 1:0.0 2:0.0 3:0.0 4:0.0 5:0.0 
1.0 0.0 1:0.0 2:0.0 3:0.0 4:0.0 5:0.0 
1.0 0.0 1:0.0 2:0.0 3:0.0 4:0.0 5:0.0 
1.0 0.0 1:0.0 2:0.0 3:0.0 4:0.0 5:0.0 
1.0 0.0 1:0.0 2:0.0 3:0.0 4:0.0 5:0.0 
1.0 0.0 1:0.0 2:0.0 3:0.0 4:0.0 5:0.0 
1.0 0.0 1:0.0 2:0.0 3:0.0 4:0.0 5:0.0 
1.0 0.0 1:0.0 2:0.0 3:0.0 4:0.0 5:0.0 
1.0 0.0 1:0.0 2:0.0 3:0.0 4:1.0 5:0.0 
1.0 0.0 1:0.0 2:0.0 3:0.0 4:0.0 5:0.0 
1.0 0.0 1:0.0 2:0.0 3:0.0 4:0.0 5:0.0 
1.0 0.0 1:0.0 2:0.0 3:0.0 4:0.0 5:0.0 
1.0 0.0 1:0.0 2:0.0 3:0.0 4:0.0 5:0.0 
1.0 0.0 1:0.0 2:0.0 3:0.0 4:0.0 5:0.0 
1.0 0.0 1:0.0 2:0.0 3:0.0 4:0.0 5:0.0 
1.0 0.0 1:0.0 2:0.0 3:0.0 4:0.0 5:0.0 
1.0 0.0 1:0.0 2:0.0 3:0.0 4:0.0 5:0.0 
1.0 0.0 1:0.0 2:0.0 3:0.0 4:0.0 5:0.0 
1.0 0.0 1:0.0 2:0.0 3:0.0 4:0.0 5:0.0 
1.0 0.0 1:0.0 2:0.0 3:0.0 4:0.0 5:0.0 
1.0 0.0 1:0.0 2:0.0 3:0.0 4:0.0 5:0.0 
1.0 0.0 1:0.0 2:0.0 3:0.0 4:0.0 5:0.0 
1.0 0.0 1:0.0 2:0.0 3:0.0 4:1.0 5:0.0 
1.0 0.0 1:0.0 2:0.0 3:0.0 4:0.0 5:0.0 
1.0 0.0 1:1.0 2:0.0 3:0.0 4:0.0 5:0.0 
1.0 0.0 1:0.0 2:0.0 3:0.0 4:0.0 5:0.0 
1.0 0.0 1:0.0 2:0.0 3:0.0 4:0.0 5:0.0 
1.0 0.0 1:0.0 2:0.0 3:0.0 4:0.0 5:0.0 
1.0 0.0 1:0.0 2:0.0 3:0.0 4:0.0 5:0.0 
1.0 0.0 1:0.0 2:0.0 3:0.0 4:0.0 5:0.0 
1.0 0.0 1:0.0 2:0.0 3:0.0 4:0.0 5:1.0 
1.0 0.0 1:0.0 2:0.0 3:0.0 4:0.0 5:0.0 
1.0 0.0 1:0.0 2:0.0 3:0.0 4:1.0 5:0.0 
1.0 0.0 1:0.0 2:0.0 3:0.0 4:1.0 5:0.0 
1.0 0.0 1:0.0 2:0.0 3:0.0 4:1.0 5:0.0 
1.0 0.0 1:0.0 2:0.0 3:0.0 4:0.0 5:1.0 
1.0 0.0 1:0.0 2:0.0 3:0.0 4:0.0 5:0.0 
1.0 0.0 1:0.0 2:0.0 3:0.0 4:0.0 5:0.0 
1.0 0.0 1:0.0 2:0.0 3:0.0 4:0.0 5:0.0 
1.0 0.0 1:0.0 2:0.0 3:0.0 4:0.0 5:0.0 
1.0 0.0 1:0.0 2:0.0 3:0.0 4:0.0 5:0.0 
1.0 0.0 1:0.0 2:0.0 3:0.0 4:0.0 5:0.0 
1.0 0.0 1:0.0 2:0.0 3:0.0 4:0.0 5:1.0 
1.0 0.0 1:0.0 2:0.0 3:0.0 4:0.0 5:0.0 
1.0 0.0 1:0.0 2:0.0 3:0.0 4:0.0 5:0.0 
1.0 0.0 1:1.0 2:0.0 3:0.0 4:0.0 5:0.0 
1.0 0.0 1:0.0 2:0.0 3:0.0 4:0.0 5:0.0 
1.0 0.0 1:0.0 2:0.0 3:0.0 4:0.0 5:0.0 
1.0 0.0 1:0.0 2:0.0 3:0.0 4:0.0 5:0.0 
1.0 0.0 1:0.0 2:0.0 3:0.0 4:0.0 5:0.0 
1.0 0.0 1:0.0 2:0.0 3:0.0 4:0.0 5:0.0 
1.0 0.0 1:0.0 2:0.0 3:0.0 4:0.0 5:0.0 
1.0 0.0 1:0.0 2:0.0 3:0.0 4:0.0 5:0.0 
1.0 0.0 1:0.0 2:0.0 3:0.0 4:0.0 5:0.0 
1.0 0.0 1:1.0 2:0.0 3:0.0 4:0.0 5:0.0 
1.0 0.0 1:0.0 2:0.0 3:0.0 4:0.0 5:0.0 
1.0 0.0 1:0.0 2:0.0 3:0.0 4:1.0 5:0.0 
1.0 0.0 1:0.0 2:0.0 3:0.0 4:0.0 5:0.0 
1.0 0.0 1:0.0 2:0.0 3:0.0 4:0.0 5:0.0 
1.0 0.0 1:0.0 2:0.0 3:0.0 4:1.0 5:0.0 
1.0 0.0 1:0.0 2:0.0 3:0.0 4:0.0 5:0.0 
1.0 0.0 1:0.0 2:0.0 3:0.0 4:0.0 5:0.0 
1.0 0.0 1:0.0 2:0.0 3:0.0 4:0.0 5:1.0 
1.0 0.0 1:0.0 2:0.0 3:0.0 4:0.0 5:0.0 
1.0 0.0 1:0.0 2:0.0 3:0.0 4:0.0 5:0.0 
1.0 0.0 1:0.0 2:0.0 3:0.0 4:0.0 5:1.0 
1.0 0.0 1:0.0 2:0.0 3:0.0 4:1.0 5:0.0 
1.0 0.0 1:0.0 2:0.0 3:0.0 4:0.0 5:0.0 
1.0 0.0 1:0.0 2:0.0 3:0.0 4:0.0 5:0.0 
1.0 0.0 1:0.0 2:0.0 3:0.0 4:1.0 5:0.0 
1.0 0.0 1:0.0 2:0.0 3:0.0 4:0.0 5:0.0 
1.0 0.0 1:1.0 2:0.0 3:0.0 4:0.0 5:0.0 
1.0 0.0 1:0.0 2:0.0 3:0.0 4:0.0 5:0.0 
1.0 0.0 1:0.0 2:0.0 3:0.0 4:0.0 5:0.0 
1.0 0.0 1:1.0 2:0.0 3:0.0 4:0.0 5:0.0 
1.0 0.0 1:0.0 2:0.0 3:0.0 4:0.0 5:0.0 
1.0 0.0 1:0.0 2:0.0 3:0.0 4:0.0 5:0.0 
1.0 0.0 1:0.0 2:0.0 3:0.0 4:0.0 5:0.0 
1.0 0.0 1:0.0 2:0.0 3:0.0 4:0.0 5:0.0 
1.0 0.0 1:1.0 2:0.0 3:0.0 4:0.0 5:0.0 
1.0 0.0 1:0.0 2:0.0 3:0.0 4:0.0 5:0.0 
1.0 0.0 1:0.0 2:0.0 3:0.0 4:0.0 5:0.0 
1.0 0.0 1:0.0 2:0.0 3:0.0 4:0.0 5:0.0 
1.0 0.0 1:0.0 2:0.0 3:0.0 4:0.0 5:0.0 
1.0 0.0 1:0.0 2:0.0 3:0.0 4:1.0 5:0.0 
1.0 0.0 1:0.0 2:0.0 3:0.0 4:0.0 5:0.0 
1.0 0.0 1:0.0 2:0.0 3:0.0 4:0.0 5:0.0 
1.0 0.0 1:0.0 2:0.0 3:0.0 4:0.0 5:0.0 
1.0 0.0 1:0.0 2:0.0 3:0.0 4:1.0 5:0.0 
1.0 0.0 1:0.0 2:0.0 3:0.0 4:0.0 5:0.0 
1.0 0.0 1:0.0 2:0.0 3:0.0 4:0.0 5:0.0 
1.0 0.0 1:0.0 2:0.0 3:0.0 4:0.0 5:0.0 
1.0 0.0 1:0.0 2:0.0 3:0.0 4:0.0 5:0.0 
1.0 0.0 1:1.0 2:0.0 3:0.0 4:0.0 5:0.0 
1.0 0.0 1:0.0 2:0.0 3:0.0 4:0.0 5:0.0 
1.0 0.0 1:1.0 2:0.0 3:0.0 4:0.0 5:1.0 
1.0 0.0 1:0.0 2:0.0 3:0.0 4:0.0 5:0.0 
1.0 0.0 1:0.0 2:0.0 3:0.0 4:0.0 5:0.0 
1.0 0.0 1:0.0 2:0.0 3:0.0 4:0.0 5:0.0 
1.0 0.0 1:0.0 2:0.0 3:0.0 4:0.0 5:0.0 
1.0 0.0 1:0.0 2:0.0 3:0.0 4:0.0 5:1.0 
1.0 0.0 1:0.0 2:0.0 3:0.0 4:0.0 5:0.0 
1.0 0.0 1:0.0 2:0.0 3:0.0 4:1.0 5:0.0 
1.0 0.0 1:0.0 2:0.0 3:0.0 4:0.0 5:0.0 
1.0 0.0 1:0.0 2:0.0 3:0.0 4:0.0 5:0.0 
1.0 0.0 1:0.0 2:0.0 3:0.0 4:0.0 5:0.0 
1.0 0.0 1:0.0 2:0.0 3:0.0 4:0.0 5:0.0 
1.0 0.0 1:1.0 2:0.0 3:0.0 4:0.0 5:0.0 
1.0 0.0 1:0.0 2:0.0 3:0.0 4:0.0 5:0.0 
1.0 0.0 1:0.0 2:0.0 3:0.0 4:0.0 5:0.0 
1.0 0.0 1:0.0 2:0.0 3:0.0 4:1.0 5:0.0 
1.0 0.0 1:0.0 2:0.0 3:0.0 4:0.0 5:0.0 
1.0 0.0 1:0.0 2:0.0 3:0.0 4:0.0 5:0.0 
1.0 0.0 1:0.0 2:0.0 3:0.0 4:0.0 5:0.0 
1.0 0.0 1:0.0 2:0.0 3:0.0 4:0.0 5:0.0 
1.0 0.0 1:0.0 2:0.0 3:0.0 4:0.0 5:0.0 
1.0 0.0 1:0.0 2:0.0 3:0.0 4:0.0 5:0.0 
1.0 0.0 1:0.0 2:0.0 3:0.0 4:0.0 5:0.0 
1.0 0.0 1:0.0 2:0.0 3:0.0 4:0.0 5:0.0 
1.0 0.0 1:0.0 2:0.0 3:0.0 4:0.0 5:0.0 
1.0 0.0 1:0.0 2:0.0 3:0.0 4:0.0 5:0.0 
1.0 0.0 1:0.0 2:0.0 3:0.0 4:1.0 5:0.0 
1.0 0.0 1:0.0 2:0.0 3:0.0 4:0.0 5:0.0 
1.0 0.0 1:0.0 2:0.0 3:0.0 4:0.0 5:0.0 
1.0 0.0 1:0.0 2:0.0 3:0.0 4:0.0 5:0.0 
1.0 0.0 1:0.0 2:0.0 3:0.0 4:0.0 5:0.0 
1.0 0.0 1:0.0 2:0.0 3:0.0 4:0.0 5:0.0 
1.0 0.0 1:0.0 2:0.0 3:0.0 4:0.0 5:0.0 
1.0 0.0 1:0.0 2:0.0 3:0.0 4:0.0 5:0.0 
1.0 0.0 1:0.0 2:0.0 3:0.0 4:0.0 5:0.0 
1.0 0.0 1:1.0 2:0.0 3:0.0 4:0.0 5:0.0 
1.0 0.0 1:0.0 2:0.0 3:0.0 4:0.0 5:0.0 
1.0 0.0 1:0.0 2:0.0 3:0.0 4:0.0 5:0.0 
1.0 0.0 1:0.0 2:0.0 3:0.0 4:0.0 5:0.0 
1.0 0.0 1:0.0 2:0.0 3:0.0 4:0.0 5:0.0 
1.0 0.0 1:0.0 2:0.0 3:0.0 4:0.0 5:0.0 
1.0 0.0 1:0.0 2:0.0 3:0.0 4:0.0 5:0.0 
1.0 0.0 1:0.0 2:0.0 3:0.0 4:0.0 5:0.0 
1.0 0.0 1:0.0 2:0.0 3:0.0 4:0.0 5:0.0 
1.0 0.0 1:0.0 2:0.0 3:0.0 4:0.0 5:0.0 
1.0 0.0 1:0.0 2:0.0 3:0.0 4:0.0 5:0.0 
1.0 0.0 1:0.0 2:0.0 3:0.0 4:0.0 5:0.0 
1.0 0.0 1:0.0 2:0.0 3:0.0 4:0.0 5:0.0 
1.0 0.0 1:0.0 2:0.0 3:0.0 4:0.0 5:0.0 
1.0 0.0 1:0.0 2:0.0 3:0.0 4:0.0 5:0.0 
1.0 0.0 1:0.0 2:0.0 3:0.0 4:0.0 5:0.0 
1.0 0.0 1:0.0 2:0.0 3:0.0 4:0.0 5:1.0 
1.0 0.0 1:0.0 2:0.0 3:0.0 4:0.0 5:0.0 
1.0 0.0 1:0.0 2:0.0 3:0.0 4:0.0 5:0.0 
1.0 0.0 1:0.0 2:0.0 3:0.0 4:0.0 5:0.0 
1.0 0.0 1:0.0 2:0.0 3:0.0 4:0.0 5:0.0 
1.0 0.0 1:0.0 2:0.0 3:0.0 4:0.0 5:0.0 
1.0 0.0 1:0.0 2:0.0 3:0.0 4:0.0 5:0.0 
1.0 0.0 1:0.0 2:0.0 3:0.0 4:0.0 5:0.0 
1.0 0.0 1:0.0 2:0.0 3:0.0 4:0.0 5:0.0 
1.0 0.0 1:1.0 2:0.0 3:0.0 4:0.0 5:0.0 
1.0 0.0 1:0.0 2:0.0 3:0.0 4:1.0 5:0.0 
1.0 0.0 1:0.0 2:0.0 3:0.0 4:0.0 5:0.0 
1.0 0.0 1:0.0 2:0.0 3:0.0 4:0.0 5:0.0 
1.0 0.0 1:1.0 2:0.0 3:0.0 4:0.0 5:0.0 
1.0 0.0 1:0.0 2:0.0 3:0.0 4:0.0 5:0.0 
1.0 0.0 1:1.0 2:0.0 3:0.0 4:0.0 5:0.0 
1.0 0.0 1:0.0 2:0.0 3:0.0 4:0.0 5:0.0 
1.0 0.0 1:0.0 2:0.0 3:0.0 4:0.0 5:0.0 
1.0 0.0 1:0.0 2:0.0 3:0.0 4:0.0 5:0.0 
1.0 0.0 1:0.0 2:0.0 3:0.0 4:0.0 5:0.0 
1.0 0.0 1:0.0 2:0.0 3:0.0 4:0.0 5:0.0 
1.0 0.0 1:0.0 2:0.0 3:0.0 4:0.0 5:0.0 
1.0 0.0 1:0.0 2:0.0 3:0.0 4:1.0 5:0.0 
1.0 0.0 1:0.0 2:0.0 3:0.0 4:0.0 5:0.0 
1.0 0.0 1:0.0 2:0.0 3:0.0 4:0.0 5:0.0 
1.0 0.0 1:0.0 2:0.0 3:0.0 4:0.0 5:0.0 
1.0 0.0 1:0.0 2:0.0 3:0.0 4:0.0 5:0.0 
1.0 0.0 1:0.0 2:0.0 3:0.0 4:0.0 5:0.0 
1.0 0.0 1:0.0 2:0.0 3:0.0 4:0.0 5:0.0 
1.0 0.0 1:0.0 2:0.0 3:0.0 4:0.0 5:0.0 
1.0 0.0 1:0.0 2:0.0 3:0.0 4:0.0 5:0.0 
1.0 0.0 1:0.0 2:0.0 3:0.0 4:0.0 5:0.0 
1.0 0.0 1:0.0 2:0.0 3:0.0 4:0.0 5:0.0 
1.0 0.0 1:0.0 2:0.0 3:0.0 4:0.0 5:0.0 
1.0 0.0 1:0.0 2:0.0 3:0.0 4:0.0 5:0.0 
1.0 0.0 1:0.0 2:0.0 3:0.0 4:1.0 5:0.0 
1.0 0.0 1:0.0 2:0.0 3:0.0 4:0.0 5:0.0 
1.0 0.0 1:0.0 2:0.0 3:0.0 4:0.0 5:0.0 
1.0 0.0 1:0.0 2:0.0 3:0.0 4:0.0 5:0.0 
1.0 0.413524250965346 1:1.0 2:0.0 3:0.0 4:1.0 5:0.0 
1.0 0.0 1:0.0 2:0.0 3:0.0 4:0.0 5:0.0 
1.0 0.0 1:0.0 2:0.0 3:0.0 4:0.0 5:0.0 
1.0 0.0 1:0.0 2:0.0 3:0.0 4:0.0 5:0.0 
1.0 0.0 1:0.0 2:0.0 3:0.0 4:0.0 5:0.0 
1.0 0.0 1:0.0 2:0.0 3:0.0 4:0.0 5:0.0 
1.0 0.0 1:0.0 2:0.0 3:0.0 4:0.0 5:0.0 
1.0 0.0 1:0.0 2:0.0 3:0.0 4:0.0 5:0.0 
1.0 0.0 1:0.0 2:0.0 3:0.0 4:0.0 5:0.0 
1.0 0.0 1:0.0 2:0.0 3:0.0 4:0.0 5:0.0 
1.0 0.0 1:0.0 2:0.0 3:0.0 4:0.0 5:0.0 
1.0 0.0 1:0.0 2:0.0 3:0.0 4:0.0 5:0.0 
1.0 0.0 1:0.0 2:0.0 3:0.0 4:1.0 5:0.0 
1.0 0.0 1:0.0 2:0.0 3:0.0 4:0.0 5:0.0 
1.0 0.0 1:0.0 2:0.0 3:0.0 4:0.0 5:0.0 
1.0 0.0 1:0.0 2:0.0 3:0.0 4:0.0 5:0.0 
1.0 0.0 1:0.0 2:0.0 3:0.0 4:0.0 5:0.0 
1.0 0.0 1:0.0 2:0.0 3:0.0 4:0.0 5:1.0 
1.0 0.0 1:0.0 2:0.0 3:0.0 4:0.0 5:0.0 
1.0 0.0 1:1.0 2:0.0 3:0.0 4:0.0 5:0.0 
1.0 0.0 1:0.0 2:0.0 3:0.0 4:0.0 5:0.0 
1.0 0.0 1:1.0 2:0.0 3:0.0 4:0.0 5:0.0 
1.0 0.0 1:0.0 2:0.0 3:0.0 4:0.0 5:0.0 
1.0 0.0 1:0.0 2:0.0 3:0.0 4:0.0 5:0.0 
1.0 0.0 1:0.0 2:0.0 3:0.0 4:0.0 5:0.0 
1.0 0.0 1:0.0 2:0.0 3:0.0 4:0.0 5:0.0 
1.0 0.0 1:0.0 2:0.0 3:0.0 4:0.0 5:0.0 
1.0 0.0 1:0.0 2:0.0 3:0.0 4:0.0 5:0.0 
1.0 0.0 1:0.0 2:0.0 3:0.0 4:0.0 5:0.0 
1.0 0.0 1:0.0 2:0.0 3:0.0 4:0.0 5:0.0 
1.0 0.0 1:0.0 2:0.0 3:0.0 4:0.0 5:0.0 
1.0 0.0 1:0.0 2:0.0 3:0.0 4:0.0 5:0.0 
1.0 0.0 1:0.0 2:0.0 3:0.0 4:0.0 5:0.0 
1.0 0.0 1:0.0 2:0.0 3:0.0 4:0.0 5:0.0 
1.0 0.0 1:0.0 2:0.0 3:0.0 4:0.0 5:0.0 
1.0 0.0 1:0.0 2:0.0 3:0.0 4:1.0 5:0.0 
1.0 0.0 1:0.0 2:0.0 3:0.0 4:0.0 5:0.0 
1.0 0.0 1:0.0 2:0.0 3:0.0 4:0.0 5:0.0 
1.0 0.0 1:0.0 2:0.0 3:0.0 4:1.0 5:0.0 
1.0 0.0 1:0.0 2:0.0 3:0.0 4:0.0 5:0.0 
1.0 0.0 1:0.0 2:0.0 3:0.0 4:0.0 5:0.0 
1.0 0.0 1:0.0 2:0.0 3:0.0 4:0.0 5:0.0 
1.0 0.0 1:0.0 2:0.0 3:0.0 4:1.0 5:0.0 
1.0 0.0 1:0.0 2:0.0 3:0.0 4:1.0 5:0.0 
1.0 0.0 1:0.0 2:0.0 3:0.0 4:0.0 5:0.0 
1.0 0.0 1:0.0 2:0.0 3:0.0 4:0.0 5:0.0 
1.0 0.0 1:0.0 2:0.0 3:0.0 4:0.0 5:0.0 
1.0 0.0 1:0.0 2:0.0 3:0.0 4:0.0 5:0.0 
1.0 0.0 1:0.0 2:0.0 3:0.0 4:0.0 5:0.0 
1.0 0.0 1:0.0 2:0.0 3:0.0 4:0.0 5:0.0 
1.0 0.0 1:0.0 2:0.0 3:0.0 4:0.0 5:0.0 
1.0 0.0 1:0.0 2:0.0 3:0.0 4:0.0 5:0.0 
1.0 0.0 1:1.0 2:0.0 3:0.0 4:0.0 5:0.0 
1.0 0.0 1:0.0 2:0.0 3:0.0 4:0.0 5:0.0 
1.0 0.0 1:0.0 2:0.0 3:0.0 4:0.0 5:0.0 
1.0 0.0 1:0.0 2:0.0 3:0.0 4:0.0 5:0.0 
1.0 0.0 1:0.0 2:0.0 3:0.0 4:0.0 5:0.0 
1.0 0.0 1:0.0 2:0.0 3:0.0 4:0.0 5:0.0 
1.0 0.0 1:0.0 2:0.0 3:0.0 4:0.0 5:0.0 
1.0 0.0 1:0.0 2:0.0 3:0.0 4:0.0 5:0.0 
1.0 0.0 1:0.0 2:0.0 3:0.0 4:0.0 5:0.0 
1.0 0.0 1:0.0 2:0.0 3:0.0 4:1.0 5:0.0 
1.0 0.0 1:0.0 2:0.0 3:0.0 4:0.0 5:0.0 
1.0 0.0 1:0.0 2:0.0 3:0.0 4:1.0 5:0.0 
1.0 0.0 1:0.0 2:0.0 3:0.0 4:1.0 5:0.0 
1.0 0.0 1:0.0 2:0.0 3:0.0 4:1.0 5:0.0 
1.0 0.0 1:1.0 2:0.0 3:0.0 4:0.0 5:0.0 
1.0 0.0 1:0.0 2:0.0 3:0.0 4:0.0 5:0.0 
1.0 0.0 1:0.0 2:0.0 3:0.0 4:1.0 5:0.0 
1.0 0.0 1:0.0 2:0.0 3:0.0 4:0.0 5:0.0 
1.0 0.0 1:0.0 2:0.0 3:0.0 4:0.0 5:0.0 
1.0 0.0 1:0.0 2:0.0 3:0.0 4:0.0 5:0.0 
1.0 0.0 1:0.0 2:0.0 3:0.0 4:0.0 5:0.0 
1.0 0.0 1:0.0 2:0.0 3:0.0 4:0.0 5:0.0 
1.0 0.0 1:0.0 2:0.0 3:0.0 4:0.0 5:0.0 
1.0 0.0 1:0.0 2:0.0 3:0.0 4:0.0 5:0.0 
1.0 0.0 1:0.0 2:0.0 3:0.0 4:1.0 5:0.0 
1.0 0.0 1:0.0 2:0.0 3:0.0 4:0.0 5:0.0 
1.0 0.0 1:0.0 2:0.0 3:0.0 4:1.0 5:0.0 
1.0 0.0 1:1.0 2:0.0 3:0.0 4:0.0 5:0.0 
1.0 0.0 1:0.0 2:0.0 3:0.0 4:0.0 5:0.0 
1.0 0.0 1:0.0 2:0.0 3:0.0 4:0.0 5:0.0 
1.0 0.0 1:0.0 2:0.0 3:0.0 4:0.0 5:0.0 
1.0 0.0 1:0.0 2:0.0 3:0.0 4:0.0 5:0.0 
1.0 0.0 1:0.0 2:0.0 3:0.0 4:0.0 5:0.0 
1.0 0.0 1:1.0 2:0.0 3:0.0 4:0.0 5:0.0 
1.0 0.0 1:0.0 2:0.0 3:0.0 4:0.0 5:0.0 
1.0 0.0 1:0.0 2:0.0 3:0.0 4:0.0 5:0.0 
1.0 0.0 1:1.0 2:0.0 3:0.0 4:0.0 5:0.0 
1.0 0.0 1:0.0 2:0.0 3:0.0 4:0.0 5:0.0 
1.0 0.0 1:0.0 2:0.0 3:0.0 4:0.0 5:0.0 
1.0 0.0 1:0.0 2:0.0 3:0.0 4:0.0 5:0.0 
1.0 0.0 1:0.0 2:0.0 3:0.0 4:0.0 5:0.0 
1.0 0.0 1:0.0 2:0.0 3:0.0 4:0.0 5:0.0 
1.0 0.0 1:0.0 2:0.0 3:0.0 4:0.0 5:0.0 
1.0 0.0 1:1.0 2:0.0 3:0.0 4:0.0 5:0.0 
1.0 0.0 1:1.0 2:0.0 3:0.0 4:0.0 5:0.0 
1.0 0.0 1:0.0 2:0.0 3:0.0 4:1.0 5:0.0 
1.0 0.0 1:0.0 2:0.0 3:0.0 4:0.0 5:0.0 
1.0 0.0 1:0.0 2:0.0 3:0.0 4:0.0 5:0.0 
1.0 0.0 1:0.0 2:0.0 3:0.0 4:0.0 5:0.0 
1.0 0.0 1:0.0 2:0.0 3:0.0 4:0.0 5:0.0 
1.0 0.0 1:0.0 2:0.0 3:0.0 4:0.0 5:0.0 
1.0 0.0 1:0.0 2:0.0 3:0.0 4:0.0 5:0.0 
1.0 0.0 1:0.0 2:0.0 3:0.0 4:0.0 5:0.0 
1.0 0.0 1:0.0 2:0.0 3:0.0 4:0.0 5:0.0 
1.0 0.0 1:0.0 2:0.0 3:0.0 4:0.0 5:0.0 
1.0 0.0 1:0.0 2:0.0 3:0.0 4:0.0 5:0.0 
1.0 0.0 1:0.0 2:0.0 3:0.0 4:0.0 5:0.0 
1.0 0.0 1:1.0 2:0.0 3:0.0 4:0.0 5:0.0 
1.0 0.0 1:0.0 2:0.0 3:0.0 4:1.0 5:0.0 
1.0 0.0 1:0.0 2:0.0 3:0.0 4:0.0 5:0.0 
1.0 0.0 1:0.0 2:0.0 3:0.0 4:0.0 5:0.0 
1.0 0.0 1:0.0 2:0.0 3:0.0 4:0.0 5:0.0 
1.0 0.0 1:0.0 2:0.0 3:0.0 4:0.0 5:0.0 
1.0 0.0 1:0.0 2:0.0 3:0.0 4:0.0 5:0.0 
1.0 0.0 1:0.0 2:0.0 3:0.0 4:0.0 5:0.0 
1.0 0.0 1:0.0 2:0.0 3:0.0 4:0.0 5:0.0 
1.0 0.0 1:0.0 2:0.0 3:0.0 4:1.0 5:0.0 
1.0 0.0 1:0.0 2:0.0 3:0.0 4:0.0 5:0.0 
1.0 0.0 1:0.0 2:0.0 3:0.0 4:0.0 5:0.0 
1.0 0.0 1:0.0 2:0.0 3:0.0 4:1.0 5:0.0 
1.0 0.0 1:0.0 2:0.0 3:0.0 4:0.0 5:0.0 
1.0 0.0 1:0.0 2:0.0 3:0.0 4:0.0 5:0.0 
1.0 0.0 1:0.0 2:0.0 3:0.0 4:1.0 5:0.0 
1.0 0.0 1:0.0 2:0.0 3:0.0 4:1.0 5:0.0 
1.0 0.0 1:0.0 2:0.0 3:0.0 4:0.0 5:0.0 
1.0 0.0 1:0.0 2:0.0 3:0.0 4:0.0 5:0.0 
1.0 0.0 1:0.0 2:0.0 3:0.0 4:0.0 5:0.0 
1.0 0.0 1:0.0 2:0.0 3:0.0 4:0.0 5:0.0 
1.0 0.0 1:0.0 2:0.0 3:0.0 4:0.0 5:0.0 
1.0 0.0 1:0.0 2:0.0 3:0.0 4:0.0 5:0.0 
1.0 0.0 1:0.0 2:0.0 3:0.0 4:0.0 5:0.0 
1.0 0.0 1:0.0 2:0.0 3:0.0 4:0.0 5:0.0 
1.0 0.0 1:0.0 2:0.0 3:0.0 4:0.0 5:0.0 
1.0 0.0 1:0.0 2:0.0 3:0.0 4:0.0 5:0.0 
1.0 0.0 1:0.0 2:0.0 3:0.0 4:0.0 5:0.0 
1.0 0.0 1:0.0 2:0.0 3:0.0 4:0.0 5:0.0 
1.0 0.0 1:0.0 2:0.0 3:0.0 4:0.0 5:0.0 
1.0 0.0 1:0.0 2:0.0 3:0.0 4:0.0 5:0.0 
1.0 0.0 1:0.0 2:0.0 3:0.0 4:0.0 5:0.0 
1.0 0.0 1:0.0 2:0.0 3:0.0 4:0.0 5:0.0 
1.0 0.0 1:0.0 2:0.0 3:0.0 4:0.0 5:0.0 
1.0 0.0 1:0.0 2:0.0 3:0.0 4:0.0 5:0.0 
1.0 0.0 1:0.0 2:0.0 3:0.0 4:0.0 5:0.0 
1.0 0.0 1:0.0 2:0.0 3:0.0 4:0.0 5:0.0 
1.0 0.0 1:0.0 2:0.0 3:0.0 4:0.0 5:0.0 
1.0 0.0 1:0.0 2:0.0 3:0.0 4:0.0 5:0.0 
1.0 0.0 1:0.0 2:0.0 3:0.0 4:0.0 5:0.0 
1.0 0.0 1:0.0 2:0.0 3:0.0 4:0.0 5:0.0 
1.0 0.0 1:0.0 2:0.0 3:0.0 4:0.0 5:0.0 
1.0 0.0 1:0.0 2:0.0 3:0.0 4:1.0 5:0.0 
1.0 0.0 1:0.0 2:0.0 3:0.0 4:1.0 5:0.0 
1.0 0.0 1:0.0 2:0.0 3:0.0 4:1.0 5:0.0 
1.0 0.0 1:0.0 2:0.0 3:0.0 4:0.0 5:0.0 
1.0 0.0 1:0.0 2:0.0 3:0.0 4:0.0 5:0.0 
1.0 0.0 1:0.0 2:0.0 3:0.0 4:0.0 5:0.0 
1.0 0.0 1:0.0 2:0.0 3:0.0 4:0.0 5:0.0 
1.0 1.0 1:1.0 2:0.0 3:0.0 4:1.0 5:0.0 
1.0 0.0 1:0.0 2:0.0 3:0.0 4:0.0 5:0.0 
1.0 0.0 1:0.0 2:0.0 3:0.0 4:0.0 5:0.0 
1.0 0.0 1:0.0 2:0.0 3:0.0 4:0.0 5:0.0 
1.0 0.0 1:0.0 2:0.0 3:0.0 4:0.0 5:0.0 
1.0 0.0 1:1.0 2:0.0 3:0.0 4:0.0 5:0.0 
1.0 0.0 1:0.0 2:0.0 3:0.0 4:0.0 5:0.0 
1.0 0.0 1:0.0 2:0.0 3:0.0 4:0.0 5:0.0 
1.0 0.0 1:0.0 2:0.0 3:0.0 4:0.0 5:0.0 
1.0 0.0 1:0.0 2:0.0 3:0.0 4:0.0 5:0.0 
1.0 0.0 1:0.0 2:0.0 3:0.0 4:0.0 5:0.0 
1.0 0.0 1:0.0 2:0.0 3:0.0 4:0.0 5:0.0 
1.0 0.0 1:0.0 2:0.0 3:0.0 4:0.0 5:0.0 
1.0 0.0 1:0.0 2:0.0 3:0.0 4:0.0 5:0.0 
1.0 0.0 1:0.0 2:0.0 3:0.0 4:0.0 5:1.0 
1.0 0.0 1:0.0 2:0.0 3:0.0 4:0.0 5:0.0 
1.0 0.0 1:0.0 2:0.0 3:0.0 4:0.0 5:0.0 
1.0 0.0 1:0.0 2:0.0 3:0.0 4:0.0 5:0.0 
1.0 0.0 1:0.0 2:0.0 3:0.0 4:0.0 5:0.0 
1.0 0.0 1:0.0 2:0.0 3:0.0 4:0.0 5:0.0 
1.0 0.0 1:0.0 2:0.0 3:0.0 4:1.0 5:0.0 
1.0 0.0 1:0.0 2:0.0 3:0.0 4:0.0 5:0.0 
1.0 0.0 1:0.0 2:0.0 3:0.0 4:0.0 5:0.0 
1.0 0.0 1:0.0 2:0.0 3:0.0 4:0.0 5:0.0 
1.0 0.0 1:0.0 2:0.0 3:0.0 4:0.0 5:0.0 
1.0 0.0 1:0.0 2:0.0 3:0.0 4:0.0 5:0.0 
1.0 0.0 1:0.0 2:0.0 3:0.0 4:1.0 5:0.0 
1.0 0.0 1:0.0 2:0.0 3:0.0 4:0.0 5:0.0 
1.0 0.0 1:0.0 2:0.0 3:0.0 4:0.0 5:0.0 
1.0 0.0 1:0.0 2:0.0 3:0.0 4:0.0 5:0.0 
1.0 0.0 1:0.0 2:0.0 3:0.0 4:0.0 5:0.0 
1.0 0.0 1:0.0 2:0.0 3:0.0 4:0.0 5:0.0 
1.0 0.0 1:0.0 2:0.0 3:0.0 4:0.0 5:0.0 
1.0 0.0 1:0.0 2:0.0 3:0.0 4:0.0 5:0.0 
1.0 0.0 1:0.0 2:0.0 3:0.0 4:0.0 5:0.0 
1.0 0.0 1:0.0 2:0.0 3:0.0 4:1.0 5:0.0 
1.0 0.0 1:0.0 2:0.0 3:0.0 4:0.0 5:0.0 
1.0 0.0 1:0.0 2:0.0 3:0.0 4:0.0 5:0.0 
1.0 0.0 1:0.0 2:0.0 3:0.0 4:0.0 5:0.0 
1.0 0.0 1:0.0 2:0.0 3:0.0 4:0.0 5:0.0 
1.0 0.0 1:0.0 2:0.0 3:0.0 4:0.0 5:0.0 
1.0 0.0 1:0.0 2:0.0 3:0.0 4:0.0 5:0.0 
1.0 0.0 1:0.0 2:0.0 3:0.0 4:0.0 5:0.0 
1.0 0.0 1:0.0 2:0.0 3:0.0 4:0.0 5:0.0 
1.0 0.0 1:0.0 2:0.0 3:0.0 4:0.0 5:0.0 
1.0 0.0 1:0.0 2:0.0 3:0.0 4:0.0 5:0.0 
1.0 0.0 1:0.0 2:0.0 3:0.0 4:0.0 5:0.0 
1.0 0.0 1:0.0 2:0.0 3:0.0 4:0.0 5:0.0 
1.0 0.0 1:0.0 2:0.0 3:0.0 4:0.0 5:0.0 
1.0 0.0 1:0.0 2:0.0 3:0.0 4:0.0 5:0.0 
1.0 0.0 1:0.0 2:0.0 3:0.0 4:1.0 5:0.0 
1.0 0.0 1:0.0 2:0.0 3:0.0 4:0.0 5:0.0 
1.0 0.0 1:0.0 2:0.0 3:0.0 4:0.0 5:0.0 
1.0 0.0 1:0.0 2:0.0 3:0.0 4:1.0 5:0.0 
1.0 0.0 1:0.0 2:0.0 3:0.0 4:0.0 5:0.0 
1.0 0.0 1:0.0 2:0.0 3:0.0 4:0.0 5:0.0 
1.0 0.0 1:0.0 2:0.0 3:0.0 4:0.0 5:0.0 
1.0 0.0 1:0.0 2:0.0 3:0.0 4:0.0 5:0.0 
1.0 0.0 1:0.0 2:0.0 3:0.0 4:0.0 5:0.0 
1.0 0.0 1:0.0 2:0.0 3:0.0 4:0.0 5:0.0 
1.0 0.0 1:0.0 2:0.0 3:0.0 4:0.0 5:0.0 
1.0 0.0 1:0.0 2:0.0 3:0.0 4:0.0 5:0.0 
1.0 0.0 1:0.0 2:0.0 3:0.0 4:0.0 5:0.0 
1.0 0.0 1:0.0 2:0.0 3:0.0 4:0.0 5:0.0 
1.0 0.0 1:0.0 2:0.0 3:0.0 4:0.0 5:0.0 
1.0 0.0 1:1.0 2:0.0 3:0.0 4:0.0 5:0.0 
1.0 0.0 1:0.0 2:0.0 3:0.0 4:0.0 5:0.0 
1.0 0.0 1:0.0 2:0.0 3:0.0 4:1.0 5:0.0 
1.0 0.0 1:0.0 2:0.0 3:0.0 4:0.0 5:0.0 
1.0 0.0 1:0.0 2:0.0 3:0.0 4:0.0 5:0.0 
1.0 0.0 1:0.0 2:0.0 3:0.0 4:0.0 5:0.0 
1.0 0.0 1:0.0 2:0.0 3:0.0 4:0.0 5:0.0 
1.0 0.0 1:0.0 2:0.0 3:0.0 4:1.0 5:0.0 
1.0 0.0 1:0.0 2:0.0 3:0.0 4:0.0 5:0.0 
1.0 0.0 1:0.0 2:0.0 3:0.0 4:0.0 5:0.0 
1.0 0.0 1:0.0 2:0.0 3:0.0 4:0.0 5:0.0 
1.0 0.0 1:0.0 2:0.0 3:0.0 4:1.0 5:0.0 
1.0 0.0 1:0.0 2:0.0 3:0.0 4:0.0 5:0.0 
1.0 0.0 1:0.0 2:0.0 3:0.0 4:1.0 5:0.0 
1.0 0.0 1:0.0 2:0.0 3:0.0 4:0.0 5:0.0 
1.0 0.0 1:0.0 2:0.0 3:0.0 4:0.0 5:0.0 
1.0 0.0 1:0.0 2:0.0 3:0.0 4:0.0 5:0.0 
1.0 0.0 1:0.0 2:0.0 3:0.0 4:0.0 5:0.0 
1.0 0.0 1:1.0 2:0.0 3:0.0 4:0.0 5:0.0 
1.0 0.0 1:0.0 2:0.0 3:0.0 4:0.0 5:0.0 
1.0 0.0 1:0.0 2:0.0 3:0.0 4:0.0 5:0.0 
1.0 0.0 1:0.0 2:0.0 3:0.0 4:0.0 5:0.0 
1.0 0.0 1:0.0 2:0.0 3:0.0 4:0.0 5:0.0 
1.0 0.0 1:0.0 2:0.0 3:0.0 4:0.0 5:0.0 
1.0 0.0 1:0.0 2:0.0 3:0.0 4:1.0 5:0.0 
1.0 0.0 1:0.0 2:0.0 3:0.0 4:0.0 5:0.0 
1.0 0.0 1:0.0 2:0.0 3:0.0 4:0.0 5:0.0 
1.0 0.0 1:0.0 2:0.0 3:0.0 4:0.0 5:0.0 
1.0 0.0 1:0.0 2:0.0 3:0.0 4:0.0 5:0.0 
1.0 0.0 1:0.0 2:0.0 3:0.0 4:0.0 5:0.0 
1.0 0.0 1:0.0 2:0.0 3:0.0 4:0.0 5:0.0 
1.0 0.0 1:0.0 2:0.0 3:0.0 4:0.0 5:0.0 
1.0 0.0 1:0.0 2:0.0 3:0.0 4:0.0 5:0.0 
1.0 0.0 1:0.0 2:0.0 3:0.0 4:0.0 5:0.0 
1.0 0.0 1:0.0 2:0.0 3:0.0 4:0.0 5:0.0 
1.0 0.0 1:0.0 2:0.0 3:0.0 4:0.0 5:0.0 
1.0 0.0 1:0.0 2:0.0 3:0.0 4:0.0 5:0.0 
1.0 0.0 1:0.0 2:0.0 3:0.0 4:0.0 5:0.0 
1.0 0.0 1:0.0 2:0.0 3:0.0 4:0.0 5:0.0 
1.0 0.0 1:0.0 2:0.0 3:0.0 4:0.0 5:0.0 
1.0 0.0 1:0.0 2:0.0 3:0.0 4:0.0 5:0.0 
1.0 0.0 1:1.0 2:0.0 3:0.0 4:0.0 5:0.0 
1.0 0.0 1:0.0 2:0.0 3:0.0 4:0.0 5:0.0 
1.0 0.0 1:0.0 2:0.0 3:0.0 4:1.0 5:0.0 
1.0 0.0 1:0.0 2:0.0 3:0.0 4:0.0 5:0.0 
1.0 0.0 1:0.0 2:0.0 3:0.0 4:0.0 5:0.0 
1.0 0.0 1:0.0 2:0.0 3:0.0 4:0.0 5:0.0 
1.0 0.0 1:1.0 2:0.0 3:0.0 4:0.0 5:0.0 
1.0 0.0 1:0.0 2:0.0 3:0.0 4:0.0 5:1.0 
1.0 0.0 1:0.0 2:0.0 3:0.0 4:1.0 5:0.0 
1.0 0.0 1:0.0 2:0.0 3:0.0 4:1.0 5:0.0 
1.0 0.0 1:0.0 2:0.0 3:0.0 4:0.0 5:0.0 
1.0 0.0 1:0.0 2:0.0 3:0.0 4:0.0 5:0.0 
1.0 0.0 1:0.0 2:0.0 3:0.0 4:1.0 5:0.0 
1.0 0.0 1:0.0 2:0.0 3:0.0 4:0.0 5:0.0 
1.0 0.0 1:0.0 2:0.0 3:0.0 4:0.0 5:0.0 
1.0 0.0 1:0.0 2:0.0 3:0.0 4:0.0 5:0.0 
1.0 0.0 1:0.0 2:0.0 3:0.0 4:1.0 5:0.0 
1.0 0.0 1:0.0 2:0.0 3:0.0 4:0.0 5:0.0 
1.0 0.0 1:0.0 2:0.0 3:0.0 4:0.0 5:0.0 
1.0 0.0 1:0.0 2:0.0 3:0.0 4:0.0 5:0.0 
1.0 0.0 1:1.0 2:0.0 3:0.0 4:0.0 5:1.0 
1.0 0.0 1:0.0 2:0.0 3:0.0 4:0.0 5:0.0 
1.0 0.0 1:0.0 2:0.0 3:0.0 4:0.0 5:0.0 
1.0 0.0 1:0.0 2:0.0 3:0.0 4:0.0 5:0.0 
1.0 0.0 1:0.0 2:0.0 3:0.0 4:0.0 5:0.0 
1.0 0.0 1:1.0 2:0.0 3:0.0 4:0.0 5:0.0 
1.0 0.0 1:0.0 2:0.0 3:0.0 4:1.0 5:0.0 
1.0 0.0 1:0.0 2:0.0 3:0.0 4:0.0 5:0.0 
1.0 0.0 1:0.0 2:0.0 3:0.0 4:0.0 5:0.0 
1.0 0.0 1:0.0 2:0.0 3:0.0 4:0.0 5:1.0 
1.0 0.0 1:0.0 2:0.0 3:0.0 4:0.0 5:0.0 
1.0 0.0 1:0.0 2:0.0 3:0.0 4:0.0 5:0.0 
1.0 0.0 1:0.0 2:0.0 3:0.0 4:0.0 5:0.0 
1.0 0.0 1:0.0 2:0.0 3:0.0 4:0.0 5:0.0 
1.0 0.0 1:0.0 2:0.0 3:0.0 4:0.0 5:0.0 
1.0 0.0 1:0.0 2:0.0 3:0.0 4:0.0 5:0.0 
1.0 0.0 1:0.0 2:0.0 3:0.0 4:0.0 5:0.0 
1.0 0.0 1:0.0 2:0.0 3:0.0 4:0.0 5:0.0 
1.0 0.0 1:0.0 2:0.0 3:0.0 4:0.0 5:0.0 
1.0 0.0 1:0.0 2:0.0 3:0.0 4:0.0 5:0.0 
1.0 0.0 1:0.0 2:0.0 3:0.0 4:0.0 5:0.0 
1.0 0.0 1:0.0 2:0.0 3:0.0 4:0.0 5:0.0 
1.0 0.0 1:0.0 2:0.0 3:0.0 4:0.0 5:0.0 
1.0 0.0 1:0.0 2:0.0 3:0.0 4:0.0 5:0.0 
1.0 0.0 1:0.0 2:0.0 3:0.0 4:0.0 5:0.0 
1.0 0.0 1:0.0 2:0.0 3:0.0 4:0.0 5:0.0 
1.0 0.0 1:0.0 2:0.0 3:0.0 4:1.0 5:0.0 
1.0 0.0 1:0.0 2:0.0 3:0.0 4:0.0 5:0.0 
1.0 0.0 1:0.0 2:0.0 3:0.0 4:1.0 5:0.0 
1.0 0.0 1:0.0 2:0.0 3:0.0 4:1.0 5:0.0 
1.0 0.0 1:0.0 2:0.0 3:0.0 4:0.0 5:0.0 
1.0 0.0 1:0.0 2:0.0 3:0.0 4:0.0 5:0.0 
1.0 0.0 1:0.0 2:0.0 3:0.0 4:0.0 5:0.0 
1.0 0.0 1:0.0 2:0.0 3:0.0 4:0.0 5:0.0 
1.0 0.0 1:0.0 2:0.0 3:0.0 4:0.0 5:0.0 
1.0 0.0 1:0.0 2:0.0 3:0.0 4:0.0 5:0.0 
1.0 0.0 1:0.0 2:0.0 3:0.0 4:0.0 5:0.0 
1.0 0.0 1:0.0 2:0.0 3:0.0 4:1.0 5:0.0 
1.0 0.0 1:0.0 2:0.0 3:0.0 4:0.0 5:0.0 
1.0 0.0 1:0.0 2:0.0 3:0.0 4:0.0 5:0.0 
1.0 0.0 1:0.0 2:0.0 3:0.0 4:0.0 5:0.0 
1.0 0.0 1:0.0 2:0.0 3:0.0 4:0.0 5:0.0 
1.0 0.0 1:0.0 2:0.0 3:0.0 4:0.0 5:0.0 
1.0 0.0 1:0.0 2:0.0 3:0.0 4:0.0 5:0.0 
1.0 0.0 1:0.0 2:0.0 3:0.0 4:0.0 5:0.0 
1.0 0.0 1:0.0 2:0.0 3:0.0 4:0.0 5:0.0 
1.0 0.0 1:0.0 2:0.0 3:0.0 4:0.0 5:0.0 
1.0 0.0 1:0.0 2:0.0 3:0.0 4:0.0 5:0.0 
1.0 0.0 1:0.0 2:0.0 3:0.0 4:0.0 5:0.0 
1.0 0.0 1:0.0 2:0.0 3:0.0 4:0.0 5:0.0 
1.0 0.0 1:0.0 2:0.0 3:0.0 4:0.0 5:0.0 
1.0 0.0 1:0.0 2:0.0 3:0.0 4:0.0 5:0.0 
1.0 0.0 1:0.0 2:0.0 3:0.0 4:0.0 5:1.0 
1.0 0.0 1:0.0 2:0.0 3:0.0 4:0.0 5:0.0 
1.0 0.0 1:0.0 2:0.0 3:0.0 4:0.0 5:0.0 
1.0 0.0 1:0.0 2:0.0 3:0.0 4:0.0 5:0.0 
1.0 0.0 1:0.0 2:0.0 3:0.0 4:0.0 5:0.0 
1.0 0.0 1:0.0 2:0.0 3:0.0 4:1.0 5:0.0 
1.0 0.0 1:0.0 2:0.0 3:0.0 4:0.0 5:0.0 
1.0 0.0 1:0.0 2:0.0 3:0.0 4:1.0 5:0.0 
1.0 0.0 1:0.0 2:0.0 3:0.0 4:0.0 5:0.0 
1.0 0.0 1:0.0 2:0.0 3:0.0 4:0.0 5:0.0 
1.0 0.0 1:0.0 2:0.0 3:0.0 4:1.0 5:0.0 
1.0 0.0 1:0.0 2:0.0 3:0.0 4:0.0 5:0.0 
1.0 0.0 1:0.0 2:0.0 3:0.0 4:0.0 5:0.0 
1.0 0.0 1:0.0 2:0.0 3:0.0 4:0.0 5:0.0 
1.0 0.0 1:0.0 2:0.0 3:0.0 4:0.0 5:0.0 
1.0 0.0 1:0.0 2:0.0 3:0.0 4:0.0 5:0.0 
1.0 0.0 1:0.0 2:0.0 3:0.0 4:0.0 5:0.0 
1.0 0.0 1:0.0 2:0.0 3:0.0 4:0.0 5:0.0 
1.0 0.0 1:0.0 2:0.0 3:0.0 4:0.0 5:0.0 
1.0 0.0 1:0.0 2:0.0 3:0.0 4:0.0 5:0.0 
1.0 0.0 1:0.0 2:0.0 3:0.0 4:0.0 5:0.0 
1.0 0.0 1:0.0 2:0.0 3:0.0 4:0.0 5:0.0 
1.0 0.0 1:0.0 2:0.0 3:0.0 4:0.0 5:0.0 
1.0 0.0 1:0.0 2:0.0 3:0.0 4:0.0 5:0.0 
1.0 0.0 1:0.0 2:0.0 3:0.0 4:0.0 5:0.0 
1.0 0.0 1:0.0 2:0.0 3:0.0 4:0.0 5:0.0 
1.0 0.0 1:0.0 2:0.0 3:0.0 4:0.0 5:0.0 
1.0 0.0 1:0.0 2:0.0 3:0.0 4:0.0 5:0.0 
1.0 0.0 1:0.0 2:0.0 3:0.0 4:0.0 5:0.0 
1.0 0.0 1:0.0 2:0.0 3:0.0 4:1.0 5:0.0 
1.0 0.0 1:0.0 2:0.0 3:0.0 4:1.0 5:0.0 
1.0 0.0 1:0.0 2:0.0 3:0.0 4:1.0 5:0.0 
1.0 0.0 1:0.0 2:0.0 3:0.0 4:0.0 5:0.0 
1.0 0.0 1:0.0 2:0.0 3:0.0 4:0.0 5:0.0 
1.0 0.0 1:0.0 2:0.0 3:0.0 4:0.0 5:1.0 
1.0 0.0 1:1.0 2:0.0 3:0.0 4:0.0 5:0.0 
1.0 0.0 1:1.0 2:0.0 3:0.0 4:0.0 5:0.0 
1.0 0.0 1:0.0 2:0.0 3:0.0 4:0.0 5:0.0 
1.0 0.0 1:0.0 2:0.0 3:0.0 4:1.0 5:0.0 
1.0 0.0 1:0.0 2:0.0 3:0.0 4:0.0 5:0.0 
1.0 0.0 1:0.0 2:0.0 3:0.0 4:0.0 5:0.0 
1.0 0.0 1:0.0 2:0.0 3:0.0 4:0.0 5:0.0 
1.0 0.0 1:0.0 2:0.0 3:0.0 4:0.0 5:0.0 
1.0 0.0 1:1.0 2:0.0 3:0.0 4:0.0 5:0.0 
1.0 0.0 1:0.0 2:0.0 3:0.0 4:1.0 5:0.0 
1.0 0.0 1:0.0 2:0.0 3:0.0 4:0.0 5:0.0 
1.0 0.0 1:0.0 2:0.0 3:0.0 4:0.0 5:0.0 
1.0 0.0 1:0.0 2:0.0 3:0.0 4:0.0 5:0.0 
1.0 0.0 1:0.0 2:0.0 3:0.0 4:1.0 5:0.0 
1.0 0.0 1:0.0 2:0.0 3:0.0 4:0.0 5:0.0 
1.0 0.0 1:0.0 2:0.0 3:0.0 4:0.0 5:0.0 
1.0 0.0 1:0.0 2:0.0 3:0.0 4:0.0 5:0.0 
1.0 0.0 1:0.0 2:0.0 3:0.0 4:0.0 5:0.0 
1.0 0.0 1:0.0 2:0.0 3:0.0 4:0.0 5:0.0 
1.0 0.0 1:0.0 2:0.0 3:0.0 4:0.0 5:0.0 
1.0 0.0 1:0.0 2:0.0 3:0.0 4:0.0 5:0.0 
1.0 0.0 1:0.0 2:0.0 3:0.0 4:0.0 5:0.0 
1.0 0.0 1:0.0 2:0.0 3:0.0 4:0.0 5:0.0 
1.0 0.0 1:0.0 2:0.0 3:0.0 4:0.0 5:0.0 
1.0 0.0 1:0.0 2:0.0 3:0.0 4:0.0 5:0.0 
1.0 0.0 1:1.0 2:0.0 3:0.0 4:0.0 5:0.0 
1.0 0.0 1:0.0 2:0.0 3:0.0 4:0.0 5:0.0 
1.0 0.0 1:0.0 2:0.0 3:0.0 4:0.0 5:0.0 
1.0 0.0 1:0.0 2:0.0 3:0.0 4:0.0 5:0.0 
1.0 0.0 1:0.0 2:0.0 3:0.0 4:0.0 5:0.0 
1.0 0.0 1:0.0 2:0.0 3:0.0 4:0.0 5:0.0 
1.0 0.0 1:0.0 2:0.0 3:0.0 4:1.0 5:0.0 
1.0 0.0 1:1.0 2:0.0 3:0.0 4:0.0 5:0.0 
1.0 0.0 1:0.0 2:0.0 3:0.0 4:0.0 5:0.0 
1.0 0.0 1:0.0 2:0.0 3:0.0 4:0.0 5:0.0 
1.0 0.0 1:0.0 2:0.0 3:0.0 4:1.0 5:0.0 
1.0 0.0 1:0.0 2:0.0 3:0.0 4:0.0 5:0.0 
1.0 0.0 1:0.0 2:0.0 3:0.0 4:0.0 5:0.0 
1.0 0.0 1:0.0 2:0.0 3:0.0 4:0.0 5:0.0 
1.0 0.0 1:0.0 2:0.0 3:0.0 4:0.0 5:0.0 
1.0 0.0 1:0.0 2:0.0 3:0.0 4:0.0 5:0.0 
1.0 0.0 1:0.0 2:0.0 3:0.0 4:0.0 5:0.0 
1.0 0.0 1:0.0 2:0.0 3:0.0 4:0.0 5:0.0 
1.0 0.0 1:1.0 2:0.0 3:0.0 4:0.0 5:1.0 
1.0 0.0 1:0.0 2:0.0 3:0.0 4:0.0 5:0.0 
1.0 0.0 1:0.0 2:0.0 3:0.0 4:1.0 5:0.0 
1.0 0.0 1:0.0 2:0.0 3:0.0 4:0.0 5:0.0 
1.0 0.0 1:0.0 2:0.0 3:0.0 4:0.0 5:0.0 
1.0 0.0 1:0.0 2:0.0 3:0.0 4:0.0 5:0.0 
1.0 0.0 1:0.0 2:0.0 3:0.0 4:0.0 5:0.0 
1.0 0.0 1:0.0 2:0.0 3:0.0 4:0.0 5:0.0 
1.0 0.0 1:0.0 2:0.0 3:0.0 4:0.0 5:0.0 
1.0 0.0 1:0.0 2:0.0 3:0.0 4:0.0 5:0.0 
1.0 0.0 1:0.0 2:0.0 3:0.0 4:0.0 5:0.0 
1.0 0.0 1:0.0 2:0.0 3:0.0 4:0.0 5:0.0 
1.0 0.0 1:0.0 2:0.0 3:0.0 4:0.0 5:0.0 
1.0 0.0 1:0.0 2:0.0 3:0.0 4:0.0 5:0.0 
1.0 0.0 1:0.0 2:0.0 3:0.0 4:0.0 5:0.0 
1.0 0.0 1:0.0 2:0.0 3:0.0 4:1.0 5:0.0 
1.0 0.0 1:0.0 2:0.0 3:0.0 4:0.0 5:0.0 
1.0 0.0 1:0.0 2:0.0 3:0.0 4:0.0 5:0.0 
1.0 0.0 1:0.0 2:0.0 3:0.0 4:0.0 5:0.0 
1.0 0.0 1:0.0 2:0.0 3:0.0 4:0.0 5:0.0 
1.0 0.0 1:0.0 2:0.0 3:0.0 4:0.0 5:0.0 
1.0 0.0 1:0.0 2:0.0 3:0.0 4:1.0 5:0.0 
1.0 0.0 1:0.0 2:0.0 3:0.0 4:0.0 5:0.0 
1.0 0.0 1:0.0 2:0.0 3:0.0 4:0.0 5:0.0 
1.0 0.0 1:0.0 2:0.0 3:0.0 4:0.0 5:0.0 
1.0 0.0 1:0.0 2:0.0 3:0.0 4:0.0 5:0.0 
1.0 0.0 1:0.0 2:0.0 3:0.0 4:1.0 5:0.0 
1.0 0.0 1:0.0 2:0.0 3:0.0 4:1.0 5:0.0 
1.0 0.0 1:0.0 2:0.0 3:0.0 4:0.0 5:0.0 
1.0 0.0 1:1.0 2:0.0 3:0.0 4:0.0 5:0.0 
1.0 0.0 1:0.0 2:0.0 3:0.0 4:0.0 5:1.0 
1.0 0.0 1:0.0 2:0.0 3:0.0 4:0.0 5:0.0 
1.0 0.0 1:0.0 2:0.0 3:0.0 4:0.0 5:0.0 
1.0 0.0 1:0.0 2:0.0 3:0.0 4:0.0 5:0.0 
1.0 0.0 1:0.0 2:0.0 3:0.0 4:0.0 5:0.0 
1.0 0.0 1:0.0 2:0.0 3:0.0 4:0.0 5:0.0 
1.0 0.0 1:0.0 2:0.0 3:0.0 4:0.0 5:0.0 
1.0 0.0 1:0.0 2:0.0 3:0.0 4:0.0 5:0.0 
1.0 0.0 1:0.0 2:0.0 3:0.0 4:0.0 5:0.0 
1.0 0.0 1:0.0 2:0.0 3:0.0 4:0.0 5:0.0 
1.0 0.0 1:0.0 2:0.0 3:0.0 4:0.0 5:0.0 
1.0 0.0 1:0.0 2:0.0 3:0.0 4:0.0 5:0.0 
1.0 0.0 1:0.0 2:0.0 3:0.0 4:0.0 5:0.0 
1.0 0.0 1:0.0 2:0.0 3:0.0 4:0.0 5:0.0 
1.0 0.0 1:0.0 2:0.0 3:0.0 4:1.0 5:0.0 
1.0 0.0 1:0.0 2:0.0 3:0.0 4:0.0 5:1.0 
1.0 0.0 1:0.0 2:0.0 3:0.0 4:0.0 5:0.0 
1.0 0.0 1:0.0 2:0.0 3:0.0 4:0.0 5:0.0 
1.0 0.0 1:0.0 2:0.0 3:0.0 4:0.0 5:0.0 
1.0 0.0 1:0.0 2:0.0 3:0.0 4:0.0 5:0.0 
1.0 0.0 1:0.0 2:0.0 3:0.0 4:0.0 5:0.0 
1.0 0.0 1:0.0 2:0.0 3:0.0 4:0.0 5:0.0 
1.0 0.0 1:0.0 2:0.0 3:0.0 4:0.0 5:0.0 
1.0 0.0 1:0.0 2:0.0 3:0.0 4:0.0 5:0.0 
1.0 0.0 1:0.0 2:0.0 3:0.0 4:0.0 5:0.0 
1.0 0.0 1:0.0 2:0.0 3:0.0 4:0.0 5:0.0 
1.0 0.0 1:0.0 2:0.0 3:0.0 4:1.0 5:0.0 
1.0 0.0 1:0.0 2:0.0 3:0.0 4:0.0 5:0.0 
1.0 0.0 1:0.0 2:0.0 3:0.0 4:0.0 5:0.0 
1.0 0.0 1:0.0 2:0.0 3:0.0 4:0.0 5:0.0 
1.0 0.0 1:0.0 2:0.0 3:0.0 4:0.0 5:0.0 
1.0 0.0 1:0.0 2:0.0 3:0.0 4:0.0 5:0.0 
1.0 0.0 1:0.0 2:0.0 3:0.0 4:0.0 5:0.0 
1.0 0.0 1:0.0 2:0.0 3:0.0 4:1.0 5:0.0 
1.0 0.0 1:0.0 2:0.0 3:0.0 4:0.0 5:0.0 
1.0 0.0 1:0.0 2:0.0 3:0.0 4:0.0 5:0.0 
1.0 0.0 1:0.0 2:0.0 3:0.0 4:0.0 5:0.0 
1.0 0.0 1:0.0 2:0.0 3:0.0 4:0.0 5:0.0 
1.0 0.0 1:0.0 2:0.0 3:0.0 4:0.0 5:0.0 
1.0 0.0 1:1.0 2:0.0 3:0.0 4:0.0 5:0.0 
1.0 0.0 1:0.0 2:0.0 3:0.0 4:0.0 5:0.0 
1.0 0.0 1:0.0 2:0.0 3:0.0 4:0.0 5:0.0 
1.0 0.0 1:0.0 2:0.0 3:0.0 4:0.0 5:0.0 
1.0 0.0 1:1.0 2:0.0 3:0.0 4:0.0 5:0.0 
1.0 0.0 1:0.0 2:0.0 3:0.0 4:0.0 5:0.0 
1.0 0.0 1:0.0 2:0.0 3:0.0 4:0.0 5:0.0 
1.0 0.0 1:0.0 2:0.0 3:0.0 4:0.0 5:0.0 
1.0 0.0 1:0.0 2:0.0 3:0.0 4:1.0 5:0.0 
1.0 0.0 1:0.0 2:0.0 3:0.0 4:0.0 5:0.0 
1.0 0.0 1:0.0 2:0.0 3:0.0 4:0.0 5:0.0 
1.0 0.0 1:0.0 2:0.0 3:0.0 4:0.0 5:0.0 
1.0 0.0 1:0.0 2:0.0 3:0.0 4:0.0 5:0.0 
1.0 0.0 1:0.0 2:0.0 3:0.0 4:0.0 5:0.0 
1.0 0.0 1:0.0 2:0.0 3:0.0 4:0.0 5:0.0 
1.0 0.0 1:0.0 2:0.0 3:0.0 4:0.0 5:0.0 
1.0 0.0 1:1.0 2:0.0 3:0.0 4:0.0 5:0.0 
1.0 0.0 1:0.0 2:0.0 3:0.0 4:0.0 5:0.0 
1.0 0.0 1:0.0 2:0.0 3:0.0 4:0.0 5:0.0 
1.0 0.0 1:0.0 2:0.0 3:0.0 4:0.0 5:0.0 
1.0 0.0 1:0.0 2:0.0 3:0.0 4:0.0 5:0.0 
1.0 0.0 1:0.0 2:0.0 3:0.0 4:1.0 5:0.0 
1.0 0.0 1:0.0 2:0.0 3:0.0 4:0.0 5:0.0 
1.0 0.0 1:0.0 2:0.0 3:0.0 4:1.0 5:0.0 
1.0 0.0 1:0.0 2:0.0 3:0.0 4:0.0 5:0.0 
1.0 0.0 1:0.0 2:0.0 3:0.0 4:0.0 5:0.0 
1.0 0.0 1:0.0 2:0.0 3:0.0 4:1.0 5:0.0 
1.0 0.0 1:0.0 2:0.0 3:0.0 4:0.0 5:0.0 
1.0 0.0 1:0.0 2:0.0 3:0.0 4:0.0 5:0.0 
1.0 0.0 1:0.0 2:0.0 3:0.0 4:0.0 5:0.0 
1.0 0.0 1:0.0 2:0.0 3:0.0 4:0.0 5:0.0 
1.0 0.0 1:0.0 2:0.0 3:0.0 4:0.0 5:0.0 
1.0 0.0 1:0.0 2:0.0 3:0.0 4:0.0 5:0.0 
1.0 0.0 1:0.0 2:0.0 3:0.0 4:0.0 5:0.0 
1.0 0.0 1:0.0 2:0.0 3:0.0 4:0.0 5:0.0 
1.0 0.0 1:0.0 2:0.0 3:0.0 4:1.0 5:0.0 
1.0 0.0 1:0.0 2:0.0 3:0.0 4:0.0 5:0.0 
1.0 0.0 1:0.0 2:0.0 3:0.0 4:0.0 5:0.0 
1.0 0.0 1:0.0 2:0.0 3:0.0 4:0.0 5:0.0 
1.0 0.0 1:0.0 2:0.0 3:0.0 4:0.0 5:0.0 
1.0 0.0 1:0.0 2:0.0 3:0.0 4:0.0 5:0.0 
1.0 0.0 1:0.0 2:0.0 3:0.0 4:0.0 5:0.0 
1.0 0.0 1:0.0 2:0.0 3:0.0 4:0.0 5:0.0 
1.0 0.0 1:0.0 2:0.0 3:0.0 4:0.0 5:0.0 
1.0 0.0 1:0.0 2:0.0 3:0.0 4:0.0 5:0.0 
1.0 0.0 1:0.0 2:0.0 3:0.0 4:0.0 5:0.0 
1.0 0.0 1:0.0 2:0.0 3:0.0 4:0.0 5:0.0 
1.0 0.0 1:0.0 2:0.0 3:0.0 4:0.0 5:0.0 
1.0 0.0 1:0.0 2:0.0 3:0.0 4:0.0 5:0.0 
1.0 0.0 1:0.0 2:0.0 3:0.0 4:0.0 5:0.0 
1.0 0.0 1:0.0 2:0.0 3:0.0 4:0.0 5:0.0 
1.0 0.0 1:0.0 2:0.0 3:0.0 4:0.0 5:1.0 
1.0 0.0 1:0.0 2:0.0 3:0.0 4:0.0 5:1.0 
1.0 0.0 1:0.0 2:0.0 3:0.0 4:0.0 5:0.0 
1.0 0.0 1:0.0 2:0.0 3:0.0 4:0.0 5:0.0 
1.0 0.0 1:0.0 2:0.0 3:0.0 4:1.0 5:0.0 
1.0 0.0 1:0.0 2:0.0 3:0.0 4:0.0 5:0.0 
1.0 0.0 1:0.0 2:0.0 3:0.0 4:1.0 5:0.0 
1.0 0.0 1:0.0 2:0.0 3:0.0 4:0.0 5:0.0 
1.0 0.0 1:0.0 2:0.0 3:0.0 4:0.0 5:0.0 
1.0 0.0 1:0.0 2:0.0 3:0.0 4:0.0 5:0.0 
1.0 0.0 1:0.0 2:0.0 3:0.0 4:0.0 5:0.0 
1.0 0.0 1:0.0 2:0.0 3:0.0 4:0.0 5:0.0 
1.0 0.0 1:0.0 2:0.0 3:0.0 4:0.0 5:0.0 
1.0 0.0 1:0.0 2:0.0 3:0.0 4:0.0 5:0.0 
1.0 0.0 1:0.0 2:0.0 3:0.0 4:0.0 5:0.0 
1.0 0.0 1:0.0 2:0.0 3:0.0 4:0.0 5:0.0 
1.0 0.0 1:0.0 2:0.0 3:0.0 4:0.0 5:0.0 
1.0 0.0 1:0.0 2:0.0 3:0.0 4:0.0 5:0.0 
1.0 0.0 1:0.0 2:0.0 3:0.0 4:0.0 5:0.0 
1.0 0.0 1:0.0 2:0.0 3:0.0 4:0.0 5:0.0 
1.0 0.0 1:1.0 2:0.0 3:0.0 4:0.0 5:0.0 
1.0 0.0 1:0.0 2:0.0 3:0.0 4:0.0 5:0.0 
1.0 0.0 1:0.0 2:0.0 3:0.0 4:0.0 5:0.0 
1.0 0.0 1:0.0 2:0.0 3:0.0 4:0.0 5:0.0 
1.0 0.0 1:0.0 2:0.0 3:0.0 4:0.0 5:0.0 
1.0 0.0 1:0.0 2:0.0 3:0.0 4:0.0 5:0.0 
1.0 0.0 1:0.0 2:0.0 3:0.0 4:0.0 5:0.0 
1.0 0.0 1:0.0 2:0.0 3:0.0 4:0.0 5:0.0 
1.0 0.0 1:0.0 2:0.0 3:0.0 4:1.0 5:0.0 
1.0 0.0 1:0.0 2:0.0 3:0.0 4:0.0 5:0.0 
1.0 0.0 1:0.0 2:0.0 3:0.0 4:0.0 5:0.0 
1.0 0.0 1:0.0 2:0.0 3:0.0 4:0.0 5:0.0 
1.0 0.0 1:0.0 2:0.0 3:0.0 4:0.0 5:0.0 
1.0 0.0 1:0.0 2:0.0 3:0.0 4:0.0 5:0.0 
1.0 0.0 1:0.0 2:0.0 3:0.0 4:0.0 5:0.0 
1.0 0.0 1:0.0 2:0.0 3:0.0 4:0.0 5:0.0 
1.0 0.0 1:0.0 2:0.0 3:0.0 4:0.0 5:0.0 
1.0 0.0 1:0.0 2:0.0 3:0.0 4:0.0 5:0.0 
1.0 0.0 1:0.0 2:0.0 3:0.0 4:0.0 5:0.0 
1.0 0.0 1:0.0 2:0.0 3:0.0 4:0.0 5:0.0 
1.0 1.0 1:1.0 2:0.0 3:0.0 4:1.0 5:0.0 
1.0 0.0 1:0.0 2:0.0 3:0.0 4:0.0 5:0.0 
1.0 0.0 1:0.0 2:0.0 3:0.0 4:0.0 5:0.0 
1.0 0.0 1:0.0 2:0.0 3:0.0 4:0.0 5:0.0 
1.0 0.0 1:0.0 2:0.0 3:0.0 4:0.0 5:0.0 
1.0 0.0 1:0.0 2:0.0 3:0.0 4:0.0 5:0.0 
1.0 0.0 1:0.0 2:0.0 3:0.0 4:0.0 5:0.0 
1.0 0.0 1:0.0 2:0.0 3:0.0 4:0.0 5:0.0 
1.0 0.0 1:0.0 2:0.0 3:0.0 4:0.0 5:0.0 
1.0 0.0 1:0.0 2:0.0 3:0.0 4:0.0 5:0.0 
1.0 0.0 1:1.0 2:0.0 3:0.0 4:0.0 5:0.0 
1.0 1.0 1:0.0 2:0.0 3:0.0 4:1.0 5:1.0 
1.0 0.0 1:1.0 2:0.0 3:0.0 4:0.0 5:0.0 
1.0 0.0 1:0.0 2:0.0 3:0.0 4:0.0 5:0.0 
1.0 0.0 1:1.0 2:0.0 3:0.0 4:0.0 5:0.0 
1.0 0.0 1:0.0 2:0.0 3:0.0 4:0.0 5:0.0 
1.0 0.0 1:0.0 2:0.0 3:0.0 4:0.0 5:0.0 
1.0 0.0 1:0.0 2:0.0 3:0.0 4:0.0 5:0.0 
1.0 0.0 1:0.0 2:0.0 3:0.0 4:0.0 5:0.0 
1.0 0.0 1:0.0 2:0.0 3:0.0 4:0.0 5:0.0 
1.0 0.0 1:0.0 2:0.0 3:0.0 4:0.0 5:0.0 
1.0 0.0 1:0.0 2:0.0 3:0.0 4:0.0 5:0.0 
1.0 0.0 1:0.0 2:0.0 3:0.0 4:0.0 5:0.0 
1.0 0.0 1:0.0 2:0.0 3:0.0 4:0.0 5:0.0 
1.0 0.0 1:0.0 2:0.0 3:0.0 4:0.0 5:0.0 
1.0 0.0 1:0.0 2:0.0 3:0.0 4:0.0 5:0.0 
1.0 0.0 1:0.0 2:0.0 3:0.0 4:0.0 5:0.0 
1.0 0.0 1:0.0 2:0.0 3:0.0 4:1.0 5:0.0 
1.0 0.0 1:0.0 2:0.0 3:0.0 4:0.0 5:1.0 
1.0 0.0 1:1.0 2:0.0 3:0.0 4:0.0 5:0.0 
1.0 0.0 1:0.0 2:0.0 3:0.0 4:0.0 5:0.0 
1.0 0.0 1:0.0 2:0.0 3:0.0 4:0.0 5:0.0 
1.0 0.0 1:0.0 2:0.0 3:0.0 4:0.0 5:0.0 
1.0 0.0 1:1.0 2:0.0 3:0.0 4:0.0 5:0.0 
1.0 0.0 1:0.0 2:0.0 3:0.0 4:0.0 5:0.0 
1.0 0.0 1:0.0 2:0.0 3:0.0 4:0.0 5:0.0 
1.0 0.0 1:0.0 2:0.0 3:0.0 4:0.0 5:0.0 
1.0 0.0 1:0.0 2:0.0 3:0.0 4:0.0 5:0.0 
1.0 0.0 1:0.0 2:0.0 3:0.0 4:0.0 5:0.0 
1.0 0.0 1:0.0 2:0.0 3:0.0 4:0.0 5:0.0 
1.0 0.0 1:0.0 2:0.0 3:0.0 4:0.0 5:0.0 
1.0 0.0 1:0.0 2:0.0 3:0.0 4:0.0 5:0.0 
1.0 0.0 1:0.0 2:0.0 3:0.0 4:1.0 5:0.0 
1.0 0.0 1:0.0 2:0.0 3:0.0 4:0.0 5:0.0 
1.0 0.0 1:1.0 2:0.0 3:0.0 4:0.0 5:0.0 
1.0 0.0 1:0.0 2:0.0 3:0.0 4:0.0 5:0.0 
1.0 0.0 1:0.0 2:0.0 3:0.0 4:0.0 5:0.0 
1.0 0.0 1:0.0 2:0.0 3:0.0 4:1.0 5:0.0 
1.0 0.0 1:0.0 2:0.0 3:0.0 4:0.0 5:0.0 
1.0 0.0 1:0.0 2:0.0 3:0.0 4:0.0 5:0.0 
1.0 0.0 1:0.0 2:0.0 3:0.0 4:0.0 5:0.0 
1.0 0.0 1:0.0 2:0.0 3:0.0 4:1.0 5:0.0 
1.0 0.0 1:0.0 2:0.0 3:0.0 4:1.0 5:0.0 
1.0 0.0 1:0.0 2:0.0 3:0.0 4:0.0 5:0.0 
1.0 0.0 1:0.0 2:0.0 3:0.0 4:0.0 5:0.0 
1.0 0.0 1:0.0 2:0.0 3:0.0 4:0.0 5:0.0 
1.0 0.0 1:0.0 2:0.0 3:0.0 4:0.0 5:0.0 
1.0 0.0 1:0.0 2:0.0 3:0.0 4:0.0 5:0.0 
1.0 0.0 1:0.0 2:0.0 3:0.0 4:1.0 5:0.0 
1.0 0.0 1:1.0 2:0.0 3:0.0 4:0.0 5:0.0 
1.0 0.0 1:0.0 2:0.0 3:0.0 4:0.0 5:0.0 
1.0 0.0 1:0.0 2:0.0 3:0.0 4:1.0 5:0.0 
1.0 0.0 1:0.0 2:0.0 3:0.0 4:0.0 5:0.0 
1.0 0.0 1:0.0 2:0.0 3:0.0 4:0.0 5:0.0 
1.0 0.0 1:0.0 2:0.0 3:0.0 4:0.0 5:0.0 
1.0 0.0 1:0.0 2:0.0 3:0.0 4:0.0 5:0.0 
1.0 0.0 1:0.0 2:0.0 3:0.0 4:0.0 5:0.0 
1.0 0.0 1:0.0 2:0.0 3:0.0 4:0.0 5:0.0 
1.0 0.0 1:0.0 2:0.0 3:0.0 4:0.0 5:0.0 
1.0 0.0 1:0.0 2:0.0 3:0.0 4:0.0 5:0.0 
1.0 0.0 1:0.0 2:0.0 3:0.0 4:0.0 5:0.0 
1.0 0.0 1:0.0 2:0.0 3:0.0 4:0.0 5:0.0 
1.0 0.0 1:0.0 2:0.0 3:0.0 4:0.0 5:0.0 
1.0 0.0 1:0.0 2:0.0 3:0.0 4:1.0 5:0.0 
1.0 0.0 1:0.0 2:0.0 3:0.0 4:0.0 5:0.0 
1.0 0.0 1:0.0 2:0.0 3:0.0 4:0.0 5:0.0 
1.0 0.0 1:0.0 2:0.0 3:0.0 4:0.0 5:0.0 
1.0 0.0 1:0.0 2:0.0 3:0.0 4:0.0 5:0.0 
1.0 0.0 1:0.0 2:0.0 3:0.0 4:0.0 5:0.0 
1.0 0.0 1:0.0 2:0.0 3:0.0 4:0.0 5:0.0 
1.0 0.0 1:0.0 2:0.0 3:0.0 4:0.0 5:0.0 
1.0 0.0 1:0.0 2:0.0 3:0.0 4:0.0 5:0.0 
1.0 0.0 1:0.0 2:0.0 3:0.0 4:1.0 5:0.0 
1.0 0.0 1:0.0 2:0.0 3:0.0 4:0.0 5:0.0 
1.0 0.0 1:0.0 2:0.0 3:0.0 4:0.0 5:0.0 
1.0 0.0 1:0.0 2:0.0 3:0.0 4:0.0 5:0.0 
1.0 0.0 1:0.0 2:0.0 3:0.0 4:0.0 5:0.0 
1.0 0.0 1:0.0 2:0.0 3:0.0 4:0.0 5:1.0 
1.0 0.0 1:0.0 2:0.0 3:0.0 4:0.0 5:0.0 
1.0 0.0 1:0.0 2:0.0 3:0.0 4:0.0 5:0.0 
1.0 0.0 1:0.0 2:0.0 3:0.0 4:0.0 5:0.0 
1.0 0.0 1:0.0 2:0.0 3:0.0 4:1.0 5:0.0 
1.0 0.0 1:0.0 2:0.0 3:0.0 4:0.0 5:0.0 
1.0 0.0 1:0.0 2:0.0 3:0.0 4:0.0 5:0.0 
1.0 0.0 1:0.0 2:0.0 3:0.0 4:0.0 5:0.0 
1.0 0.0 1:0.0 2:0.0 3:0.0 4:0.0 5:0.0 
1.0 0.0 1:0.0 2:0.0 3:0.0 4:0.0 5:0.0 
1.0 0.0 1:0.0 2:0.0 3:0.0 4:0.0 5:0.0 
1.0 0.0 1:0.0 2:0.0 3:0.0 4:0.0 5:0.0 
1.0 0.0 1:0.0 2:0.0 3:0.0 4:0.0 5:0.0 
1.0 0.0 1:0.0 2:0.0 3:0.0 4:0.0 5:0.0 
1.0 0.0 1:0.0 2:0.0 3:0.0 4:0.0 5:0.0 
1.0 0.0 1:0.0 2:0.0 3:0.0 4:0.0 5:0.0 
1.0 0.0 1:0.0 2:0.0 3:0.0 4:0.0 5:0.0 
1.0 0.0 1:1.0 2:0.0 3:0.0 4:0.0 5:0.0 
1.0 0.0 1:0.0 2:0.0 3:0.0 4:0.0 5:0.0 
1.0 0.0 1:0.0 2:0.0 3:0.0 4:0.0 5:0.0 
1.0 0.0 1:0.0 2:0.0 3:0.0 4:1.0 5:0.0 
1.0 0.0 1:0.0 2:0.0 3:0.0 4:0.0 5:0.0 
1.0 0.0 1:0.0 2:0.0 3:0.0 4:0.0 5:0.0 
1.0 0.0 1:0.0 2:0.0 3:0.0 4:0.0 5:0.0 
1.0 0.0 1:1.0 2:0.0 3:0.0 4:0.0 5:0.0 
1.0 0.0 1:0.0 2:0.0 3:0.0 4:0.0 5:0.0 
1.0 0.0 1:0.0 2:0.0 3:0.0 4:0.0 5:0.0 
1.0 0.0 1:0.0 2:0.0 3:0.0 4:0.0 5:0.0 
1.0 0.0 1:0.0 2:0.0 3:0.0 4:0.0 5:0.0 
1.0 0.0 1:0.0 2:0.0 3:0.0 4:1.0 5:0.0 
1.0 0.0 1:0.0 2:0.0 3:0.0 4:0.0 5:0.0 
1.0 0.0 1:0.0 2:0.0 3:0.0 4:1.0 5:0.0 
1.0 0.0 1:0.0 2:0.0 3:0.0 4:1.0 5:0.0 
1.0 0.0 1:0.0 2:0.0 3:0.0 4:0.0 5:0.0 
1.0 0.0 1:0.0 2:0.0 3:0.0 4:1.0 5:0.0 
1.0 0.0 1:0.0 2:0.0 3:0.0 4:0.0 5:0.0 
1.0 0.0 1:0.0 2:0.0 3:0.0 4:0.0 5:0.0 
1.0 0.0 1:0.0 2:0.0 3:0.0 4:0.0 5:0.0 
1.0 1.0 1:1.0 2:0.0 3:0.0 4:1.0 5:0.0 
1.0 0.0 1:0.0 2:0.0 3:0.0 4:0.0 5:0.0 
1.0 0.0 1:0.0 2:0.0 3:0.0 4:0.0 5:0.0 
1.0 0.0 1:0.0 2:0.0 3:0.0 4:0.0 5:0.0 
1.0 0.0 1:0.0 2:0.0 3:0.0 4:0.0 5:0.0 
1.0 0.0 1:0.0 2:0.0 3:0.0 4:0.0 5:0.0 
1.0 0.0 1:1.0 2:0.0 3:0.0 4:0.0 5:0.0 
1.0 0.0 1:0.0 2:0.0 3:0.0 4:0.0 5:0.0 
1.0 0.0 1:1.0 2:0.0 3:0.0 4:0.0 5:0.0 
1.0 0.0 1:0.0 2:0.0 3:0.0 4:0.0 5:0.0 
1.0 0.0 1:0.0 2:0.0 3:0.0 4:1.0 5:0.0 
1.0 0.0 1:0.0 2:0.0 3:0.0 4:0.0 5:0.0 
1.0 0.0 1:0.0 2:0.0 3:0.0 4:0.0 5:0.0 
1.0 0.0 1:0.0 2:0.0 3:0.0 4:1.0 5:0.0 
1.0 0.0 1:0.0 2:0.0 3:0.0 4:1.0 5:0.0 
1.0 0.0 1:0.0 2:0.0 3:0.0 4:0.0 5:0.0 
1.0 0.0 1:0.0 2:0.0 3:0.0 4:0.0 5:0.0 
1.0 0.0 1:0.0 2:0.0 3:0.0 4:0.0 5:0.0 
1.0 0.0 1:0.0 2:0.0 3:0.0 4:0.0 5:0.0 
1.0 0.0 1:0.0 2:0.0 3:0.0 4:0.0 5:0.0 
1.0 0.0 1:0.0 2:0.0 3:0.0 4:0.0 5:0.0 
1.0 0.0 1:1.0 2:0.0 3:0.0 4:0.0 5:0.0 
1.0 0.0 1:0.0 2:0.0 3:0.0 4:0.0 5:0.0 
1.0 0.0 1:0.0 2:0.0 3:0.0 4:0.0 5:0.0 
1.0 0.0 1:0.0 2:0.0 3:0.0 4:0.0 5:0.0 
1.0 0.0 1:0.0 2:0.0 3:0.0 4:1.0 5:0.0 
1.0 0.0 1:0.0 2:0.0 3:0.0 4:0.0 5:0.0 
1.0 0.0 1:0.0 2:0.0 3:0.0 4:0.0 5:0.0 
1.0 0.0 1:0.0 2:0.0 3:0.0 4:0.0 5:0.0 
1.0 0.0 1:0.0 2:0.0 3:0.0 4:0.0 5:0.0 
1.0 0.0 1:0.0 2:0.0 3:0.0 4:0.0 5:0.0 
1.0 0.0 1:0.0 2:0.0 3:0.0 4:0.0 5:0.0 
1.0 0.0 1:0.0 2:0.0 3:0.0 4:0.0 5:0.0 
1.0 0.0 1:0.0 2:0.0 3:0.0 4:0.0 5:0.0 
1.0 0.0 1:0.0 2:0.0 3:0.0 4:0.0 5:0.0 
1.0 0.0 1:0.0 2:0.0 3:0.0 4:0.0 5:0.0 
1.0 0.0 1:0.0 2:0.0 3:0.0 4:0.0 5:0.0 
1.0 0.0 1:0.0 2:0.0 3:0.0 4:0.0 5:1.0 
1.0 0.0 1:0.0 2:0.0 3:0.0 4:0.0 5:0.0 
1.0 0.0 1:0.0 2:0.0 3:0.0 4:0.0 5:0.0 
1.0 0.0 1:0.0 2:0.0 3:0.0 4:0.0 5:0.0 
1.0 0.0 1:0.0 2:0.0 3:0.0 4:1.0 5:0.0 
1.0 0.0 1:0.0 2:0.0 3:0.0 4:0.0 5:0.0 
1.0 0.0 1:0.0 2:0.0 3:0.0 4:0.0 5:0.0 
1.0 0.0 1:0.0 2:0.0 3:0.0 4:0.0 5:0.0 
1.0 0.0 1:0.0 2:0.0 3:0.0 4:0.0 5:0.0 
1.0 0.0 1:0.0 2:0.0 3:0.0 4:1.0 5:0.0 
1.0 0.0 1:0.0 2:0.0 3:0.0 4:0.0 5:0.0 
1.0 0.0 1:0.0 2:0.0 3:0.0 4:0.0 5:0.0 
1.0 0.0 1:0.0 2:0.0 3:0.0 4:0.0 5:0.0 
1.0 0.0 1:0.0 2:0.0 3:0.0 4:0.0 5:0.0 
1.0 0.0 1:0.0 2:0.0 3:0.0 4:0.0 5:0.0 
1.0 0.0 1:0.0 2:0.0 3:0.0 4:0.0 5:0.0 
1.0 0.0 1:0.0 2:0.0 3:0.0 4:0.0 5:0.0 
1.0 0.0 1:0.0 2:0.0 3:0.0 4:0.0 5:0.0 
1.0 0.0 1:1.0 2:0.0 3:0.0 4:0.0 5:0.0 
1.0 0.0 1:1.0 2:0.0 3:0.0 4:0.0 5:0.0 
1.0 0.0 1:0.0 2:0.0 3:0.0 4:0.0 5:0.0 
1.0 0.0 1:1.0 2:0.0 3:0.0 4:0.0 5:0.0 
1.0 0.0 1:0.0 2:0.0 3:0.0 4:0.0 5:0.0 
1.0 0.0 1:0.0 2:0.0 3:0.0 4:0.0 5:0.0 
1.0 0.0 1:0.0 2:0.0 3:0.0 4:0.0 5:0.0 
1.0 0.0 1:0.0 2:0.0 3:0.0 4:0.0 5:0.0 
1.0 0.0 1:0.0 2:0.0 3:0.0 4:0.0 5:0.0 
1.0 0.0 1:0.0 2:0.0 3:0.0 4:0.0 5:0.0 
1.0 0.0 1:0.0 2:0.0 3:0.0 4:0.0 5:0.0 
1.0 0.0 1:0.0 2:0.0 3:0.0 4:0.0 5:0.0 
1.0 0.0 1:0.0 2:0.0 3:0.0 4:0.0 5:0.0 
1.0 0.0 1:0.0 2:0.0 3:0.0 4:0.0 5:0.0 
1.0 0.0 1:0.0 2:0.0 3:0.0 4:0.0 5:0.0 
1.0 0.0 1:0.0 2:0.0 3:0.0 4:0.0 5:0.0 
1.0 0.0 1:0.0 2:0.0 3:0.0 4:0.0 5:0.0 
1.0 0.0 1:0.0 2:0.0 3:0.0 4:0.0 5:0.0 
1.0 0.0 1:0.0 2:0.0 3:0.0 4:0.0 5:0.0 
1.0 0.0 1:0.0 2:0.0 3:0.0 4:0.0 5:0.0 
1.0 0.0 1:0.0 2:0.0 3:0.0 4:0.0 5:0.0 
1.0 0.0 1:0.0 2:0.0 3:0.0 4:0.0 5:0.0 
1.0 0.0 1:0.0 2:0.0 3:0.0 4:0.0 5:0.0 
1.0 0.0 1:0.0 2:0.0 3:0.0 4:0.0 5:0.0 
1.0 0.0 1:0.0 2:0.0 3:0.0 4:0.0 5:0.0 
1.0 0.0 1:0.0 2:0.0 3:0.0 4:0.0 5:1.0 
1.0 0.0 1:0.0 2:0.0 3:0.0 4:0.0 5:0.0 
1.0 0.0 1:1.0 2:0.0 3:0.0 4:0.0 5:0.0 
1.0 0.0 1:0.0 2:0.0 3:0.0 4:0.0 5:0.0 
1.0 0.0 1:0.0 2:0.0 3:0.0 4:0.0 5:0.0 
1.0 0.0 1:0.0 2:0.0 3:0.0 4:0.0 5:0.0 
1.0 0.0 1:0.0 2:0.0 3:0.0 4:0.0 5:0.0 
1.0 0.0 1:0.0 2:0.0 3:0.0 4:0.0 5:0.0 
1.0 0.0 1:0.0 2:0.0 3:0.0 4:0.0 5:0.0 
1.0 0.0 1:0.0 2:0.0 3:0.0 4:0.0 5:0.0 
1.0 0.0 1:0.0 2:0.0 3:0.0 4:0.0 5:0.0 
1.0 0.0 1:0.0 2:0.0 3:0.0 4:0.0 5:0.0 
1.0 0.0 1:0.0 2:0.0 3:0.0 4:0.0 5:0.0 
1.0 0.0 1:0.0 2:0.0 3:0.0 4:0.0 5:0.0 
1.0 0.0 1:0.0 2:0.0 3:0.0 4:0.0 5:0.0 
1.0 0.0 1:0.0 2:0.0 3:0.0 4:1.0 5:0.0 
1.0 0.0 1:0.0 2:0.0 3:0.0 4:0.0 5:0.0 
1.0 0.0 1:0.0 2:0.0 3:0.0 4:0.0 5:0.0 
1.0 0.0 1:0.0 2:0.0 3:0.0 4:0.0 5:0.0 
1.0 0.0 1:0.0 2:0.0 3:0.0 4:0.0 5:0.0 
1.0 0.0 1:0.0 2:0.0 3:0.0 4:1.0 5:0.0 
1.0 0.0 1:0.0 2:0.0 3:0.0 4:0.0 5:0.0 
1.0 0.0 1:0.0 2:0.0 3:0.0 4:0.0 5:0.0 
1.0 0.0 1:0.0 2:0.0 3:0.0 4:0.0 5:0.0 
1.0 0.0 1:0.0 2:0.0 3:0.0 4:0.0 5:0.0 
1.0 0.0 1:0.0 2:0.0 3:0.0 4:0.0 5:0.0 
1.0 0.0 1:0.0 2:0.0 3:0.0 4:1.0 5:0.0 
1.0 0.0 1:0.0 2:0.0 3:0.0 4:0.0 5:0.0 
1.0 0.0 1:0.0 2:0.0 3:0.0 4:0.0 5:0.0 
1.0 0.0 1:0.0 2:0.0 3:0.0 4:0.0 5:0.0 
1.0 0.0 1:0.0 2:0.0 3:0.0 4:0.0 5:0.0 
1.0 0.0 1:0.0 2:0.0 3:0.0 4:0.0 5:0.0 
1.0 0.0 1:0.0 2:0.0 3:0.0 4:1.0 5:0.0 
1.0 0.0 1:0.0 2:0.0 3:0.0 4:0.0 5:0.0 
1.0 0.0 1:0.0 2:0.0 3:0.0 4:0.0 5:0.0 
1.0 0.0 1:0.0 2:0.0 3:0.0 4:0.0 5:0.0 
1.0 0.0 1:0.0 2:0.0 3:0.0 4:0.0 5:0.0 
1.0 0.0 1:0.0 2:0.0 3:0.0 4:1.0 5:0.0 
1.0 0.0 1:0.0 2:0.0 3:0.0 4:0.0 5:0.0 
1.0 0.0 1:0.0 2:0.0 3:0.0 4:0.0 5:0.0 
1.0 0.0 1:0.0 2:0.0 3:0.0 4:0.0 5:1.0 
1.0 0.0 1:1.0 2:0.0 3:0.0 4:0.0 5:0.0 
1.0 0.0 1:0.0 2:0.0 3:0.0 4:1.0 5:0.0 
1.0 0.0 1:0.0 2:0.0 3:0.0 4:0.0 5:0.0 
1.0 0.0 1:0.0 2:0.0 3:0.0 4:0.0 5:0.0 
1.0 0.0 1:0.0 2:0.0 3:0.0 4:0.0 5:0.0 
1.0 0.0 1:0.0 2:0.0 3:0.0 4:0.0 5:0.0 
1.0 0.0 1:0.0 2:0.0 3:0.0 4:0.0 5:0.0 
1.0 0.0 1:0.0 2:0.0 3:0.0 4:0.0 5:0.0 
1.0 0.0 1:0.0 2:0.0 3:0.0 4:0.0 5:0.0 
1.0 0.0 1:0.0 2:0.0 3:0.0 4:0.0 5:0.0 
1.0 0.0 1:0.0 2:0.0 3:0.0 4:0.0 5:0.0 
1.0 0.0 1:1.0 2:0.0 3:0.0 4:0.0 5:0.0 
1.0 0.0 1:0.0 2:0.0 3:0.0 4:0.0 5:0.0 
1.0 0.0 1:0.0 2:0.0 3:0.0 4:0.0 5:0.0 
1.0 0.0 1:0.0 2:0.0 3:0.0 4:0.0 5:0.0 
1.0 0.0 1:0.0 2:0.0 3:0.0 4:0.0 5:0.0 
1.0 0.0 1:0.0 2:0.0 3:0.0 4:0.0 5:0.0 
1.0 0.0 1:0.0 2:0.0 3:0.0 4:1.0 5:0.0 
1.0 0.0 1:1.0 2:0.0 3:0.0 4:0.0 5:0.0 
1.0 0.0 1:0.0 2:0.0 3:0.0 4:0.0 5:0.0 
1.0 0.0 1:0.0 2:0.0 3:0.0 4:0.0 5:0.0 
1.0 0.0 1:0.0 2:0.0 3:0.0 4:0.0 5:0.0 
1.0 0.0 1:0.0 2:0.0 3:0.0 4:0.0 5:0.0 
1.0 0.0 1:0.0 2:0.0 3:0.0 4:0.0 5:0.0 
1.0 0.0 1:0.0 2:0.0 3:0.0 4:0.0 5:0.0 
1.0 0.0 1:0.0 2:0.0 3:0.0 4:0.0 5:0.0 
1.0 0.0 1:0.0 2:0.0 3:0.0 4:0.0 5:0.0 
1.0 0.0 1:1.0 2:0.0 3:0.0 4:0.0 5:0.0 
1.0 0.0 1:0.0 2:0.0 3:0.0 4:0.0 5:0.0 
1.0 0.0 1:0.0 2:0.0 3:0.0 4:0.0 5:0.0 
1.0 0.0 1:0.0 2:0.0 3:0.0 4:0.0 5:0.0 
1.0 0.0 1:0.0 2:0.0 3:0.0 4:0.0 5:0.0 
1.0 0.0 1:0.0 2:0.0 3:0.0 4:0.0 5:0.0 
1.0 0.0 1:0.0 2:0.0 3:0.0 4:0.0 5:0.0 
1.0 0.0 1:0.0 2:0.0 3:0.0 4:0.0 5:0.0 
1.0 0.0 1:0.0 2:0.0 3:0.0 4:0.0 5:0.0 
1.0 0.0 1:0.0 2:0.0 3:0.0 4:0.0 5:0.0 
1.0 0.0 1:0.0 2:0.0 3:0.0 4:0.0 5:0.0 
1.0 0.0 1:0.0 2:0.0 3:0.0 4:0.0 5:0.0 
1.0 0.0 1:0.0 2:0.0 3:0.0 4:0.0 5:0.0 
1.0 1.0 1:1.0 2:0.0 3:0.0 4:1.0 5:0.0 
1.0 0.0 1:0.0 2:0.0 3:0.0 4:0.0 5:0.0 
1.0 0.0 1:0.0 2:0.0 3:0.0 4:0.0 5:0.0 
1.0 0.0 1:0.0 2:0.0 3:0.0 4:0.0 5:0.0 
1.0 0.0 1:0.0 2:0.0 3:0.0 4:0.0 5:0.0 
1.0 0.0 1:0.0 2:0.0 3:0.0 4:0.0 5:0.0 
1.0 0.0 1:0.0 2:0.0 3:0.0 4:1.0 5:0.0 
1.0 0.0 1:0.0 2:0.0 3:0.0 4:0.0 5:0.0 
1.0 0.0 1:0.0 2:0.0 3:0.0 4:0.0 5:0.0 
1.0 0.0 1:0.0 2:0.0 3:0.0 4:0.0 5:0.0 
1.0 0.0 1:0.0 2:0.0 3:0.0 4:0.0 5:0.0 
1.0 0.0 1:1.0 2:0.0 3:0.0 4:0.0 5:0.0 
1.0 0.0 1:0.0 2:0.0 3:0.0 4:0.0 5:0.0 
1.0 0.0 1:0.0 2:0.0 3:0.0 4:0.0 5:0.0 
1.0 0.0 1:0.0 2:0.0 3:0.0 4:0.0 5:0.0 
1.0 0.0 1:0.0 2:0.0 3:0.0 4:0.0 5:0.0 
1.0 0.0 1:0.0 2:0.0 3:0.0 4:0.0 5:0.0 
1.0 0.0 1:0.0 2:0.0 3:0.0 4:0.0 5:0.0 
1.0 0.0 1:0.0 2:0.0 3:0.0 4:0.0 5:0.0 
1.0 0.0 1:0.0 2:0.0 3:0.0 4:0.0 5:0.0 
1.0 0.0 1:0.0 2:0.0 3:0.0 4:0.0 5:0.0 
1.0 0.0 1:0.0 2:0.0 3:0.0 4:1.0 5:0.0 
1.0 0.0 1:0.0 2:0.0 3:0.0 4:0.0 5:0.0 
1.0 0.0 1:0.0 2:0.0 3:0.0 4:0.0 5:0.0 
1.0 0.0 1:0.0 2:0.0 3:0.0 4:0.0 5:0.0 
1.0 0.0 1:0.0 2:0.0 3:0.0 4:0.0 5:0.0 
1.0 0.0 1:0.0 2:0.0 3:0.0 4:0.0 5:0.0 
1.0 1.0 1:1.0 2:0.0 3:0.0 4:1.0 5:0.0 
1.0 0.0 1:0.0 2:0.0 3:0.0 4:0.0 5:0.0 
1.0 0.0 1:0.0 2:0.0 3:0.0 4:1.0 5:0.0 
1.0 0.0 1:0.0 2:0.0 3:0.0 4:0.0 5:0.0 
1.0 0.0 1:0.0 2:0.0 3:0.0 4:0.0 5:0.0 
1.0 0.0 1:0.0 2:0.0 3:0.0 4:1.0 5:0.0 
1.0 0.0 1:0.0 2:0.0 3:0.0 4:0.0 5:0.0 
1.0 0.0 1:0.0 2:0.0 3:0.0 4:0.0 5:0.0 
1.0 0.0 1:0.0 2:0.0 3:0.0 4:0.0 5:0.0 
1.0 0.0 1:0.0 2:0.0 3:0.0 4:0.0 5:0.0 
1.0 0.0 1:0.0 2:0.0 3:0.0 4:0.0 5:0.0 
1.0 0.0 1:0.0 2:0.0 3:0.0 4:0.0 5:0.0 
1.0 0.0 1:0.0 2:0.0 3:0.0 4:0.0 5:0.0 
1.0 0.0 1:0.0 2:0.0 3:0.0 4:1.0 5:0.0 
1.0 0.0 1:0.0 2:0.0 3:0.0 4:0.0 5:0.0 
1.0 0.0 1:0.0 2:0.0 3:0.0 4:0.0 5:0.0 
1.0 0.0 1:0.0 2:0.0 3:0.0 4:0.0 5:0.0 
1.0 0.0 1:0.0 2:0.0 3:0.0 4:0.0 5:0.0 
1.0 0.0 1:0.0 2:0.0 3:0.0 4:0.0 5:0.0 
1.0 0.0 1:0.0 2:0.0 3:0.0 4:0.0 5:0.0 
1.0 0.0 1:0.0 2:0.0 3:0.0 4:0.0 5:1.0 
1.0 0.0 1:0.0 2:0.0 3:0.0 4:0.0 5:0.0 
1.0 0.0 1:0.0 2:0.0 3:0.0 4:0.0 5:0.0 
1.0 0.0 1:0.0 2:0.0 3:0.0 4:0.0 5:0.0 
1.0 0.0 1:0.0 2:0.0 3:0.0 4:0.0 5:0.0 
1.0 0.0 1:0.0 2:0.0 3:0.0 4:1.0 5:0.0 
1.0 0.0 1:0.0 2:0.0 3:0.0 4:1.0 5:0.0 
1.0 0.0 1:0.0 2:0.0 3:0.0 4:0.0 5:0.0 
1.0 0.0 1:0.0 2:0.0 3:0.0 4:0.0 5:0.0 
1.0 0.0 1:0.0 2:0.0 3:0.0 4:0.0 5:0.0 
1.0 0.0 1:0.0 2:0.0 3:0.0 4:0.0 5:0.0 
1.0 0.0 1:0.0 2:0.0 3:0.0 4:0.0 5:0.0 
1.0 0.0 1:0.0 2:0.0 3:0.0 4:0.0 5:0.0 
1.0 0.0 1:0.0 2:0.0 3:0.0 4:1.0 5:0.0 
1.0 0.0 1:0.0 2:0.0 3:0.0 4:0.0 5:0.0 
1.0 0.0 1:0.0 2:0.0 3:0.0 4:0.0 5:0.0 
1.0 0.0 1:0.0 2:0.0 3:0.0 4:0.0 5:0.0 
1.0 0.0 1:0.0 2:0.0 3:0.0 4:0.0 5:0.0 
1.0 0.0 1:0.0 2:0.0 3:0.0 4:0.0 5:0.0 
1.0 0.0 1:0.0 2:0.0 3:0.0 4:0.0 5:0.0 
1.0 0.0 1:0.0 2:0.0 3:0.0 4:0.0 5:0.0 
1.0 0.0 1:0.0 2:0.0 3:0.0 4:1.0 5:0.0 
1.0 0.0 1:0.0 2:0.0 3:0.0 4:0.0 5:0.0 
1.0 0.0 1:0.0 2:0.0 3:0.0 4:0.0 5:0.0 
1.0 0.0 1:0.0 2:0.0 3:0.0 4:0.0 5:0.0 
1.0 0.0 1:0.0 2:0.0 3:0.0 4:0.0 5:0.0 
1.0 0.0 1:0.0 2:0.0 3:0.0 4:0.0 5:0.0 
1.0 0.0 1:0.0 2:0.0 3:0.0 4:0.0 5:0.0 
1.0 0.0 1:0.0 2:0.0 3:0.0 4:1.0 5:0.0 
1.0 0.0 1:0.0 2:0.0 3:0.0 4:0.0 5:0.0 
1.0 0.0 1:0.0 2:0.0 3:0.0 4:1.0 5:0.0 
1.0 0.0 1:0.0 2:0.0 3:0.0 4:0.0 5:0.0 
1.0 0.0 1:0.0 2:0.0 3:0.0 4:0.0 5:0.0 
1.0 0.0 1:0.0 2:0.0 3:0.0 4:0.0 5:0.0 
1.0 0.0 1:0.0 2:0.0 3:0.0 4:0.0 5:0.0 
1.0 0.0 1:0.0 2:0.0 3:0.0 4:0.0 5:0.0 
1.0 0.0 1:0.0 2:0.0 3:0.0 4:1.0 5:0.0 
1.0 0.0 1:0.0 2:0.0 3:0.0 4:0.0 5:0.0 
1.0 0.0 1:0.0 2:0.0 3:0.0 4:0.0 5:0.0 
1.0 0.0 1:0.0 2:0.0 3:0.0 4:0.0 5:0.0 
1.0 0.0 1:0.0 2:0.0 3:0.0 4:0.0 5:0.0 
1.0 0.0 1:0.0 2:0.0 3:0.0 4:0.0 5:0.0 
1.0 0.0 1:0.0 2:0.0 3:0.0 4:0.0 5:0.0 
1.0 0.0 1:0.0 2:0.0 3:0.0 4:1.0 5:0.0 
1.0 0.0 1:0.0 2:0.0 3:0.0 4:0.0 5:0.0 
1.0 0.0 1:0.0 2:0.0 3:0.0 4:0.0 5:0.0 
1.0 0.0 1:0.0 2:0.0 3:0.0 4:1.0 5:0.0 
1.0 0.0 1:0.0 2:0.0 3:0.0 4:0.0 5:1.0 
1.0 0.0 1:0.0 2:0.0 3:0.0 4:0.0 5:0.0 
1.0 0.0 1:0.0 2:0.0 3:0.0 4:0.0 5:0.0 
1.0 0.0 1:0.0 2:0.0 3:0.0 4:0.0 5:0.0 
1.0 0.0 1:0.0 2:0.0 3:0.0 4:1.0 5:0.0 
1.0 1.0 1:1.0 2:0.0 3:0.0 4:1.0 5:0.0 
1.0 0.0 1:0.0 2:0.0 3:0.0 4:0.0 5:0.0 
1.0 0.0 1:0.0 2:0.0 3:0.0 4:0.0 5:0.0 
1.0 0.0 1:0.0 2:0.0 3:0.0 4:1.0 5:0.0 
1.0 0.0 1:0.0 2:0.0 3:0.0 4:1.0 5:0.0 
1.0 0.0 1:0.0 2:0.0 3:0.0 4:0.0 5:0.0 
1.0 0.0 1:0.0 2:0.0 3:0.0 4:0.0 5:0.0 
1.0 0.0 1:0.0 2:0.0 3:0.0 4:0.0 5:0.0 
1.0 0.0 1:0.0 2:0.0 3:0.0 4:0.0 5:0.0 
1.0 0.0 1:1.0 2:0.0 3:0.0 4:0.0 5:0.0 
1.0 0.0 1:0.0 2:0.0 3:0.0 4:0.0 5:0.0 
1.0 0.0 1:0.0 2:0.0 3:0.0 4:0.0 5:0.0 
1.0 0.0 1:0.0 2:0.0 3:0.0 4:0.0 5:0.0 
1.0 0.0 1:0.0 2:0.0 3:0.0 4:0.0 5:1.0 
1.0 0.0 1:0.0 2:0.0 3:0.0 4:0.0 5:0.0 
1.0 0.0 1:0.0 2:0.0 3:0.0 4:0.0 5:0.0 
1.0 0.0 1:0.0 2:0.0 3:0.0 4:0.0 5:0.0 
1.0 0.0 1:0.0 2:0.0 3:0.0 4:0.0 5:0.0 
1.0 0.0 1:0.0 2:0.0 3:0.0 4:0.0 5:0.0 
1.0 0.0 1:0.0 2:0.0 3:0.0 4:0.0 5:0.0 
1.0 0.0 1:0.0 2:0.0 3:0.0 4:0.0 5:0.0 
1.0 0.0 1:0.0 2:0.0 3:0.0 4:0.0 5:0.0 
1.0 0.0 1:0.0 2:0.0 3:0.0 4:0.0 5:0.0 
1.0 0.0 1:0.0 2:0.0 3:0.0 4:0.0 5:0.0 
1.0 0.0 1:0.0 2:0.0 3:0.0 4:0.0 5:0.0 
1.0 0.0 1:0.0 2:0.0 3:0.0 4:0.0 5:0.0 
1.0 0.0 1:0.0 2:0.0 3:0.0 4:0.0 5:0.0 
1.0 0.0 1:0.0 2:0.0 3:0.0 4:0.0 5:0.0 
1.0 0.0 1:0.0 2:0.0 3:0.0 4:0.0 5:0.0 
1.0 0.0 1:0.0 2:0.0 3:0.0 4:1.0 5:0.0 
1.0 0.0 1:0.0 2:0.0 3:0.0 4:0.0 5:0.0 
1.0 0.0 1:0.0 2:0.0 3:0.0 4:0.0 5:0.0 
1.0 0.0 1:0.0 2:0.0 3:0.0 4:0.0 5:0.0 
1.0 0.0 1:0.0 2:0.0 3:0.0 4:0.0 5:0.0 
1.0 0.0 1:0.0 2:0.0 3:0.0 4:0.0 5:0.0 
1.0 0.0 1:0.0 2:0.0 3:0.0 4:0.0 5:0.0 
1.0 0.0 1:1.0 2:0.0 3:0.0 4:0.0 5:0.0 
1.0 0.0 1:0.0 2:0.0 3:0.0 4:0.0 5:0.0 
1.0 0.0 1:0.0 2:0.0 3:0.0 4:0.0 5:0.0 
1.0 0.0 1:0.0 2:0.0 3:0.0 4:0.0 5:0.0 
1.0 0.0 1:0.0 2:0.0 3:0.0 4:0.0 5:0.0 
1.0 0.0 1:0.0 2:0.0 3:0.0 4:0.0 5:0.0 
1.0 0.0 1:0.0 2:0.0 3:0.0 4:0.0 5:0.0 
1.0 0.0 1:0.0 2:0.0 3:0.0 4:0.0 5:0.0 
1.0 0.0 1:1.0 2:0.0 3:0.0 4:0.0 5:0.0 
1.0 0.0 1:0.0 2:0.0 3:0.0 4:0.0 5:0.0 
1.0 0.0 1:0.0 2:0.0 3:0.0 4:0.0 5:0.0 
1.0 0.0 1:0.0 2:0.0 3:0.0 4:0.0 5:0.0 
1.0 0.0 1:0.0 2:0.0 3:0.0 4:0.0 5:0.0 
1.0 0.0 1:0.0 2:0.0 3:0.0 4:1.0 5:0.0 
1.0 0.0 1:0.0 2:0.0 3:0.0 4:0.0 5:0.0 
1.0 0.0 1:0.0 2:0.0 3:0.0 4:0.0 5:0.0 
1.0 0.0 1:0.0 2:0.0 3:0.0 4:0.0 5:0.0 
1.0 0.0 1:0.0 2:0.0 3:0.0 4:0.0 5:0.0 
1.0 0.0 1:0.0 2:0.0 3:0.0 4:0.0 5:0.0 
1.0 0.0 1:0.0 2:0.0 3:0.0 4:0.0 5:0.0 
1.0 0.0 1:0.0 2:0.0 3:0.0 4:0.0 5:0.0 
1.0 0.0 1:0.0 2:0.0 3:0.0 4:0.0 5:0.0 
1.0 0.0 1:0.0 2:0.0 3:0.0 4:0.0 5:0.0 
1.0 0.0 1:0.0 2:0.0 3:0.0 4:0.0 5:0.0 
1.0 0.0 1:0.0 2:0.0 3:0.0 4:0.0 5:0.0 
1.0 0.0 1:0.0 2:0.0 3:0.0 4:0.0 5:0.0 
1.0 0.0 1:0.0 2:0.0 3:0.0 4:0.0 5:0.0 
1.0 0.0 1:0.0 2:0.0 3:0.0 4:0.0 5:0.0 
1.0 0.0 1:0.0 2:0.0 3:0.0 4:0.0 5:0.0 
1.0 0.0 1:0.0 2:0.0 3:0.0 4:0.0 5:1.0 
1.0 0.0 1:0.0 2:0.0 3:0.0 4:1.0 5:0.0 
1.0 0.0 1:0.0 2:0.0 3:0.0 4:0.0 5:0.0 
1.0 0.0 1:0.0 2:0.0 3:0.0 4:0.0 5:1.0 
1.0 0.0 1:0.0 2:0.0 3:0.0 4:1.0 5:0.0 
1.0 0.0 1:0.0 2:0.0 3:0.0 4:0.0 5:0.0 
1.0 0.0 1:0.0 2:0.0 3:0.0 4:0.0 5:0.0 
1.0 0.0 1:0.0 2:0.0 3:0.0 4:0.0 5:0.0 
1.0 0.0 1:0.0 2:0.0 3:0.0 4:0.0 5:0.0 
1.0 0.0 1:1.0 2:0.0 3:0.0 4:0.0 5:0.0 
1.0 0.0 1:1.0 2:0.0 3:0.0 4:0.0 5:0.0 
1.0 0.0 1:0.0 2:0.0 3:0.0 4:1.0 5:0.0 
1.0 0.0 1:0.0 2:0.0 3:0.0 4:0.0 5:0.0 
1.0 0.0 1:0.0 2:0.0 3:0.0 4:0.0 5:0.0 
1.0 0.0 1:0.0 2:0.0 3:0.0 4:0.0 5:0.0 
1.0 0.0 1:1.0 2:0.0 3:0.0 4:0.0 5:0.0 
1.0 0.0 1:0.0 2:0.0 3:0.0 4:1.0 5:0.0 
1.0 0.0 1:0.0 2:0.0 3:0.0 4:0.0 5:0.0 
1.0 0.0 1:0.0 2:0.0 3:0.0 4:0.0 5:0.0 
1.0 0.0 1:0.0 2:0.0 3:0.0 4:0.0 5:0.0 
1.0 0.0 1:0.0 2:0.0 3:0.0 4:0.0 5:0.0 
1.0 0.0 1:0.0 2:0.0 3:0.0 4:0.0 5:0.0 
1.0 0.0 1:0.0 2:0.0 3:0.0 4:0.0 5:0.0 
1.0 0.0 1:0.0 2:0.0 3:0.0 4:0.0 5:0.0 
1.0 0.0 1:0.0 2:0.0 3:0.0 4:0.0 5:0.0 
1.0 0.0 1:0.0 2:0.0 3:0.0 4:0.0 5:0.0 
1.0 0.0 1:0.0 2:0.0 3:0.0 4:0.0 5:0.0 
1.0 0.0 1:0.0 2:0.0 3:0.0 4:0.0 5:0.0 
1.0 0.0 1:0.0 2:0.0 3:0.0 4:0.0 5:0.0 
1.0 0.0 1:0.0 2:0.0 3:0.0 4:0.0 5:0.0 
1.0 0.0 1:0.0 2:0.0 3:0.0 4:1.0 5:0.0 
1.0 0.0 1:0.0 2:0.0 3:0.0 4:0.0 5:0.0 
1.0 0.0 1:0.0 2:0.0 3:0.0 4:1.0 5:0.0 
1.0 0.0 1:0.0 2:0.0 3:0.0 4:0.0 5:0.0 
1.0 0.0 1:1.0 2:0.0 3:0.0 4:0.0 5:0.0 
1.0 0.0 1:0.0 2:0.0 3:0.0 4:0.0 5:0.0 
1.0 0.0 1:0.0 2:0.0 3:0.0 4:0.0 5:0.0 
1.0 0.0 1:0.0 2:0.0 3:0.0 4:0.0 5:0.0 
1.0 0.0 1:1.0 2:0.0 3:0.0 4:0.0 5:0.0 
1.0 0.0 1:0.0 2:0.0 3:0.0 4:0.0 5:0.0 
1.0 0.0 1:0.0 2:0.0 3:0.0 4:0.0 5:0.0 
1.0 0.0 1:0.0 2:0.0 3:0.0 4:0.0 5:0.0 
1.0 0.0 1:0.0 2:0.0 3:0.0 4:0.0 5:0.0 
1.0 0.0 1:0.0 2:0.0 3:0.0 4:0.0 5:0.0 
1.0 0.0 1:0.0 2:0.0 3:0.0 4:0.0 5:0.0 
1.0 0.0 1:0.0 2:0.0 3:0.0 4:0.0 5:0.0 
1.0 0.0 1:0.0 2:0.0 3:0.0 4:1.0 5:0.0 
1.0 0.0 1:0.0 2:0.0 3:0.0 4:0.0 5:0.0 
1.0 0.0 1:1.0 2:0.0 3:0.0 4:0.0 5:0.0 
1.0 0.0 1:0.0 2:0.0 3:0.0 4:1.0 5:0.0 
1.0 0.0 1:0.0 2:0.0 3:0.0 4:0.0 5:0.0 
1.0 0.0 1:0.0 2:0.0 3:0.0 4:0.0 5:0.0 
1.0 0.0 1:0.0 2:0.0 3:0.0 4:0.0 5:0.0 
1.0 0.0 1:0.0 2:0.0 3:0.0 4:0.0 5:0.0 
1.0 0.0 1:0.0 2:0.0 3:0.0 4:0.0 5:0.0 
1.0 0.0 1:0.0 2:0.0 3:0.0 4:1.0 5:0.0 
1.0 0.0 1:1.0 2:0.0 3:0.0 4:0.0 5:0.0 
1.0 0.0 1:0.0 2:0.0 3:0.0 4:1.0 5:0.0 
1.0 0.0 1:0.0 2:0.0 3:0.0 4:0.0 5:0.0 
1.0 0.0 1:0.0 2:0.0 3:0.0 4:0.0 5:0.0 
1.0 0.0 1:0.0 2:0.0 3:0.0 4:0.0 5:0.0 
1.0 0.0 1:0.0 2:0.0 3:0.0 4:0.0 5:0.0 
1.0 0.0 1:0.0 2:0.0 3:0.0 4:0.0 5:0.0 
1.0 0.0 1:0.0 2:0.0 3:0.0 4:0.0 5:0.0 
1.0 0.0 1:0.0 2:0.0 3:0.0 4:0.0 5:0.0 
1.0 0.0 1:0.0 2:0.0 3:0.0 4:0.0 5:0.0 
1.0 0.0 1:0.0 2:0.0 3:0.0 4:0.0 5:0.0 
1.0 0.0 1:0.0 2:0.0 3:0.0 4:0.0 5:0.0 
1.0 0.0 1:0.0 2:0.0 3:0.0 4:0.0 5:0.0 
1.0 0.0 1:0.0 2:0.0 3:0.0 4:0.0 5:0.0 
1.0 0.0 1:0.0 2:0.0 3:0.0 4:0.0 5:0.0 
1.0 0.0 1:0.0 2:0.0 3:0.0 4:0.0 5:0.0 
1.0 0.0 1:1.0 2:0.0 3:0.0 4:0.0 5:0.0 
1.0 0.0 1:0.0 2:0.0 3:0.0 4:1.0 5:0.0 
1.0 0.0 1:0.0 2:0.0 3:0.0 4:0.0 5:0.0 
1.0 0.0 1:1.0 2:0.0 3:0.0 4:0.0 5:0.0 
1.0 0.0 1:0.0 2:0.0 3:0.0 4:0.0 5:0.0 
1.0 0.0 1:0.0 2:0.0 3:0.0 4:0.0 5:0.0 
1.0 0.0 1:0.0 2:0.0 3:0.0 4:0.0 5:0.0 
1.0 0.0 1:0.0 2:0.0 3:0.0 4:1.0 5:0.0 
1.0 0.0 1:0.0 2:0.0 3:0.0 4:0.0 5:0.0 
1.0 0.0 1:0.0 2:0.0 3:0.0 4:0.0 5:0.0 
1.0 0.0 1:0.0 2:0.0 3:0.0 4:0.0 5:0.0 
1.0 0.0 1:0.0 2:0.0 3:0.0 4:0.0 5:0.0 
1.0 0.0 1:0.0 2:0.0 3:0.0 4:0.0 5:0.0 
1.0 0.0 1:0.0 2:0.0 3:0.0 4:0.0 5:0.0 
1.0 0.0 1:0.0 2:0.0 3:0.0 4:0.0 5:0.0 
1.0 0.0 1:0.0 2:0.0 3:0.0 4:0.0 5:0.0 
1.0 0.0 1:0.0 2:0.0 3:0.0 4:0.0 5:0.0 
1.0 0.0 1:0.0 2:0.0 3:0.0 4:0.0 5:0.0 
1.0 0.0 1:0.0 2:0.0 3:0.0 4:0.0 5:0.0 
1.0 0.0 1:0.0 2:0.0 3:0.0 4:0.0 5:0.0 
1.0 0.0 1:1.0 2:0.0 3:0.0 4:0.0 5:0.0 
1.0 0.0 1:0.0 2:0.0 3:0.0 4:0.0 5:0.0 
1.0 0.0 1:0.0 2:0.0 3:0.0 4:0.0 5:0.0 
1.0 0.0 1:0.0 2:0.0 3:0.0 4:1.0 5:0.0 
1.0 0.0 1:0.0 2:0.0 3:0.0 4:0.0 5:0.0 
1.0 0.0 1:0.0 2:0.0 3:0.0 4:0.0 5:0.0 
1.0 0.0 1:0.0 2:0.0 3:0.0 4:0.0 5:0.0 
1.0 0.0 1:0.0 2:0.0 3:0.0 4:0.0 5:1.0 
1.0 0.0 1:0.0 2:0.0 3:0.0 4:0.0 5:0.0 
1.0 0.0 1:0.0 2:0.0 3:0.0 4:0.0 5:0.0 
1.0 0.0 1:0.0 2:0.0 3:0.0 4:0.0 5:0.0 
1.0 0.0 1:0.0 2:0.0 3:0.0 4:0.0 5:0.0 
1.0 0.0 1:0.0 2:0.0 3:0.0 4:0.0 5:0.0 
1.0 0.0 1:0.0 2:0.0 3:0.0 4:1.0 5:0.0 
1.0 0.0 1:0.0 2:0.0 3:0.0 4:0.0 5:0.0 
1.0 0.0 1:0.0 2:0.0 3:0.0 4:0.0 5:0.0 
1.0 0.0 1:0.0 2:0.0 3:0.0 4:0.0 5:0.0 
1.0 0.0 1:0.0 2:0.0 3:0.0 4:0.0 5:0.0 
1.0 0.0 1:0.0 2:0.0 3:0.0 4:0.0 5:0.0 
1.0 0.0 1:0.0 2:0.0 3:0.0 4:0.0 5:0.0 
1.0 0.0 1:0.0 2:0.0 3:0.0 4:0.0 5:0.0 
1.0 0.0 1:0.0 2:0.0 3:0.0 4:1.0 5:0.0 
1.0 0.0 1:0.0 2:0.0 3:0.0 4:0.0 5:0.0 
1.0 0.0 1:0.0 2:0.0 3:0.0 4:0.0 5:0.0 
1.0 0.0 1:0.0 2:0.0 3:0.0 4:1.0 5:0.0 
1.0 0.0 1:0.0 2:0.0 3:0.0 4:0.0 5:0.0 
1.0 0.0 1:0.0 2:0.0 3:0.0 4:0.0 5:0.0 
1.0 0.0 1:0.0 2:0.0 3:0.0 4:0.0 5:0.0 
1.0 0.0 1:0.0 2:0.0 3:0.0 4:0.0 5:0.0 
1.0 0.0 1:0.0 2:0.0 3:0.0 4:0.0 5:0.0 
1.0 0.0 1:0.0 2:0.0 3:0.0 4:0.0 5:0.0 
1.0 0.0 1:0.0 2:0.0 3:0.0 4:0.0 5:0.0 
1.0 0.0 1:0.0 2:0.0 3:0.0 4:0.0 5:0.0 
1.0 0.0 1:1.0 2:0.0 3:0.0 4:0.0 5:0.0 
1.0 0.0 1:0.0 2:0.0 3:0.0 4:0.0 5:0.0 
1.0 0.0 1:0.0 2:0.0 3:0.0 4:1.0 5:0.0 
1.0 0.0 1:1.0 2:0.0 3:0.0 4:0.0 5:0.0 
1.0 0.0 1:0.0 2:0.0 3:0.0 4:1.0 5:0.0 
1.0 0.0 1:0.0 2:0.0 3:0.0 4:0.0 5:0.0 
1.0 0.0 1:0.0 2:0.0 3:0.0 4:0.0 5:0.0 
1.0 0.0 1:0.0 2:0.0 3:0.0 4:0.0 5:0.0 
1.0 0.0 1:0.0 2:0.0 3:0.0 4:0.0 5:0.0 
1.0 0.0 1:0.0 2:0.0 3:0.0 4:0.0 5:0.0 
1.0 0.0 1:0.0 2:0.0 3:0.0 4:0.0 5:0.0 
1.0 0.0 1:0.0 2:0.0 3:0.0 4:1.0 5:0.0 
1.0 0.0 1:0.0 2:0.0 3:0.0 4:0.0 5:0.0 
1.0 0.0 1:0.0 2:0.0 3:0.0 4:0.0 5:0.0 
1.0 0.0 1:0.0 2:0.0 3:0.0 4:1.0 5:0.0 
1.0 0.0 1:0.0 2:0.0 3:0.0 4:0.0 5:0.0 
1.0 0.0 1:0.0 2:0.0 3:0.0 4:0.0 5:0.0 
1.0 0.0 1:0.0 2:0.0 3:0.0 4:0.0 5:0.0 
1.0 0.0 1:0.0 2:0.0 3:0.0 4:0.0 5:0.0 
1.0 0.0 1:0.0 2:0.0 3:0.0 4:0.0 5:0.0 
1.0 0.0 1:0.0 2:0.0 3:0.0 4:0.0 5:0.0 
1.0 0.0 1:0.0 2:0.0 3:0.0 4:0.0 5:0.0 
1.0 0.0 1:0.0 2:0.0 3:0.0 4:0.0 5:0.0 
1.0 0.0 1:0.0 2:0.0 3:0.0 4:0.0 5:0.0 
1.0 0.0 1:0.0 2:0.0 3:0.0 4:0.0 5:0.0 
1.0 0.0 1:0.0 2:0.0 3:0.0 4:0.0 5:0.0 
1.0 0.0 1:0.0 2:0.0 3:0.0 4:0.0 5:0.0 
1.0 0.0 1:0.0 2:0.0 3:0.0 4:0.0 5:0.0 
1.0 0.0 1:0.0 2:0.0 3:0.0 4:0.0 5:0.0 
1.0 0.0 1:0.0 2:0.0 3:0.0 4:0.0 5:0.0 
1.0 0.0 1:0.0 2:0.0 3:0.0 4:0.0 5:0.0 
1.0 0.0 1:0.0 2:0.0 3:0.0 4:0.0 5:0.0 
1.0 0.0 1:0.0 2:0.0 3:0.0 4:0.0 5:0.0 
1.0 0.0 1:0.0 2:0.0 3:0.0 4:0.0 5:0.0 
1.0 0.0 1:0.0 2:0.0 3:0.0 4:0.0 5:0.0 
1.0 0.0 1:0.0 2:0.0 3:0.0 4:0.0 5:0.0 
1.0 0.0 1:0.0 2:0.0 3:0.0 4:0.0 5:0.0 
1.0 0.0 1:1.0 2:0.0 3:0.0 4:0.0 5:0.0 
1.0 0.0 1:0.0 2:0.0 3:0.0 4:0.0 5:0.0 
1.0 0.0 1:0.0 2:0.0 3:0.0 4:0.0 5:0.0 
1.0 0.0 1:0.0 2:0.0 3:0.0 4:0.0 5:0.0 
1.0 0.0 1:0.0 2:0.0 3:0.0 4:0.0 5:0.0 
1.0 0.0 1:0.0 2:0.0 3:0.0 4:0.0 5:0.0 
1.0 0.0 1:0.0 2:0.0 3:0.0 4:1.0 5:0.0 
1.0 0.0 1:0.0 2:0.0 3:0.0 4:0.0 5:0.0 
1.0 0.0 1:0.0 2:0.0 3:0.0 4:0.0 5:0.0 
1.0 0.0 1:0.0 2:0.0 3:0.0 4:0.0 5:0.0 
1.0 0.0 1:0.0 2:0.0 3:0.0 4:0.0 5:0.0 
1.0 0.0 1:0.0 2:0.0 3:0.0 4:0.0 5:0.0 
1.0 0.0 1:0.0 2:0.0 3:0.0 4:0.0 5:0.0 
1.0 0.0 1:0.0 2:0.0 3:0.0 4:0.0 5:0.0 
1.0 0.0 1:0.0 2:0.0 3:0.0 4:0.0 5:0.0 
1.0 0.0 1:0.0 2:0.0 3:0.0 4:0.0 5:0.0 
1.0 0.0 1:0.0 2:0.0 3:0.0 4:0.0 5:0.0 
1.0 0.0 1:0.0 2:0.0 3:0.0 4:0.0 5:0.0 
1.0 0.0 1:0.0 2:0.0 3:0.0 4:0.0 5:0.0 
1.0 0.0 1:0.0 2:0.0 3:0.0 4:0.0 5:0.0 
1.0 0.0 1:0.0 2:0.0 3:0.0 4:0.0 5:0.0 
1.0 0.0 1:0.0 2:0.0 3:0.0 4:0.0 5:0.0 
1.0 0.0 1:0.0 2:0.0 3:0.0 4:0.0 5:0.0 
1.0 0.0 1:0.0 2:0.0 3:0.0 4:0.0 5:0.0 
1.0 0.0 1:0.0 2:0.0 3:0.0 4:0.0 5:0.0 
1.0 0.0 1:0.0 2:0.0 3:0.0 4:1.0 5:0.0 
1.0 0.0 1:0.0 2:0.0 3:0.0 4:0.0 5:0.0 
1.0 0.0 1:0.0 2:0.0 3:0.0 4:0.0 5:0.0 
1.0 0.0 1:1.0 2:0.0 3:0.0 4:0.0 5:0.0 
1.0 0.0 1:1.0 2:0.0 3:0.0 4:0.0 5:0.0 
1.0 0.0 1:0.0 2:0.0 3:0.0 4:0.0 5:0.0 
1.0 0.0 1:0.0 2:0.0 3:0.0 4:0.0 5:0.0 
1.0 0.0 1:0.0 2:0.0 3:0.0 4:0.0 5:0.0 
1.0 0.0 1:0.0 2:0.0 3:0.0 4:0.0 5:0.0 
1.0 0.0 1:0.0 2:0.0 3:0.0 4:0.0 5:0.0 
1.0 0.0 1:0.0 2:0.0 3:0.0 4:0.0 5:0.0 
1.0 1.0 1:1.0 2:0.0 3:0.0 4:1.0 5:0.0 
1.0 0.0 1:1.0 2:0.0 3:0.0 4:0.0 5:0.0 
1.0 0.0 1:0.0 2:0.0 3:0.0 4:1.0 5:0.0 
1.0 0.0 1:0.0 2:0.0 3:0.0 4:0.0 5:0.0 
1.0 0.0 1:1.0 2:0.0 3:0.0 4:0.0 5:0.0 
1.0 0.0 1:0.0 2:0.0 3:0.0 4:0.0 5:0.0 
1.0 0.0 1:0.0 2:0.0 3:0.0 4:0.0 5:0.0 
1.0 0.0 1:0.0 2:0.0 3:0.0 4:0.0 5:0.0 
1.0 0.0 1:0.0 2:0.0 3:0.0 4:1.0 5:0.0 
1.0 0.0 1:0.0 2:0.0 3:0.0 4:0.0 5:0.0 
1.0 0.0 1:1.0 2:0.0 3:0.0 4:0.0 5:0.0 
1.0 0.0 1:0.0 2:0.0 3:0.0 4:0.0 5:0.0 
1.0 0.0 1:0.0 2:0.0 3:0.0 4:0.0 5:0.0 
1.0 0.0 1:0.0 2:0.0 3:0.0 4:0.0 5:0.0 
1.0 0.0 1:0.0 2:0.0 3:0.0 4:0.0 5:0.0 
1.0 0.0 1:0.0 2:0.0 3:0.0 4:0.0 5:0.0 
1.0 0.0 1:0.0 2:0.0 3:0.0 4:1.0 5:0.0 
1.0 0.0 1:0.0 2:0.0 3:0.0 4:1.0 5:0.0 
1.0 0.0 1:0.0 2:0.0 3:0.0 4:0.0 5:0.0 
1.0 0.0 1:0.0 2:0.0 3:0.0 4:0.0 5:0.0 
1.0 0.0 1:0.0 2:0.0 3:0.0 4:1.0 5:0.0 
1.0 0.0 1:0.0 2:0.0 3:0.0 4:0.0 5:0.0 
1.0 0.0 1:0.0 2:0.0 3:0.0 4:1.0 5:0.0 
1.0 0.0 1:0.0 2:0.0 3:0.0 4:0.0 5:0.0 
1.0 0.0 1:0.0 2:0.0 3:0.0 4:1.0 5:0.0 
1.0 0.0 1:0.0 2:0.0 3:0.0 4:1.0 5:0.0 
1.0 0.0 1:0.0 2:0.0 3:0.0 4:0.0 5:0.0 
1.0 0.0 1:0.0 2:0.0 3:0.0 4:1.0 5:0.0 
1.0 0.0 1:0.0 2:0.0 3:0.0 4:0.0 5:0.0 
1.0 0.0 1:0.0 2:0.0 3:0.0 4:0.0 5:0.0 
1.0 0.0 1:0.0 2:0.0 3:0.0 4:0.0 5:0.0 
1.0 0.0 1:0.0 2:0.0 3:0.0 4:0.0 5:0.0 
1.0 0.0 1:0.0 2:0.0 3:0.0 4:0.0 5:0.0 
1.0 0.0 1:0.0 2:0.0 3:0.0 4:1.0 5:0.0 
1.0 0.0 1:0.0 2:0.0 3:0.0 4:0.0 5:0.0 
1.0 0.0 1:0.0 2:0.0 3:0.0 4:0.0 5:0.0 
1.0 0.0 1:0.0 2:0.0 3:0.0 4:0.0 5:0.0 
1.0 0.0 1:0.0 2:0.0 3:0.0 4:1.0 5:0.0 
1.0 0.0 1:0.0 2:0.0 3:0.0 4:0.0 5:0.0 
1.0 0.0 1:0.0 2:0.0 3:0.0 4:1.0 5:0.0 
1.0 0.0 1:0.0 2:0.0 3:0.0 4:0.0 5:0.0 
1.0 0.0 1:0.0 2:0.0 3:0.0 4:0.0 5:0.0 
1.0 0.0 1:0.0 2:0.0 3:0.0 4:0.0 5:0.0 
1.0 0.0 1:0.0 2:0.0 3:0.0 4:0.0 5:0.0 
1.0 0.0 1:0.0 2:0.0 3:0.0 4:0.0 5:0.0 
1.0 0.0 1:0.0 2:0.0 3:0.0 4:0.0 5:0.0 
1.0 0.0 1:0.0 2:0.0 3:0.0 4:0.0 5:0.0 
1.0 0.0 1:0.0 2:0.0 3:0.0 4:0.0 5:0.0 
1.0 0.0 1:0.0 2:0.0 3:0.0 4:0.0 5:0.0 
1.0 0.0 1:0.0 2:0.0 3:0.0 4:1.0 5:0.0 
1.0 0.0 1:0.0 2:0.0 3:0.0 4:0.0 5:0.0 
1.0 0.0 1:0.0 2:0.0 3:0.0 4:0.0 5:0.0 
1.0 0.0 1:0.0 2:0.0 3:0.0 4:0.0 5:0.0 
1.0 0.0 1:0.0 2:0.0 3:0.0 4:0.0 5:0.0 
1.0 0.0 1:0.0 2:0.0 3:0.0 4:0.0 5:0.0 
1.0 0.0 1:0.0 2:0.0 3:0.0 4:1.0 5:0.0 
1.0 0.0 1:0.0 2:0.0 3:0.0 4:0.0 5:0.0 
1.0 0.0 1:0.0 2:0.0 3:0.0 4:0.0 5:0.0 
1.0 0.0 1:0.0 2:0.0 3:0.0 4:0.0 5:0.0 
1.0 0.0 1:0.0 2:0.0 3:0.0 4:1.0 5:0.0 
1.0 0.0 1:0.0 2:0.0 3:0.0 4:0.0 5:0.0 
1.0 0.0 1:0.0 2:0.0 3:0.0 4:0.0 5:0.0 
1.0 0.0 1:0.0 2:0.0 3:0.0 4:0.0 5:0.0 
1.0 0.0 1:0.0 2:0.0 3:0.0 4:0.0 5:1.0 
1.0 0.0 1:0.0 2:0.0 3:0.0 4:1.0 5:0.0 
1.0 0.0 1:0.0 2:0.0 3:0.0 4:0.0 5:0.0 
1.0 0.0 1:0.0 2:0.0 3:0.0 4:1.0 5:0.0 
1.0 0.0 1:0.0 2:0.0 3:0.0 4:0.0 5:0.0 
1.0 0.0 1:0.0 2:0.0 3:0.0 4:0.0 5:0.0 
1.0 0.0 1:0.0 2:0.0 3:0.0 4:1.0 5:0.0 
1.0 0.0 1:0.0 2:0.0 3:0.0 4:0.0 5:0.0 
1.0 0.0 1:0.0 2:0.0 3:0.0 4:0.0 5:0.0 
1.0 0.0 1:0.0 2:0.0 3:0.0 4:0.0 5:0.0 
1.0 0.0 1:0.0 2:0.0 3:0.0 4:0.0 5:0.0 
1.0 0.0 1:0.0 2:0.0 3:0.0 4:0.0 5:0.0 
1.0 0.0 1:0.0 2:0.0 3:0.0 4:0.0 5:0.0 
1.0 0.0 1:0.0 2:0.0 3:0.0 4:0.0 5:0.0 
1.0 0.0 1:0.0 2:0.0 3:0.0 4:0.0 5:0.0 
1.0 0.0 1:0.0 2:0.0 3:0.0 4:0.0 5:0.0 
1.0 0.0 1:0.0 2:0.0 3:0.0 4:0.0 5:0.0 
1.0 0.0 1:0.0 2:0.0 3:0.0 4:0.0 5:0.0 
1.0 0.0 1:0.0 2:0.0 3:0.0 4:1.0 5:0.0 
1.0 0.0 1:0.0 2:0.0 3:0.0 4:0.0 5:0.0 
1.0 0.0 1:0.0 2:0.0 3:0.0 4:1.0 5:0.0 
1.0 0.0 1:0.0 2:0.0 3:0.0 4:0.0 5:0.0 
1.0 0.0 1:0.0 2:0.0 3:0.0 4:0.0 5:0.0 
1.0 0.0 1:0.0 2:0.0 3:0.0 4:0.0 5:0.0 
1.0 0.0 1:0.0 2:0.0 3:0.0 4:0.0 5:0.0 
1.0 0.0 1:0.0 2:0.0 3:0.0 4:0.0 5:0.0 
1.0 0.0 1:0.0 2:0.0 3:0.0 4:0.0 5:0.0 
1.0 0.0 1:0.0 2:0.0 3:0.0 4:0.0 5:0.0 
1.0 0.0 1:1.0 2:0.0 3:0.0 4:0.0 5:0.0 
1.0 0.0 1:0.0 2:0.0 3:0.0 4:0.0 5:0.0 
1.0 0.0 1:0.0 2:0.0 3:0.0 4:0.0 5:0.0 
1.0 0.0 1:0.0 2:0.0 3:0.0 4:0.0 5:0.0 
1.0 0.0 1:0.0 2:0.0 3:0.0 4:0.0 5:0.0 
1.0 0.0 1:0.0 2:0.0 3:0.0 4:0.0 5:0.0 
1.0 0.0 1:1.0 2:0.0 3:0.0 4:0.0 5:0.0 
1.0 0.0 1:0.0 2:0.0 3:0.0 4:0.0 5:1.0 
1.0 0.0 1:0.0 2:0.0 3:0.0 4:0.0 5:0.0 
1.0 0.0 1:0.0 2:0.0 3:0.0 4:0.0 5:0.0 
1.0 0.0 1:0.0 2:0.0 3:0.0 4:0.0 5:0.0 
1.0 0.0 1:0.0 2:0.0 3:0.0 4:0.0 5:0.0 
1.0 0.0 1:1.0 2:0.0 3:0.0 4:0.0 5:0.0 
1.0 0.0 1:0.0 2:0.0 3:0.0 4:0.0 5:0.0 
1.0 0.0 1:0.0 2:0.0 3:0.0 4:1.0 5:0.0 
1.0 0.0 1:1.0 2:0.0 3:0.0 4:0.0 5:0.0 
1.0 0.0 1:0.0 2:0.0 3:0.0 4:0.0 5:0.0 
1.0 0.0 1:0.0 2:0.0 3:0.0 4:1.0 5:0.0 
1.0 0.0 1:0.0 2:0.0 3:0.0 4:0.0 5:0.0 
1.0 0.0 1:0.0 2:0.0 3:0.0 4:0.0 5:0.0 
1.0 0.0 1:0.0 2:0.0 3:0.0 4:0.0 5:0.0 
1.0 0.0 1:0.0 2:0.0 3:0.0 4:0.0 5:0.0 
1.0 0.0 1:0.0 2:0.0 3:0.0 4:0.0 5:0.0 
1.0 0.0 1:0.0 2:0.0 3:0.0 4:0.0 5:1.0 
1.0 0.0 1:1.0 2:0.0 3:0.0 4:0.0 5:0.0 
1.0 0.0 1:0.0 2:0.0 3:0.0 4:0.0 5:0.0 
1.0 0.0 1:0.0 2:0.0 3:0.0 4:0.0 5:0.0 
1.0 0.0 1:0.0 2:0.0 3:0.0 4:0.0 5:0.0 
1.0 0.0 1:0.0 2:0.0 3:0.0 4:0.0 5:0.0 
1.0 0.0 1:0.0 2:0.0 3:0.0 4:0.0 5:0.0 
1.0 0.0 1:0.0 2:0.0 3:0.0 4:0.0 5:1.0 
1.0 0.0 1:0.0 2:0.0 3:0.0 4:0.0 5:0.0 
1.0 0.0 1:0.0 2:0.0 3:0.0 4:0.0 5:0.0 
1.0 0.0 1:0.0 2:0.0 3:0.0 4:0.0 5:0.0 
1.0 0.0 1:0.0 2:0.0 3:0.0 4:0.0 5:0.0 
1.0 0.0 1:0.0 2:0.0 3:0.0 4:0.0 5:0.0 
1.0 0.0 1:0.0 2:0.0 3:0.0 4:0.0 5:0.0 
1.0 0.0 1:0.0 2:0.0 3:0.0 4:0.0 5:0.0 
1.0 0.0 1:0.0 2:0.0 3:0.0 4:0.0 5:0.0 
1.0 0.0 1:0.0 2:0.0 3:0.0 4:0.0 5:0.0 
1.0 0.0 1:0.0 2:0.0 3:0.0 4:0.0 5:0.0 
1.0 0.0 1:0.0 2:0.0 3:0.0 4:0.0 5:0.0 
1.0 0.0 1:0.0 2:0.0 3:0.0 4:0.0 5:0.0 
1.0 0.0 1:0.0 2:0.0 3:0.0 4:0.0 5:0.0 
1.0 0.0 1:0.0 2:0.0 3:0.0 4:0.0 5:0.0 
1.0 0.0 1:0.0 2:0.0 3:0.0 4:0.0 5:0.0 
1.0 0.0 1:0.0 2:0.0 3:0.0 4:0.0 5:0.0 
1.0 0.0 1:0.0 2:0.0 3:0.0 4:0.0 5:0.0 
1.0 0.0 1:0.0 2:0.0 3:0.0 4:0.0 5:0.0 
1.0 0.0 1:0.0 2:0.0 3:0.0 4:0.0 5:0.0 
1.0 0.0 1:0.0 2:0.0 3:0.0 4:0.0 5:0.0 
1.0 0.0 1:0.0 2:0.0 3:0.0 4:0.0 5:0.0 
1.0 0.0 1:0.0 2:0.0 3:0.0 4:0.0 5:0.0 
1.0 0.0 1:0.0 2:0.0 3:0.0 4:0.0 5:0.0 
1.0 0.0 1:0.0 2:0.0 3:0.0 4:0.0 5:0.0 
1.0 0.0 1:0.0 2:0.0 3:0.0 4:0.0 5:0.0 
1.0 0.0 1:0.0 2:0.0 3:0.0 4:0.0 5:1.0 
1.0 0.0 1:0.0 2:0.0 3:0.0 4:1.0 5:0.0 
1.0 0.0 1:0.0 2:0.0 3:0.0 4:0.0 5:0.0 
1.0 0.0 1:0.0 2:0.0 3:0.0 4:0.0 5:0.0 
1.0 0.0 1:0.0 2:0.0 3:0.0 4:0.0 5:0.0 
1.0 0.0 1:0.0 2:0.0 3:0.0 4:0.0 5:0.0 
1.0 0.0 1:0.0 2:0.0 3:0.0 4:0.0 5:0.0 
1.0 0.0 1:0.0 2:0.0 3:0.0 4:0.0 5:0.0 
1.0 0.0 1:0.0 2:0.0 3:0.0 4:0.0 5:1.0 
1.0 0.0 1:0.0 2:0.0 3:0.0 4:0.0 5:1.0 
1.0 0.0 1:0.0 2:0.0 3:0.0 4:0.0 5:0.0 
1.0 0.0 1:0.0 2:0.0 3:0.0 4:0.0 5:0.0 
1.0 0.0 1:0.0 2:0.0 3:0.0 4:0.0 5:0.0 
1.0 0.0 1:0.0 2:0.0 3:0.0 4:0.0 5:0.0 
1.0 0.0 1:0.0 2:0.0 3:0.0 4:1.0 5:0.0 
1.0 0.0 1:0.0 2:0.0 3:0.0 4:0.0 5:0.0 
1.0 0.0 1:0.0 2:0.0 3:0.0 4:0.0 5:0.0 
1.0 0.0 1:0.0 2:0.0 3:0.0 4:0.0 5:0.0 
1.0 0.0 1:0.0 2:0.0 3:0.0 4:0.0 5:0.0 
1.0 0.0 1:0.0 2:0.0 3:0.0 4:0.0 5:0.0 
1.0 0.0 1:0.0 2:0.0 3:0.0 4:0.0 5:0.0 
1.0 0.0 1:0.0 2:0.0 3:0.0 4:0.0 5:0.0 
1.0 0.0 1:0.0 2:0.0 3:0.0 4:0.0 5:0.0 
1.0 0.0 1:0.0 2:0.0 3:0.0 4:0.0 5:0.0 
1.0 0.0 1:0.0 2:0.0 3:0.0 4:0.0 5:0.0 
1.0 0.0 1:0.0 2:0.0 3:0.0 4:0.0 5:0.0 
1.0 0.0 1:0.0 2:0.0 3:0.0 4:0.0 5:0.0 
1.0 0.0 1:0.0 2:0.0 3:0.0 4:0.0 5:0.0 
1.0 0.0 1:0.0 2:0.0 3:0.0 4:0.0 5:0.0 
1.0 0.0 1:0.0 2:0.0 3:0.0 4:0.0 5:0.0 
1.0 0.0 1:0.0 2:0.0 3:0.0 4:0.0 5:0.0 
1.0 0.0 1:0.0 2:0.0 3:0.0 4:0.0 5:0.0 
1.0 0.0 1:0.0 2:0.0 3:0.0 4:0.0 5:0.0 
1.0 0.0 1:0.0 2:0.0 3:0.0 4:1.0 5:0.0 
1.0 0.0 1:0.0 2:0.0 3:0.0 4:0.0 5:0.0 
1.0 0.0 1:0.0 2:0.0 3:0.0 4:0.0 5:0.0 
1.0 0.0 1:0.0 2:0.0 3:0.0 4:0.0 5:0.0 
1.0 0.0 1:0.0 2:0.0 3:0.0 4:1.0 5:0.0 
1.0 0.0 1:0.0 2:0.0 3:0.0 4:0.0 5:0.0 
1.0 0.0 1:0.0 2:0.0 3:0.0 4:1.0 5:0.0 
1.0 0.0 1:0.0 2:0.0 3:0.0 4:0.0 5:0.0 
1.0 0.0 1:0.0 2:0.0 3:0.0 4:0.0 5:0.0 
1.0 0.0 1:0.0 2:0.0 3:0.0 4:0.0 5:0.0 
1.0 0.0 1:0.0 2:0.0 3:0.0 4:0.0 5:0.0 
1.0 0.0 1:0.0 2:0.0 3:0.0 4:0.0 5:0.0 
1.0 0.0 1:0.0 2:0.0 3:0.0 4:0.0 5:0.0 
1.0 0.0 1:0.0 2:0.0 3:0.0 4:0.0 5:0.0 
1.0 0.0 1:0.0 2:0.0 3:0.0 4:0.0 5:0.0 
1.0 0.0 1:0.0 2:0.0 3:0.0 4:0.0 5:0.0 
1.0 0.0 1:0.0 2:0.0 3:0.0 4:0.0 5:0.0 
1.0 0.0 1:0.0 2:0.0 3:0.0 4:0.0 5:0.0 
1.0 0.0 1:0.0 2:0.0 3:0.0 4:0.0 5:0.0 
1.0 0.0 1:0.0 2:0.0 3:0.0 4:0.0 5:0.0 
1.0 0.0 1:0.0 2:0.0 3:0.0 4:0.0 5:0.0 
1.0 0.0 1:0.0 2:0.0 3:0.0 4:0.0 5:0.0 
1.0 0.0 1:0.0 2:0.0 3:0.0 4:0.0 5:0.0 
1.0 0.0 1:0.0 2:0.0 3:0.0 4:0.0 5:0.0 
1.0 0.0 1:0.0 2:0.0 3:0.0 4:0.0 5:0.0 
1.0 0.0 1:0.0 2:0.0 3:0.0 4:1.0 5:0.0 
1.0 0.0 1:0.0 2:0.0 3:0.0 4:1.0 5:0.0 
1.0 0.0 1:1.0 2:0.0 3:0.0 4:0.0 5:0.0 
1.0 0.0 1:0.0 2:0.0 3:0.0 4:0.0 5:0.0 
1.0 0.0 1:0.0 2:0.0 3:0.0 4:0.0 5:0.0 
1.0 0.0 1:0.0 2:0.0 3:0.0 4:0.0 5:0.0 
1.0 0.0 1:0.0 2:0.0 3:0.0 4:1.0 5:0.0 
1.0 0.0 1:0.0 2:0.0 3:0.0 4:0.0 5:0.0 
1.0 0.0 1:0.0 2:0.0 3:0.0 4:0.0 5:0.0 
1.0 0.0 1:0.0 2:0.0 3:0.0 4:0.0 5:0.0 
1.0 0.0 1:0.0 2:0.0 3:0.0 4:0.0 5:0.0 
1.0 0.0 1:0.0 2:0.0 3:0.0 4:0.0 5:0.0 
1.0 0.0 1:0.0 2:0.0 3:0.0 4:0.0 5:0.0 
1.0 0.0 1:0.0 2:0.0 3:0.0 4:0.0 5:0.0 
1.0 0.0 1:0.0 2:0.0 3:0.0 4:0.0 5:0.0 
1.0 0.0 1:0.0 2:0.0 3:0.0 4:0.0 5:0.0 
1.0 0.0 1:0.0 2:0.0 3:0.0 4:0.0 5:0.0 
1.0 0.0 1:0.0 2:0.0 3:0.0 4:0.0 5:0.0 
1.0 0.0 1:0.0 2:0.0 3:0.0 4:0.0 5:0.0 
1.0 0.0 1:0.0 2:0.0 3:0.0 4:0.0 5:0.0 
1.0 1.0 1:0.0 2:0.0 3:0.0 4:1.0 5:1.0 
1.0 0.0 1:0.0 2:0.0 3:0.0 4:1.0 5:0.0 
1.0 0.0 1:0.0 2:0.0 3:0.0 4:0.0 5:0.0 
1.0 0.0 1:0.0 2:0.0 3:0.0 4:0.0 5:0.0 
1.0 0.0 1:0.0 2:0.0 3:0.0 4:1.0 5:0.0 
1.0 0.0 1:0.0 2:0.0 3:0.0 4:0.0 5:0.0 
1.0 0.0 1:0.0 2:0.0 3:0.0 4:0.0 5:0.0 
1.0 0.0 1:1.0 2:0.0 3:0.0 4:0.0 5:0.0 
1.0 0.0 1:0.0 2:0.0 3:0.0 4:0.0 5:0.0 
1.0 0.0 1:0.0 2:0.0 3:0.0 4:0.0 5:0.0 
1.0 0.0 1:0.0 2:0.0 3:0.0 4:0.0 5:0.0 
1.0 0.0 1:0.0 2:0.0 3:0.0 4:1.0 5:0.0 
1.0 0.0 1:0.0 2:0.0 3:0.0 4:0.0 5:0.0 
1.0 0.0 1:0.0 2:0.0 3:0.0 4:0.0 5:0.0 
1.0 0.0 1:0.0 2:0.0 3:0.0 4:0.0 5:0.0 
1.0 0.0 1:1.0 2:0.0 3:0.0 4:0.0 5:0.0 
1.0 0.0 1:0.0 2:0.0 3:0.0 4:0.0 5:0.0 
1.0 0.0 1:0.0 2:0.0 3:0.0 4:0.0 5:0.0 
1.0 0.0 1:0.0 2:0.0 3:0.0 4:0.0 5:0.0 
1.0 0.0 1:0.0 2:0.0 3:0.0 4:0.0 5:1.0 
1.0 0.0 1:0.0 2:0.0 3:0.0 4:0.0 5:0.0 
1.0 0.0 1:0.0 2:0.0 3:0.0 4:0.0 5:0.0 
1.0 0.0 1:0.0 2:0.0 3:0.0 4:0.0 5:0.0 
1.0 0.0 1:0.0 2:0.0 3:0.0 4:0.0 5:0.0 
1.0 0.0 1:0.0 2:0.0 3:0.0 4:0.0 5:0.0 
1.0 0.0 1:0.0 2:0.0 3:0.0 4:0.0 5:0.0 
1.0 0.0 1:0.0 2:0.0 3:0.0 4:0.0 5:0.0 
1.0 0.0 1:0.0 2:0.0 3:0.0 4:0.0 5:0.0 
1.0 0.0 1:0.0 2:0.0 3:0.0 4:0.0 5:0.0 
1.0 0.0 1:0.0 2:0.0 3:0.0 4:0.0 5:0.0 
1.0 0.0 1:0.0 2:0.0 3:0.0 4:0.0 5:0.0 
1.0 0.0 1:0.0 2:0.0 3:0.0 4:1.0 5:0.0 
1.0 0.0 1:0.0 2:0.0 3:0.0 4:0.0 5:0.0 
1.0 0.0 1:0.0 2:0.0 3:0.0 4:0.0 5:0.0 
1.0 0.0 1:0.0 2:0.0 3:0.0 4:0.0 5:0.0 
1.0 0.0 1:0.0 2:0.0 3:0.0 4:0.0 5:0.0 
1.0 0.0 1:0.0 2:0.0 3:0.0 4:0.0 5:0.0 
1.0 0.0 1:0.0 2:0.0 3:0.0 4:0.0 5:0.0 
1.0 0.0 1:0.0 2:0.0 3:0.0 4:1.0 5:0.0 
1.0 0.0 1:0.0 2:0.0 3:0.0 4:0.0 5:0.0 
1.0 0.0 1:0.0 2:0.0 3:0.0 4:0.0 5:0.0 
1.0 0.0 1:0.0 2:0.0 3:0.0 4:0.0 5:0.0 
1.0 0.0 1:0.0 2:0.0 3:0.0 4:0.0 5:0.0 
1.0 0.0 1:0.0 2:0.0 3:0.0 4:0.0 5:0.0 
1.0 0.0 1:0.0 2:0.0 3:0.0 4:0.0 5:0.0 
1.0 0.0 1:0.0 2:0.0 3:0.0 4:0.0 5:0.0 
1.0 0.0 1:0.0 2:0.0 3:0.0 4:0.0 5:0.0 
1.0 0.0 1:0.0 2:0.0 3:0.0 4:0.0 5:0.0 
1.0 0.0 1:0.0 2:0.0 3:0.0 4:0.0 5:0.0 
1.0 0.0 1:0.0 2:0.0 3:0.0 4:0.0 5:0.0 
1.0 0.0 1:0.0 2:0.0 3:0.0 4:0.0 5:0.0 
1.0 1.0 1:1.0 2:0.0 3:0.0 4:1.0 5:0.0 
1.0 0.0 1:0.0 2:0.0 3:0.0 4:0.0 5:0.0 
1.0 0.0 1:0.0 2:0.0 3:0.0 4:0.0 5:0.0 
1.0 0.0 1:0.0 2:0.0 3:0.0 4:0.0 5:0.0 
1.0 0.0 1:1.0 2:0.0 3:0.0 4:0.0 5:0.0 
1.0 0.0 1:0.0 2:0.0 3:0.0 4:0.0 5:0.0 
1.0 0.0 1:0.0 2:0.0 3:0.0 4:0.0 5:0.0 
1.0 0.0 1:0.0 2:0.0 3:0.0 4:1.0 5:0.0 
1.0 0.0 1:0.0 2:0.0 3:0.0 4:0.0 5:0.0 
1.0 0.0 1:0.0 2:0.0 3:0.0 4:0.0 5:0.0 
1.0 0.0 1:0.0 2:0.0 3:0.0 4:0.0 5:0.0 
1.0 0.0 1:0.0 2:0.0 3:0.0 4:0.0 5:0.0 
1.0 0.0 1:0.0 2:0.0 3:0.0 4:0.0 5:0.0 
1.0 0.0 1:0.0 2:0.0 3:0.0 4:0.0 5:0.0 
1.0 0.0 1:0.0 2:0.0 3:0.0 4:0.0 5:0.0 
1.0 0.0 1:0.0 2:0.0 3:0.0 4:0.0 5:0.0 
1.0 0.0 1:0.0 2:0.0 3:0.0 4:0.0 5:0.0 
1.0 0.0 1:0.0 2:0.0 3:0.0 4:1.0 5:0.0 
1.0 0.0 1:0.0 2:0.0 3:0.0 4:0.0 5:0.0 
1.0 0.0 1:0.0 2:0.0 3:0.0 4:0.0 5:0.0 
1.0 0.0 1:0.0 2:0.0 3:0.0 4:0.0 5:0.0 
1.0 0.0 1:0.0 2:0.0 3:0.0 4:0.0 5:0.0 
1.0 0.0 1:1.0 2:0.0 3:0.0 4:0.0 5:0.0 
1.0 0.0 1:0.0 2:0.0 3:0.0 4:0.0 5:0.0 
1.0 0.0 1:0.0 2:0.0 3:0.0 4:0.0 5:0.0 
1.0 0.0 1:0.0 2:0.0 3:0.0 4:1.0 5:0.0 
1.0 0.0 1:1.0 2:0.0 3:0.0 4:0.0 5:0.0 
1.0 0.0 1:0.0 2:0.0 3:0.0 4:0.0 5:0.0 
1.0 0.0 1:0.0 2:0.0 3:0.0 4:0.0 5:0.0 
1.0 0.0 1:0.0 2:0.0 3:0.0 4:0.0 5:1.0 
1.0 0.0 1:0.0 2:0.0 3:0.0 4:0.0 5:0.0 
1.0 0.0 1:0.0 2:0.0 3:0.0 4:0.0 5:0.0 
1.0 0.0 1:0.0 2:0.0 3:0.0 4:0.0 5:0.0 
1.0 0.0 1:0.0 2:0.0 3:0.0 4:0.0 5:0.0 
1.0 0.0 1:0.0 2:0.0 3:0.0 4:0.0 5:0.0 
1.0 0.0 1:0.0 2:0.0 3:0.0 4:0.0 5:0.0 
1.0 0.0 1:0.0 2:0.0 3:0.0 4:0.0 5:0.0 
1.0 0.0 1:0.0 2:0.0 3:0.0 4:0.0 5:0.0 
1.0 0.0 1:0.0 2:0.0 3:0.0 4:0.0 5:0.0 
1.0 0.0 1:0.0 2:0.0 3:0.0 4:0.0 5:0.0 
1.0 0.0 1:0.0 2:0.0 3:0.0 4:0.0 5:0.0 
1.0 0.0 1:0.0 2:0.0 3:0.0 4:0.0 5:0.0 
1.0 0.0 1:0.0 2:0.0 3:0.0 4:0.0 5:0.0 
1.0 0.0 1:0.0 2:0.0 3:0.0 4:0.0 5:0.0 
1.0 0.0 1:1.0 2:0.0 3:0.0 4:0.0 5:0.0 
1.0 0.0 1:0.0 2:0.0 3:0.0 4:0.0 5:0.0 
1.0 0.0 1:0.0 2:0.0 3:0.0 4:0.0 5:0.0 
1.0 0.0 1:0.0 2:0.0 3:0.0 4:0.0 5:0.0 
1.0 0.0 1:0.0 2:0.0 3:0.0 4:1.0 5:0.0 
1.0 0.0 1:0.0 2:0.0 3:0.0 4:0.0 5:0.0 
1.0 0.0 1:0.0 2:0.0 3:0.0 4:0.0 5:0.0 
1.0 0.0 1:0.0 2:0.0 3:0.0 4:0.0 5:0.0 
1.0 0.0 1:0.0 2:0.0 3:0.0 4:0.0 5:0.0 
1.0 0.0 1:0.0 2:0.0 3:0.0 4:0.0 5:0.0 
1.0 0.0 1:0.0 2:0.0 3:0.0 4:0.0 5:0.0 
1.0 0.0 1:0.0 2:0.0 3:0.0 4:0.0 5:0.0 
1.0 0.0 1:0.0 2:0.0 3:0.0 4:1.0 5:0.0 
1.0 0.0 1:0.0 2:0.0 3:0.0 4:0.0 5:0.0 
1.0 0.0 1:0.0 2:0.0 3:0.0 4:0.0 5:0.0 
1.0 0.0 1:0.0 2:0.0 3:0.0 4:0.0 5:0.0 
1.0 0.0 1:0.0 2:0.0 3:0.0 4:0.0 5:0.0 
1.0 0.0 1:0.0 2:0.0 3:0.0 4:0.0 5:0.0 
1.0 0.0 1:0.0 2:0.0 3:0.0 4:1.0 5:0.0 
1.0 0.0 1:0.0 2:0.0 3:0.0 4:1.0 5:0.0 
1.0 0.0 1:0.0 2:0.0 3:0.0 4:0.0 5:0.0 
1.0 0.0 1:0.0 2:0.0 3:0.0 4:0.0 5:0.0 
1.0 0.0 1:0.0 2:0.0 3:0.0 4:0.0 5:0.0 
1.0 0.0 1:0.0 2:0.0 3:0.0 4:0.0 5:0.0 
1.0 0.0 1:0.0 2:0.0 3:0.0 4:0.0 5:0.0 
1.0 0.0 1:0.0 2:0.0 3:0.0 4:0.0 5:0.0 
1.0 0.0 1:0.0 2:0.0 3:0.0 4:0.0 5:0.0 
1.0 0.0 1:0.0 2:0.0 3:0.0 4:0.0 5:0.0 
1.0 1.0 1:1.0 2:0.0 3:0.0 4:1.0 5:0.0 
1.0 0.0 1:0.0 2:0.0 3:0.0 4:0.0 5:0.0 
1.0 0.0 1:0.0 2:0.0 3:0.0 4:0.0 5:0.0 
1.0 0.0 1:0.0 2:0.0 3:0.0 4:0.0 5:0.0 
1.0 0.0 1:0.0 2:0.0 3:0.0 4:0.0 5:0.0 
1.0 0.0 1:0.0 2:0.0 3:0.0 4:0.0 5:0.0 
1.0 0.0 1:0.0 2:0.0 3:0.0 4:0.0 5:0.0 
1.0 0.0 1:0.0 2:0.0 3:0.0 4:0.0 5:0.0 
1.0 0.0 1:0.0 2:0.0 3:0.0 4:0.0 5:0.0 
1.0 0.0 1:0.0 2:0.0 3:0.0 4:0.0 5:0.0 
1.0 0.0 1:0.0 2:0.0 3:0.0 4:0.0 5:0.0 
1.0 0.0 1:0.0 2:0.0 3:0.0 4:0.0 5:0.0 
1.0 0.0 1:1.0 2:0.0 3:0.0 4:0.0 5:0.0 
1.0 0.0 1:0.0 2:0.0 3:0.0 4:0.0 5:0.0 
1.0 0.0 1:0.0 2:0.0 3:0.0 4:0.0 5:0.0 
1.0 0.0 1:0.0 2:0.0 3:0.0 4:0.0 5:0.0 
1.0 0.0 1:0.0 2:0.0 3:0.0 4:0.0 5:0.0 
1.0 0.0 1:1.0 2:0.0 3:0.0 4:0.0 5:0.0 
1.0 0.0 1:0.0 2:0.0 3:0.0 4:0.0 5:0.0 
1.0 0.0 1:0.0 2:0.0 3:0.0 4:0.0 5:0.0 
1.0 0.0 1:0.0 2:0.0 3:0.0 4:0.0 5:0.0 
1.0 0.0 1:0.0 2:0.0 3:0.0 4:0.0 5:0.0 
1.0 0.0 1:0.0 2:0.0 3:0.0 4:0.0 5:0.0 
1.0 0.0 1:0.0 2:0.0 3:0.0 4:0.0 5:0.0 
1.0 0.0 1:0.0 2:0.0 3:0.0 4:0.0 5:0.0 
1.0 0.0 1:0.0 2:0.0 3:0.0 4:0.0 5:0.0 
1.0 0.0 1:0.0 2:0.0 3:0.0 4:0.0 5:0.0 
1.0 0.0 1:0.0 2:0.0 3:0.0 4:0.0 5:0.0 
1.0 0.0 1:0.0 2:0.0 3:0.0 4:0.0 5:0.0 
1.0 0.0 1:0.0 2:0.0 3:0.0 4:0.0 5:0.0 
1.0 0.0 1:1.0 2:0.0 3:0.0 4:0.0 5:0.0 
1.0 0.0 1:0.0 2:0.0 3:0.0 4:0.0 5:0.0 
1.0 0.0 1:0.0 2:0.0 3:0.0 4:1.0 5:0.0 
1.0 0.0 1:1.0 2:0.0 3:0.0 4:0.0 5:0.0 
1.0 0.0 1:0.0 2:0.0 3:0.0 4:0.0 5:0.0 
1.0 0.0 1:0.0 2:0.0 3:0.0 4:0.0 5:0.0 
1.0 0.0 1:0.0 2:0.0 3:0.0 4:0.0 5:0.0 
1.0 0.0 1:0.0 2:0.0 3:0.0 4:0.0 5:0.0 
1.0 0.0 1:0.0 2:0.0 3:0.0 4:0.0 5:0.0 
1.0 0.0 1:0.0 2:0.0 3:0.0 4:0.0 5:0.0 
1.0 0.0 1:0.0 2:0.0 3:0.0 4:0.0 5:0.0 
1.0 0.0 1:0.0 2:0.0 3:0.0 4:0.0 5:0.0 
1.0 0.0 1:0.0 2:0.0 3:0.0 4:0.0 5:0.0 
1.0 0.0 1:0.0 2:0.0 3:0.0 4:0.0 5:0.0 
1.0 0.0 1:0.0 2:0.0 3:0.0 4:0.0 5:0.0 
1.0 0.0 1:0.0 2:0.0 3:0.0 4:0.0 5:0.0 
1.0 0.0 1:0.0 2:0.0 3:0.0 4:0.0 5:0.0 
1.0 0.0 1:0.0 2:0.0 3:0.0 4:0.0 5:0.0 
1.0 0.0 1:1.0 2:0.0 3:0.0 4:0.0 5:0.0 
1.0 0.0 1:0.0 2:0.0 3:0.0 4:0.0 5:0.0 
1.0 0.0 1:0.0 2:0.0 3:0.0 4:0.0 5:0.0 
1.0 0.0 1:0.0 2:0.0 3:0.0 4:0.0 5:0.0 
1.0 0.0 1:0.0 2:0.0 3:0.0 4:0.0 5:0.0 
1.0 0.0 1:0.0 2:0.0 3:0.0 4:0.0 5:0.0 
1.0 0.0 1:0.0 2:0.0 3:0.0 4:0.0 5:0.0 
1.0 0.0 1:0.0 2:0.0 3:0.0 4:0.0 5:0.0 
1.0 0.0 1:0.0 2:0.0 3:0.0 4:0.0 5:0.0 
1.0 0.0 1:0.0 2:0.0 3:0.0 4:0.0 5:0.0 
1.0 0.0 1:0.0 2:0.0 3:0.0 4:0.0 5:0.0 
1.0 0.0 1:0.0 2:0.0 3:0.0 4:0.0 5:0.0 
1.0 0.0 1:0.0 2:0.0 3:0.0 4:0.0 5:0.0 
1.0 0.0 1:0.0 2:0.0 3:0.0 4:0.0 5:0.0 
1.0 0.0 1:0.0 2:0.0 3:0.0 4:0.0 5:0.0 
1.0 0.0 1:1.0 2:0.0 3:0.0 4:0.0 5:0.0 
1.0 0.0 1:0.0 2:0.0 3:0.0 4:0.0 5:0.0 
1.0 0.0 1:0.0 2:0.0 3:0.0 4:0.0 5:0.0 
1.0 0.0 1:0.0 2:0.0 3:0.0 4:0.0 5:0.0 
1.0 0.0 1:0.0 2:0.0 3:0.0 4:1.0 5:0.0 
1.0 0.0 1:0.0 2:0.0 3:0.0 4:0.0 5:0.0 
1.0 0.0 1:0.0 2:0.0 3:0.0 4:0.0 5:0.0 
1.0 0.0 1:0.0 2:0.0 3:0.0 4:0.0 5:0.0 
1.0 0.0 1:0.0 2:0.0 3:0.0 4:0.0 5:0.0 
1.0 0.0 1:0.0 2:0.0 3:0.0 4:0.0 5:0.0 
1.0 0.0 1:0.0 2:0.0 3:0.0 4:1.0 5:0.0 
1.0 0.0 1:0.0 2:0.0 3:0.0 4:0.0 5:0.0 
1.0 0.0 1:0.0 2:0.0 3:0.0 4:0.0 5:0.0 
1.0 0.0 1:0.0 2:0.0 3:0.0 4:0.0 5:0.0 
1.0 0.0 1:0.0 2:0.0 3:0.0 4:1.0 5:0.0 
1.0 0.0 1:0.0 2:0.0 3:0.0 4:0.0 5:0.0 
1.0 0.0 1:0.0 2:0.0 3:0.0 4:0.0 5:0.0 
1.0 0.0 1:0.0 2:0.0 3:0.0 4:0.0 5:0.0 
1.0 0.0 1:0.0 2:0.0 3:0.0 4:1.0 5:0.0 
1.0 0.0 1:0.0 2:0.0 3:0.0 4:0.0 5:0.0 
1.0 0.0 1:0.0 2:0.0 3:0.0 4:1.0 5:0.0 
1.0 0.0 1:0.0 2:0.0 3:0.0 4:0.0 5:0.0 
1.0 0.0 1:1.0 2:0.0 3:0.0 4:0.0 5:0.0 
1.0 0.0 1:0.0 2:0.0 3:0.0 4:1.0 5:0.0 
1.0 0.0 1:0.0 2:0.0 3:0.0 4:0.0 5:0.0 
1.0 0.0 1:0.0 2:0.0 3:0.0 4:0.0 5:0.0 
1.0 0.0 1:0.0 2:0.0 3:0.0 4:1.0 5:0.0 
1.0 0.0 1:0.0 2:0.0 3:0.0 4:0.0 5:0.0 
1.0 0.0 1:0.0 2:0.0 3:0.0 4:0.0 5:0.0 
1.0 0.0 1:0.0 2:0.0 3:0.0 4:0.0 5:0.0 
1.0 0.0 1:0.0 2:0.0 3:0.0 4:0.0 5:0.0 
1.0 0.0 1:0.0 2:0.0 3:0.0 4:0.0 5:0.0 
1.0 0.0 1:0.0 2:0.0 3:0.0 4:0.0 5:0.0 
1.0 0.0 1:0.0 2:0.0 3:0.0 4:0.0 5:0.0 
1.0 0.0 1:0.0 2:0.0 3:0.0 4:0.0 5:0.0 
1.0 0.0 1:0.0 2:0.0 3:0.0 4:0.0 5:0.0 
1.0 0.0 1:0.0 2:0.0 3:0.0 4:0.0 5:0.0 
1.0 0.0 1:0.0 2:0.0 3:0.0 4:0.0 5:0.0 
1.0 0.0 1:0.0 2:0.0 3:0.0 4:0.0 5:0.0 
1.0 0.0 1:0.0 2:0.0 3:0.0 4:0.0 5:0.0 
1.0 0.0 1:0.0 2:0.0 3:0.0 4:0.0 5:0.0 
1.0 0.0 1:0.0 2:0.0 3:0.0 4:0.0 5:0.0 
1.0 0.0 1:0.0 2:0.0 3:0.0 4:0.0 5:0.0 
1.0 0.0 1:0.0 2:0.0 3:0.0 4:0.0 5:0.0 
1.0 0.0 1:1.0 2:0.0 3:0.0 4:0.0 5:0.0 
1.0 0.0 1:0.0 2:0.0 3:0.0 4:0.0 5:0.0 
1.0 0.0 1:0.0 2:0.0 3:0.0 4:0.0 5:0.0 
1.0 1.0 1:0.0 2:0.0 3:0.0 4:1.0 5:1.0 
1.0 0.0 1:0.0 2:0.0 3:0.0 4:0.0 5:0.0 
1.0 1.0 1:0.0 2:0.0 3:0.0 4:1.0 5:1.0 
1.0 0.0 1:0.0 2:0.0 3:0.0 4:0.0 5:0.0 
1.0 0.0 1:0.0 2:0.0 3:0.0 4:0.0 5:0.0 
1.0 0.0 1:0.0 2:0.0 3:0.0 4:0.0 5:0.0 
1.0 0.0 1:0.0 2:0.0 3:0.0 4:0.0 5:0.0 
1.0 0.0 1:0.0 2:0.0 3:0.0 4:0.0 5:0.0 
1.0 0.0 1:0.0 2:0.0 3:0.0 4:0.0 5:0.0 
1.0 0.0 1:0.0 2:0.0 3:0.0 4:0.0 5:0.0 
1.0 0.0 1:0.0 2:0.0 3:0.0 4:0.0 5:0.0 
1.0 0.0 1:0.0 2:0.0 3:0.0 4:0.0 5:0.0 
1.0 0.0 1:0.0 2:0.0 3:0.0 4:0.0 5:0.0 
1.0 0.0 1:0.0 2:0.0 3:0.0 4:0.0 5:0.0 
1.0 0.0 1:0.0 2:0.0 3:0.0 4:0.0 5:0.0 
1.0 0.0 1:0.0 2:0.0 3:0.0 4:0.0 5:0.0 
1.0 0.0 1:0.0 2:0.0 3:0.0 4:0.0 5:0.0 
1.0 0.0 1:0.0 2:0.0 3:0.0 4:0.0 5:0.0 
1.0 0.0 1:0.0 2:0.0 3:0.0 4:0.0 5:0.0 
1.0 0.0 1:0.0 2:0.0 3:0.0 4:0.0 5:0.0 
1.0 0.0 1:0.0 2:0.0 3:0.0 4:0.0 5:0.0 
1.0 0.0 1:0.0 2:0.0 3:0.0 4:0.0 5:0.0 
1.0 0.0 1:0.0 2:0.0 3:0.0 4:0.0 5:0.0 
1.0 0.0 1:0.0 2:0.0 3:0.0 4:0.0 5:0.0 
1.0 0.0 1:0.0 2:0.0 3:0.0 4:1.0 5:0.0 
1.0 1.0 1:1.0 2:0.0 3:0.0 4:1.0 5:0.0 
1.0 0.0 1:0.0 2:0.0 3:0.0 4:0.0 5:0.0 
1.0 0.0 1:0.0 2:0.0 3:0.0 4:1.0 5:0.0 
1.0 0.0 1:0.0 2:0.0 3:0.0 4:0.0 5:0.0 
1.0 0.0 1:0.0 2:0.0 3:0.0 4:1.0 5:0.0 
1.0 0.0 1:0.0 2:0.0 3:0.0 4:1.0 5:0.0 
1.0 0.0 1:0.0 2:0.0 3:0.0 4:0.0 5:0.0 
1.0 0.0 1:0.0 2:0.0 3:0.0 4:0.0 5:0.0 
1.0 0.0 1:0.0 2:0.0 3:0.0 4:1.0 5:0.0 
1.0 0.0 1:0.0 2:0.0 3:0.0 4:0.0 5:0.0 
1.0 0.0 1:0.0 2:0.0 3:0.0 4:0.0 5:0.0 
