svm_type c_svc
kernel_type linear
nr_class 2
total_sv 9
rho 28.37259927625852
label 0 1
nr_sv 5 4
SV
0.5221022858208344 1:395.0 2:306.0 3:229.0 4:240.0 
0.07663732589304288 1:340.0 2:230.0 3:131.0 4:49.0 
1.0 1:320.0 2:204.0 3:95.0 4:19.0 
1.0 1:381.0 2:290.0 3:211.0 4:196.0 
0.3238532852784471 1:364.0 2:271.0 3:193.0 4:109.0 
-1.0 1:375.0 2:282.0 3:199.0 4:198.0 
-0.6424727676195192 1:318.0 2:204.0 3:96.0 4:32.0 
-1.0 1:357.0 2:256.0 3:167.0 4:86.0 
-0.28012012937280695 1:408.0 2:325.0 3:250.0 4:267.0 
