svm_type c_svc
kernel_type linear
nr_class 2
total_sv 1135
rho -1.1459018806198806
label 0 1
nr_sv 567 568
SV
1.0 1:370.0 2:241.0 3:170.0 4:193.0 
1.0 1:364.0 2:236.0 3:164.0 4:186.0 
1.0 1:366.0 2:237.0 3:165.0 4:190.0 
1.0 1:376.0 2:246.0 3:175.0 4:198.0 
1.0 1:370.0 2:239.0 3:166.0 4:187.0 
1.0 1:399.0 2:269.0 3:198.0 4:220.0 
1.0 1:391.0 2:262.0 3:191.0 4:214.0 
1.0 1:381.0 2:253.0 3:182.0 4:210.0 
1.0 1:389.0 2:260.0 3:189.0 4:216.0 
1.0 1:395.0 2:265.0 3:194.0 4:216.0 
1.0 1:398.0 2:268.0 3:197.0 4:220.0 
1.0 1:386.0 2:257.0 3:186.0 4:216.0 
1.0 1:380.0 2:252.0 3:179.0 4:211.0 
1.0 1:391.0 2:262.0 3:191.0 4:214.0 
1.0 1:394.0 2:266.0 3:195.0 4:218.0 
1.0 1:384.0 2:257.0 3:185.0 4:216.0 
1.0 1:391.0 2:263.0 3:191.0 4:221.0 
1.0 1:401.0 2:272.0 3:201.0 4:224.0 
1.0 1:370.0 2:242.0 3:186.0 4:249.0 
1.0 1:371.0 2:243.0 3:188.0 4:251.0 
1.0 1:370.0 2:242.0 3:186.0 4:248.0 
1.0 1:368.0 2:241.0 3:183.0 4:246.0 
1.0 1:369.0 2:242.0 3:185.0 4:245.0 
1.0 1:372.0 2:245.0 3:187.0 4:246.0 
1.0 1:376.0 2:250.0 3:193.0 4:247.0 
0.19686171668768612 1:374.0 2:245.0 3:190.0 4:253.0 
1.0 1:370.0 2:243.0 3:187.0 4:250.0 
1.0 1:372.0 2:244.0 3:188.0 4:250.0 
1.0 1:373.0 2:244.0 3:188.0 4:249.0 
1.0 1:374.0 2:247.0 3:190.0 4:247.0 
1.0 1:378.0 2:251.0 3:196.0 4:257.0 
1.0 1:373.0 2:246.0 3:191.0 4:252.0 
1.0 1:373.0 2:245.0 3:189.0 4:251.0 
1.0 1:373.0 2:246.0 3:190.0 4:249.0 
1.0 1:374.0 2:247.0 3:190.0 4:247.0 
1.0 1:373.0 2:246.0 3:191.0 4:252.0 
1.0 1:378.0 2:251.0 3:196.0 4:258.0 
1.0 1:383.0 2:258.0 3:203.0 4:262.0 
1.0 1:376.0 2:250.0 3:193.0 4:248.0 
1.0 1:372.0 2:246.0 3:188.0 4:248.0 
1.0 1:373.0 2:246.0 3:190.0 4:250.0 
1.0 1:382.0 2:258.0 3:203.0 4:264.0 
1.0 1:382.0 2:257.0 3:201.0 4:258.0 
1.0 1:376.0 2:250.0 3:194.0 4:251.0 
1.0 1:376.0 2:250.0 3:193.0 4:252.0 
1.0 1:376.0 2:250.0 3:194.0 4:254.0 
1.0 1:376.0 2:249.0 3:193.0 4:255.0 
1.0 1:378.0 2:251.0 3:196.0 4:258.0 
1.0 1:381.0 2:254.0 3:199.0 4:260.0 
1.0 1:381.0 2:257.0 3:201.0 4:259.0 
1.0 1:382.0 2:257.0 3:201.0 4:262.0 
1.0 1:385.0 2:260.0 3:205.0 4:267.0 
1.0 1:379.0 2:253.0 3:197.0 4:256.0 
1.0 1:377.0 2:250.0 3:195.0 4:256.0 
1.0 1:380.0 2:253.0 3:198.0 4:259.0 
1.0 1:386.0 2:262.0 3:205.0 4:257.0 
1.0 1:383.0 2:258.0 3:202.0 4:256.0 
1.0 1:384.0 2:259.0 3:202.0 4:257.0 
1.0 1:383.0 2:257.0 3:201.0 4:258.0 
1.0 1:384.0 2:258.0 3:201.0 4:259.0 
1.0 1:380.0 2:254.0 3:198.0 4:257.0 
1.0 1:378.0 2:252.0 3:196.0 4:257.0 
1.0 1:377.0 2:250.0 3:195.0 4:256.0 
1.0 1:374.0 2:247.0 3:192.0 4:254.0 
1.0 1:372.0 2:244.0 3:189.0 4:252.0 
1.0 1:388.0 2:264.0 3:208.0 4:262.0 
1.0 1:394.0 2:268.0 3:214.0 4:274.0 
1.0 1:387.0 2:261.0 3:205.0 4:261.0 
1.0 1:391.0 2:267.0 3:211.0 4:265.0 
1.0 1:385.0 2:261.0 3:203.0 4:257.0 
1.0 1:384.0 2:258.0 3:203.0 4:261.0 
1.0 1:386.0 2:260.0 3:204.0 4:260.0 
1.0 1:388.0 2:262.0 3:206.0 4:262.0 
1.0 1:391.0 2:265.0 3:210.0 4:268.0 
1.0 1:385.0 2:260.0 3:202.0 4:259.0 
1.0 1:387.0 2:263.0 3:206.0 4:258.0 
1.0 1:384.0 2:259.0 3:202.0 4:257.0 
1.0 1:385.0 2:259.0 3:203.0 4:259.0 
1.0 1:385.0 2:259.0 3:203.0 4:259.0 
1.0 1:389.0 2:266.0 3:209.0 4:262.0 
1.0 1:392.0 2:268.0 3:211.0 4:263.0 
1.0 1:386.0 2:263.0 3:206.0 4:259.0 
1.0 1:387.0 2:264.0 3:208.0 4:259.0 
1.0 1:384.0 2:260.0 3:203.0 4:259.0 
1.0 1:616.0 2:338.0 3:199.0 4:281.0 
1.0 1:623.0 2:340.0 3:199.0 4:287.0 
1.0 1:575.0 2:311.0 3:175.0 4:261.0 
1.0 1:573.0 2:302.0 3:163.0 4:260.0 
1.0 1:604.0 2:326.0 3:187.0 4:281.0 
0.8058310946923648 1:638.0 2:354.0 3:216.0 4:306.0 
1.0 1:648.0 2:357.0 3:215.0 4:309.0 
1.0 1:633.0 2:342.0 3:198.0 4:297.0 
1.0 1:637.0 2:346.0 3:203.0 4:300.0 
1.0 1:644.0 2:354.0 3:212.0 4:303.0 
1.0 1:648.0 2:359.0 3:217.0 4:306.0 
1.0 1:292.0 2:163.0 3:100.0 4:179.0 
1.0 1:313.0 2:184.0 3:124.0 4:192.0 
0.9170549273787767 1:325.0 2:194.0 3:137.0 4:198.0 
1.0 1:382.0 2:247.0 3:173.0 4:204.0 
1.0 1:366.0 2:231.0 3:155.0 4:194.0 
1.0 1:434.0 2:306.0 3:238.0 4:293.0 
1.0 1:462.0 2:335.0 3:269.0 4:316.0 
1.0 1:462.0 2:334.0 3:269.0 4:321.0 
1.0 1:404.0 2:275.0 3:201.0 4:275.0 
1.0 1:390.0 2:260.0 3:183.0 4:269.0 
1.0 1:405.0 2:277.0 3:204.0 4:272.0 
1.0 1:408.0 2:277.0 3:203.0 4:282.0 
1.0 1:396.0 2:269.0 3:196.0 4:265.0 
1.0 1:424.0 2:296.0 3:227.0 4:284.0 
1.0 1:458.0 2:330.0 3:266.0 4:311.0 
1.0 1:454.0 2:326.0 3:262.0 4:312.0 
1.0 1:400.0 2:271.0 3:196.0 4:271.0 
1.0 1:414.0 2:285.0 3:216.0 4:276.0 
1.0 1:446.0 2:319.0 3:257.0 4:305.0 
1.0 1:461.0 2:333.0 3:272.0 4:312.0 
1.0 1:401.0 2:273.0 3:199.0 4:272.0 
1.0 1:405.0 2:275.0 3:201.0 4:281.0 
1.0 1:434.0 2:306.0 3:239.0 4:290.0 
1.0 1:405.0 2:276.0 3:204.0 4:273.0 
1.0 1:429.0 2:299.0 3:232.0 4:286.0 
1.0 1:443.0 2:314.0 3:251.0 4:295.0 
1.0 1:458.0 2:329.0 3:269.0 4:307.0 
1.0 1:430.0 2:303.0 3:239.0 4:290.0 
1.0 1:392.0 2:261.0 3:186.0 4:270.0 
1.0 1:415.0 2:284.0 3:214.0 4:280.0 
1.0 1:435.0 2:304.0 3:239.0 4:289.0 
1.0 1:395.0 2:264.0 3:189.0 4:271.0 
1.0 1:449.0 2:320.0 3:259.0 4:298.0 
1.0 1:416.0 2:288.0 3:226.0 4:277.0 
1.0 1:445.0 2:317.0 3:254.0 4:295.0 
1.0 1:442.0 2:311.0 3:245.0 4:292.0 
1.0 1:443.0 2:314.0 3:250.0 4:291.0 
1.0 1:444.0 2:315.0 3:254.0 4:293.0 
1.0 1:405.0 2:273.0 3:199.0 4:277.0 
1.0 1:428.0 2:296.0 3:227.0 4:288.0 
1.0 1:411.0 2:283.0 3:220.0 4:272.0 
1.0 1:409.0 2:280.0 3:216.0 4:268.0 
1.0 1:445.0 2:315.0 3:250.0 4:293.0 
1.0 1:428.0 2:296.0 3:227.0 4:287.0 
1.0 1:394.0 2:263.0 3:188.0 4:269.0 
1.0 1:439.0 2:310.0 3:246.0 4:287.0 
1.0 1:411.0 2:282.0 3:217.0 4:268.0 
1.0 1:437.0 2:307.0 3:240.0 4:286.0 
1.0 1:418.0 2:288.0 3:218.0 4:278.0 
1.0 1:377.0 2:247.0 3:170.0 4:256.0 
1.0 1:446.0 2:316.0 3:254.0 4:291.0 
1.0 1:436.0 2:306.0 3:241.0 4:283.0 
1.0 1:416.0 2:286.0 3:221.0 4:271.0 
1.0 1:383.0 2:252.0 3:177.0 4:258.0 
1.0 1:432.0 2:302.0 3:236.0 4:279.0 
1.0 1:425.0 2:293.0 3:224.0 4:281.0 
1.0 1:432.0 2:301.0 3:234.0 4:280.0 
1.0 1:443.0 2:313.0 3:249.0 4:288.0 
1.0 1:427.0 2:298.0 3:230.0 4:274.0 
1.0 1:428.0 2:298.0 3:229.0 4:275.0 
1.0 1:399.0 2:268.0 3:194.0 4:268.0 
1.0 1:447.0 2:315.0 3:251.0 4:289.0 
1.0 1:430.0 2:299.0 3:234.0 4:279.0 
1.0 1:438.0 2:307.0 3:238.0 4:288.0 
1.0 1:426.0 2:296.0 3:227.0 4:273.0 
1.0 1:439.0 2:307.0 3:239.0 4:286.0 
1.0 1:399.0 2:269.0 3:195.0 4:266.0 
1.0 1:441.0 2:310.0 3:244.0 4:287.0 
1.0 1:455.0 2:323.0 3:259.0 4:293.0 
1.0 1:425.0 2:296.0 3:227.0 4:270.0 
1.0 1:429.0 2:298.0 3:231.0 4:279.0 
1.0 1:403.0 2:272.0 3:200.0 4:267.0 
1.0 1:433.0 2:302.0 3:234.0 4:281.0 
1.0 1:425.0 2:296.0 3:227.0 4:270.0 
1.0 1:427.0 2:298.0 3:229.0 4:272.0 
1.0 1:454.0 2:322.0 3:257.0 4:293.0 
1.0 1:401.0 2:271.0 3:200.0 4:259.0 
1.0 1:423.0 2:291.0 3:221.0 4:279.0 
1.0 1:434.0 2:303.0 3:234.0 4:280.0 
1.0 1:425.0 2:294.0 3:226.0 4:269.0 
1.0 1:434.0 2:303.0 3:237.0 4:276.0 
1.0 1:446.0 2:315.0 3:248.0 4:286.0 
1.0 1:431.0 2:300.0 3:233.0 4:277.0 
1.0 1:368.0 2:238.0 3:164.0 4:236.0 
1.0 1:425.0 2:293.0 3:222.0 4:279.0 
1.0 1:429.0 2:298.0 3:230.0 4:277.0 
1.0 1:421.0 2:291.0 3:223.0 4:267.0 
1.0 1:437.0 2:306.0 3:238.0 4:277.0 
1.0 1:357.0 2:228.0 3:153.0 4:231.0 
1.0 1:416.0 2:285.0 3:214.0 4:266.0 
1.0 1:420.0 2:290.0 3:221.0 4:267.0 
1.0 1:440.0 2:310.0 3:242.0 4:282.0 
1.0 1:424.0 2:294.0 3:226.0 4:274.0 
1.0 1:404.0 2:274.0 3:200.0 4:264.0 
1.0 1:433.0 2:303.0 3:235.0 4:283.0 
1.0 1:386.0 2:257.0 3:184.0 4:254.0 
1.0 1:444.0 2:315.0 3:248.0 4:287.0 
1.0 1:425.0 2:295.0 3:226.0 4:272.0 
1.0 1:412.0 2:283.0 3:210.0 4:265.0 
1.0 1:402.0 2:272.0 3:197.0 4:262.0 
1.0 1:416.0 2:286.0 3:215.0 4:269.0 
1.0 1:427.0 2:299.0 3:229.0 4:275.0 
1.0 1:406.0 2:276.0 3:202.0 4:266.0 
1.0 1:444.0 2:315.0 3:247.0 4:288.0 
1.0 1:436.0 2:307.0 3:239.0 4:287.0 
1.0 1:410.0 2:281.0 3:209.0 4:274.0 
1.0 1:409.0 2:280.0 3:208.0 4:265.0 
1.0 1:424.0 2:295.0 3:225.0 4:274.0 
1.0 1:442.0 2:313.0 3:246.0 4:289.0 
1.0 1:437.0 2:309.0 3:240.0 4:291.0 
1.0 1:407.0 2:280.0 3:207.0 4:276.0 
1.0 1:397.0 2:267.0 3:192.0 4:261.0 
1.0 1:386.0 2:256.0 3:180.0 4:253.0 
1.0 1:398.0 2:269.0 3:194.0 4:258.0 
1.0 1:414.0 2:286.0 3:214.0 4:268.0 
1.0 1:443.0 2:314.0 3:246.0 4:291.0 
1.0 1:444.0 2:316.0 3:248.0 4:299.0 
1.0 1:393.0 2:267.0 3:193.0 4:269.0 
1.0 1:393.0 2:263.0 3:189.0 4:256.0 
1.0 1:412.0 2:284.0 3:213.0 4:269.0 
1.0 1:443.0 2:315.0 3:246.0 4:293.0 
1.0 1:446.0 2:317.0 3:249.0 4:301.0 
1.0 1:386.0 2:261.0 3:187.0 4:267.0 
1.0 1:377.0 2:248.0 3:170.0 4:247.0 
1.0 1:401.0 2:277.0 3:203.0 4:281.0 
1.0 1:448.0 2:321.0 3:252.0 4:305.0 
1.0 1:441.0 2:313.0 3:245.0 4:294.0 
1.0 1:415.0 2:286.0 3:214.0 4:271.0 
1.0 1:397.0 2:268.0 3:194.0 4:259.0 
1.0 1:378.0 2:248.0 3:171.0 4:249.0 
1.0 1:411.0 2:284.0 3:212.0 4:271.0 
1.0 1:438.0 2:310.0 3:241.0 4:293.0 
1.0 1:455.0 2:329.0 3:261.0 4:313.0 
1.0 1:417.0 2:294.0 3:222.0 4:294.0 
1.0 1:405.0 2:276.0 3:202.0 4:266.0 
1.0 1:393.0 2:263.0 3:187.0 4:260.0 
1.0 1:463.0 2:337.0 3:270.0 4:319.0 
1.0 1:439.0 2:312.0 3:244.0 4:295.0 
1.0 1:409.0 2:280.0 3:209.0 4:269.0 
1.0 1:405.0 2:276.0 3:203.0 4:266.0 
1.0 1:397.0 2:266.0 3:191.0 4:263.0 
1.0 1:415.0 2:292.0 3:219.0 4:293.0 
1.0 1:461.0 2:335.0 3:268.0 4:318.0 
1.0 1:400.0 2:279.0 3:204.0 4:283.0 
1.0 1:407.0 2:280.0 3:207.0 4:268.0 
1.0 1:444.0 2:317.0 3:249.0 4:299.0 
1.0 1:386.0 2:256.0 3:180.0 4:256.0 
1.0 1:397.0 2:268.0 3:193.0 4:261.0 
1.0 1:276.0 2:145.0 3:47.0 4:134.0 
1.0 1:293.0 2:158.0 3:62.0 4:101.0 
1.0 1:298.0 2:162.0 3:65.0 4:85.0 
1.0 1:303.0 2:166.0 3:69.0 4:72.0 
1.0 1:307.0 2:169.0 3:72.0 4:62.0 
1.0 1:310.0 2:170.0 3:74.0 4:56.0 
1.0 1:285.0 2:153.0 3:55.0 4:117.0 
1.0 1:281.0 2:148.0 3:52.0 4:125.0 
1.0 1:290.0 2:155.0 3:59.0 4:110.0 
1.0 1:297.0 2:160.0 3:64.0 4:94.0 
1.0 1:300.0 2:163.0 3:67.0 4:79.0 
1.0 1:305.0 2:167.0 3:70.0 4:68.0 
1.0 1:309.0 2:169.0 3:73.0 4:60.0 
1.0 1:378.0 2:257.0 3:180.0 4:266.0 
1.0 1:443.0 2:318.0 3:249.0 4:304.0 
1.0 1:446.0 2:320.0 3:251.0 4:301.0 
1.0 1:407.0 2:280.0 3:207.0 4:268.0 
1.0 1:388.0 2:259.0 3:184.0 4:255.0 
1.0 1:381.0 2:251.0 3:174.0 4:252.0 
1.0 1:311.0 2:171.0 3:74.0 4:54.0 
1.0 1:379.0 2:248.0 3:170.0 4:249.0 
1.0 1:381.0 2:253.0 3:178.0 4:250.0 
1.0 1:402.0 2:274.0 3:201.0 4:265.0 
1.0 1:440.0 2:314.0 3:244.0 4:296.0 
1.0 1:429.0 2:305.0 3:234.0 4:295.0 
1.0 1:382.0 2:262.0 3:185.0 4:269.0 
1.0 1:311.0 2:170.0 3:73.0 4:52.0 
1.0 1:309.0 2:169.0 3:73.0 4:58.0 
1.0 1:306.0 2:167.0 3:71.0 4:66.0 
1.0 1:303.0 2:164.0 3:69.0 4:74.0 
1.0 1:298.0 2:160.0 3:65.0 4:87.0 
1.0 1:292.0 2:156.0 3:60.0 4:102.0 
1.0 1:288.0 2:153.0 3:58.0 4:119.0 
1.0 1:291.0 2:155.0 3:60.0 4:112.0 
1.0 1:297.0 2:159.0 3:64.0 4:95.0 
1.0 1:301.0 2:161.0 3:67.0 4:81.0 
1.0 1:305.0 2:165.0 3:70.0 4:71.0 
1.0 1:308.0 2:167.0 3:72.0 4:62.0 
1.0 1:309.0 2:168.0 3:73.0 4:56.0 
1.0 1:411.0 2:289.0 3:215.0 4:287.0 
1.0 1:435.0 2:311.0 3:241.0 4:299.0 
1.0 1:436.0 2:310.0 3:240.0 4:292.0 
1.0 1:397.0 2:270.0 3:195.0 4:260.0 
1.0 1:368.0 2:237.0 3:160.0 4:241.0 
1.0 1:377.0 2:249.0 3:173.0 4:247.0 
1.0 1:362.0 2:233.0 3:154.0 4:237.0 
1.0 1:377.0 2:249.0 3:173.0 4:247.0 
1.0 1:396.0 2:269.0 3:196.0 4:261.0 
1.0 1:436.0 2:310.0 3:239.0 4:293.0 
1.0 1:444.0 2:319.0 3:249.0 4:303.0 
1.0 1:416.0 2:293.0 3:220.0 4:289.0 
1.0 1:294.0 2:157.0 3:63.0 4:104.0 
1.0 1:299.0 2:160.0 3:65.0 4:89.0 
1.0 1:302.0 2:162.0 3:67.0 4:76.0 
1.0 1:306.0 2:165.0 3:69.0 4:66.0 
1.0 1:308.0 2:167.0 3:72.0 4:59.0 
1.0 1:307.0 2:164.0 3:69.0 4:62.0 
1.0 1:304.0 2:162.0 3:68.0 4:71.0 
1.0 1:302.0 2:161.0 3:67.0 4:84.0 
1.0 1:298.0 2:159.0 3:65.0 4:99.0 
1.0 1:408.0 2:287.0 3:212.0 4:283.0 
1.0 1:445.0 2:320.0 3:250.0 4:303.0 
1.0 1:436.0 2:310.0 3:240.0 4:292.0 
1.0 1:398.0 2:271.0 3:198.0 4:262.0 
1.0 1:385.0 2:257.0 3:180.0 4:252.0 
1.0 1:373.0 2:242.0 3:164.0 4:243.0 
1.0 1:305.0 2:164.0 3:69.0 4:80.0 
1.0 1:308.0 2:166.0 3:71.0 4:70.0 
1.0 1:416.0 2:294.0 3:221.0 4:288.0 
1.0 1:450.0 2:325.0 3:256.0 4:307.0 
1.0 1:435.0 2:309.0 3:238.0 4:292.0 
1.0 1:398.0 2:271.0 3:196.0 4:262.0 
1.0 1:392.0 2:263.0 3:188.0 4:256.0 
1.0 1:308.0 2:165.0 3:70.0 4:60.0 
1.0 1:384.0 2:254.0 3:177.0 4:251.0 
1.0 1:301.0 2:161.0 3:67.0 4:94.0 
1.0 1:396.0 2:265.0 3:189.0 4:260.0 
1.0 1:397.0 2:269.0 3:194.0 4:261.0 
1.0 1:397.0 2:270.0 3:196.0 4:262.0 
1.0 1:304.0 2:164.0 3:69.0 4:89.0 
1.0 1:307.0 2:164.0 3:70.0 4:77.0 
1.0 1:308.0 2:165.0 3:71.0 4:66.0 
1.0 1:434.0 2:308.0 3:237.0 4:291.0 
1.0 1:455.0 2:331.0 3:261.0 4:311.0 
1.0 1:414.0 2:292.0 3:218.0 4:286.0 
1.0 1:309.0 2:166.0 3:71.0 4:64.0 
1.0 1:307.0 2:164.0 3:70.0 4:73.0 
1.0 1:305.0 2:163.0 3:70.0 4:85.0 
1.0 1:388.0 2:258.0 3:181.0 4:254.0 
1.0 1:395.0 2:266.0 3:191.0 4:259.0 
1.0 1:400.0 2:272.0 3:198.0 4:264.0 
1.0 1:433.0 2:307.0 3:236.0 4:291.0 
1.0 1:448.0 2:323.0 3:253.0 4:306.0 
1.0 1:393.0 2:271.0 3:195.0 4:271.0 
1.0 1:383.0 2:256.0 3:179.0 4:251.0 
1.0 1:437.0 2:311.0 3:240.0 4:294.0 
1.0 1:432.0 2:308.0 3:236.0 4:295.0 
1.0 1:367.0 2:246.0 3:167.0 4:253.0 
1.0 1:364.0 2:234.0 3:155.0 4:237.0 
1.0 1:303.0 2:161.0 3:67.0 4:78.0 
1.0 1:608.0 2:412.0 3:302.0 4:300.0 
1.0 1:309.0 2:165.0 3:71.0 4:70.0 
1.0 1:404.0 2:278.0 3:204.0 4:268.0 
1.0 1:308.0 2:164.0 3:70.0 4:65.0 
1.0 1:303.0 2:160.0 3:66.0 4:73.0 
1.0 1:376.0 2:247.0 3:168.0 4:247.0 
1.0 1:389.0 2:261.0 3:184.0 4:255.0 
1.0 1:409.0 2:282.0 3:208.0 4:271.0 
1.0 1:445.0 2:318.0 3:247.0 4:300.0 
1.0 1:427.0 2:303.0 3:229.0 4:291.0 
1.0 1:288.0 2:152.0 3:60.0 4:117.0 
1.0 1:285.0 2:149.0 3:57.0 4:123.0 
1.0 1:279.0 2:143.0 3:50.0 4:130.0 
1.0 1:372.0 2:252.0 3:172.0 4:257.0 
1.0 1:307.0 2:164.0 3:70.0 4:62.0 
1.0 1:289.0 2:152.0 3:60.0 4:118.0 
1.0 1:304.0 2:161.0 3:67.0 4:70.0 
1.0 1:285.0 2:148.0 3:56.0 4:125.0 
1.0 1:278.0 2:143.0 3:50.0 4:131.0 
1.0 1:401.0 2:270.0 3:195.0 4:265.0 
1.0 1:402.0 2:273.0 3:198.0 4:265.0 
1.0 1:410.0 2:285.0 3:210.0 4:274.0 
1.0 1:445.0 2:319.0 3:248.0 4:301.0 
1.0 1:434.0 2:310.0 3:237.0 4:298.0 
1.0 1:389.0 2:268.0 3:191.0 4:270.0 
1.0 1:394.0 2:267.0 3:191.0 4:261.0 
1.0 1:406.0 2:280.0 3:205.0 4:271.0 
1.0 1:439.0 2:313.0 3:241.0 4:297.0 
1.0 1:436.0 2:312.0 3:239.0 4:299.0 
1.0 1:306.0 2:164.0 3:70.0 4:67.0 
1.0 1:387.0 2:267.0 3:188.0 4:268.0 
1.0 1:277.0 2:141.0 3:49.0 4:131.0 
1.0 1:285.0 2:148.0 3:56.0 4:125.0 
1.0 1:288.0 2:151.0 3:60.0 4:119.0 
1.0 1:387.0 2:257.0 3:180.0 4:255.0 
1.0 1:288.0 2:151.0 3:60.0 4:120.0 
1.0 1:283.0 2:145.0 3:54.0 4:124.0 
1.0 1:277.0 2:141.0 3:49.0 4:132.0 
1.0 1:401.0 2:279.0 3:201.0 4:276.0 
1.0 1:438.0 2:314.0 3:242.0 4:300.0 
1.0 1:428.0 2:303.0 3:230.0 4:289.0 
1.0 1:399.0 2:274.0 3:198.0 4:266.0 
1.0 1:388.0 2:261.0 3:184.0 4:257.0 
1.0 1:370.0 2:241.0 3:163.0 4:244.0 
1.0 1:307.0 2:165.0 3:71.0 4:64.0 
1.0 1:277.0 2:140.0 3:49.0 4:133.0 
1.0 1:278.0 2:142.0 3:51.0 4:123.0 
1.0 1:286.0 2:150.0 3:58.0 4:120.0 
1.0 1:308.0 2:165.0 3:71.0 4:62.0 
1.0 1:279.0 2:143.0 3:51.0 4:125.0 
1.0 1:279.0 2:143.0 3:52.0 4:136.0 
1.0 1:286.0 2:151.0 3:59.0 4:122.0 
1.0 1:319.0 2:178.0 3:81.0 4:59.0 
1.0 1:273.0 2:137.0 3:46.0 4:133.0 
1.0 1:281.0 2:144.0 3:53.0 4:128.0 
1.0 1:289.0 2:153.0 3:62.0 4:126.0 
1.0 1:295.0 2:159.0 3:68.0 4:132.0 
1.0 1:316.0 2:176.0 3:80.0 4:58.0 
1.0 1:275.0 2:139.0 3:49.0 4:136.0 
1.0 1:283.0 2:147.0 3:56.0 4:132.0 
1.0 1:313.0 2:172.0 3:74.0 4:50.0 
1.0 1:316.0 2:176.0 3:79.0 4:55.0 
1.0 1:317.0 2:177.0 3:80.0 4:60.0 
1.0 1:299.0 2:162.0 3:73.0 4:137.0 
1.0 1:298.0 2:161.0 3:72.0 4:144.0 
1.0 1:307.0 2:171.0 3:83.0 4:161.0 
1.0 1:321.0 2:181.0 3:84.0 4:64.0 
1.0 1:318.0 2:178.0 3:81.0 4:57.0 
1.0 1:322.0 2:181.0 3:85.0 4:66.0 
1.0 1:314.0 2:173.0 3:77.0 4:62.0 
1.0 1:311.0 2:171.0 3:75.0 4:62.0 
1.0 1:313.0 2:173.0 3:77.0 4:67.0 
1.0 1:318.0 2:177.0 3:80.0 4:59.0 
1.0 1:318.0 2:178.0 3:82.0 4:64.0 
1.0 1:321.0 2:181.0 3:85.0 4:75.0 
1.0 1:322.0 2:181.0 3:85.0 4:70.0 
1.0 1:328.0 2:188.0 3:93.0 4:84.0 
1.0 1:320.0 2:179.0 3:83.0 4:71.0 
1.0 1:326.0 2:188.0 3:92.0 4:88.0 
1.0 1:316.0 2:176.0 3:79.0 4:63.0 
1.0 1:316.0 2:177.0 3:81.0 4:72.0 
1.0 1:327.0 2:189.0 3:93.0 4:92.0 
1.0 1:334.0 2:196.0 3:102.0 4:101.0 
1.0 1:318.0 2:178.0 3:82.0 4:76.0 
1.0 1:316.0 2:175.0 3:79.0 4:64.0 
1.0 1:356.0 2:221.0 3:138.0 4:228.0 
1.0 1:309.0 2:173.0 3:85.0 4:183.0 
1.0 1:288.0 2:152.0 3:62.0 4:157.0 
1.0 1:289.0 2:154.0 3:64.0 4:159.0 
1.0 1:321.0 2:187.0 3:100.0 4:195.0 
1.0 1:376.0 2:241.0 3:160.0 4:245.0 
1.0 1:361.0 2:227.0 3:143.0 4:235.0 
1.0 1:315.0 2:180.0 3:92.0 4:191.0 
1.0 1:285.0 2:151.0 3:59.0 4:158.0 
1.0 1:294.0 2:160.0 3:70.0 4:178.0 
1.0 1:330.0 2:197.0 3:111.0 4:216.0 
1.0 1:275.0 2:142.0 3:49.0 4:153.0 
1.0 1:261.0 2:128.0 3:34.0 4:144.0 
1.0 1:264.0 2:133.0 3:39.0 4:158.0 
1.0 1:289.0 2:158.0 3:67.0 4:188.0 
1.0 1:257.0 2:125.0 3:31.0 4:153.0 
1.0 1:264.0 2:134.0 3:41.0 4:171.0 
1.0 1:265.0 2:131.0 3:37.0 4:146.0 
1.0 1:265.0 2:134.0 3:40.0 4:159.0 
1.0 1:276.0 2:143.0 3:50.0 4:153.0 
1.0 1:271.0 2:139.0 3:46.0 4:174.0 
1.0 1:282.0 2:148.0 3:56.0 4:156.0 
1.0 1:266.0 2:133.0 3:40.0 4:158.0 
1.0 1:277.0 2:145.0 3:54.0 4:178.0 
1.0 1:284.0 2:150.0 3:59.0 4:157.0 
1.0 1:283.0 2:150.0 3:60.0 4:181.0 
1.0 1:267.0 2:134.0 3:42.0 4:158.0 
1.0 1:267.0 2:133.0 3:41.0 4:156.0 
1.0 1:285.0 2:153.0 3:63.0 4:182.0 
1.0 1:282.0 2:147.0 3:56.0 4:153.0 
1.0 1:267.0 2:132.0 3:41.0 4:154.0 
1.0 1:277.0 2:144.0 3:54.0 4:175.0 
1.0 1:277.0 2:142.0 3:51.0 4:148.0 
1.0 1:272.0 2:135.0 3:44.0 4:143.0 
1.0 1:276.0 2:142.0 3:52.0 4:161.0 
1.0 1:290.0 2:156.0 3:68.0 4:184.0 
1.0 1:285.0 2:150.0 3:61.0 4:166.0 
1.0 1:317.0 2:183.0 3:98.0 4:204.0 
1.0 1:265.0 2:129.0 3:38.0 4:138.0 
1.0 1:262.0 2:126.0 3:35.0 4:138.0 
1.0 1:284.0 2:149.0 3:59.0 4:166.0 
1.0 1:327.0 2:192.0 3:108.0 4:211.0 
1.0 1:288.0 2:153.0 3:65.0 4:172.0 
1.0 1:331.0 2:196.0 3:112.0 4:215.0 
1.0 1:275.0 2:139.0 3:49.0 4:148.0 
1.0 1:298.0 2:164.0 3:76.0 4:180.0 
1.0 1:333.0 2:198.0 3:114.0 4:217.0 
1.0 1:289.0 2:153.0 3:64.0 4:160.0 
1.0 1:287.0 2:150.0 3:62.0 4:159.0 
1.0 1:295.0 2:159.0 3:72.0 4:179.0 
1.0 1:319.0 2:184.0 3:99.0 4:208.0 
1.0 1:277.0 2:141.0 3:51.0 4:153.0 
1.0 1:288.0 2:152.0 3:64.0 4:174.0 
1.0 1:302.0 2:167.0 3:81.0 4:196.0 
1.0 1:269.0 2:133.0 3:42.0 4:146.0 
1.0 1:278.0 2:143.0 3:54.0 4:167.0 
1.0 1:293.0 2:159.0 3:72.0 4:190.0 
1.0 1:292.0 2:158.0 3:71.0 4:189.0 
1.0 1:268.0 2:131.0 3:42.0 4:145.0 
1.0 1:275.0 2:140.0 3:51.0 4:164.0 
1.0 1:274.0 2:137.0 3:48.0 4:148.0 
1.0 1:283.0 2:147.0 3:60.0 4:168.0 
1.0 1:305.0 2:169.0 3:85.0 4:195.0 
1.0 1:286.0 2:149.0 3:62.0 4:168.0 
1.0 1:272.0 2:135.0 3:45.0 4:145.0 
1.0 1:318.0 2:182.0 3:98.0 4:204.0 
1.0 1:272.0 2:134.0 3:45.0 4:143.0 
1.0 1:291.0 2:154.0 3:67.0 4:170.0 
1.0 1:325.0 2:189.0 3:105.0 4:207.0 
1.0 1:292.0 2:156.0 3:68.0 4:170.0 
1.0 1:280.0 2:142.0 3:53.0 4:147.0 
1.0 1:315.0 2:179.0 3:94.0 4:199.0 
1.0 1:302.0 2:163.0 3:77.0 4:163.0 
1.0 1:289.0 2:153.0 3:65.0 4:167.0 
1.0 1:290.0 2:154.0 3:66.0 4:180.0 
1.0 1:344.0 2:204.0 3:122.0 4:193.0 
1.0 1:311.0 2:173.0 3:87.0 4:183.0 
1.0 1:291.0 2:156.0 3:69.0 4:182.0 
1.0 1:292.0 2:157.0 3:69.0 4:184.0 
1.0 1:360.0 2:220.0 3:140.0 4:207.0 
1.0 1:316.0 2:179.0 3:94.0 4:189.0 
1.0 1:339.0 2:200.0 3:117.0 4:194.0 
1.0 1:295.0 2:159.0 3:72.0 4:176.0 
1.0 1:283.0 2:149.0 3:59.0 4:179.0 
1.0 1:460.0 2:334.0 3:265.0 4:338.0 
1.0 1:281.0 2:145.0 3:55.0 4:158.0 
1.0 1:298.0 2:163.0 3:74.0 4:184.0 
1.0 1:312.0 2:179.0 3:92.0 4:207.0 
1.0 1:323.0 2:192.0 3:105.0 4:226.0 
1.0 1:343.0 2:213.0 3:128.0 4:246.0 
1.0 1:368.0 2:239.0 3:159.0 4:267.0 
1.0 1:377.0 2:249.0 3:171.0 4:273.0 
1.0 1:386.0 2:259.0 3:183.0 4:278.0 
1.0 1:403.0 2:278.0 3:203.0 4:290.0 
1.0 1:425.0 2:299.0 3:227.0 4:308.0 
1.0 1:463.0 2:338.0 3:269.0 4:348.0 
1.0 1:427.0 2:302.0 3:230.0 4:308.0 
1.0 1:283.0 2:147.0 3:57.0 4:159.0 
1.0 1:292.0 2:157.0 3:68.0 4:181.0 
1.0 1:306.0 2:173.0 3:84.0 4:203.0 
1.0 1:320.0 2:187.0 3:101.0 4:222.0 
1.0 1:340.0 2:209.0 3:125.0 4:244.0 
1.0 1:361.0 2:232.0 3:151.0 4:261.0 
1.0 1:359.0 2:232.0 3:151.0 4:259.0 
1.0 1:369.0 2:242.0 3:164.0 4:264.0 
1.0 1:395.0 2:269.0 3:193.0 4:282.0 
1.0 1:467.0 2:340.0 3:273.0 4:341.0 
1.0 1:464.0 2:339.0 3:270.0 4:346.0 
1.0 1:333.0 2:200.0 3:116.0 4:233.0 
1.0 1:279.0 2:142.0 3:52.0 4:157.0 
1.0 1:280.0 2:146.0 3:56.0 4:172.0 
1.0 1:462.0 2:337.0 3:269.0 4:342.0 
1.0 1:359.0 2:228.0 3:145.0 4:258.0 
1.0 1:374.0 2:245.0 3:165.0 4:271.0 
1.0 1:363.0 2:235.0 3:156.0 4:261.0 
1.0 1:367.0 2:241.0 3:163.0 4:262.0 
1.0 1:394.0 2:268.0 3:193.0 4:280.0 
1.0 1:428.0 2:304.0 3:232.0 4:306.0 
1.0 1:471.0 2:345.0 3:278.0 4:341.0 
1.0 1:304.0 2:170.0 3:82.0 4:202.0 
1.0 1:269.0 2:134.0 3:44.0 4:151.0 
1.0 1:280.0 2:145.0 3:56.0 4:173.0 
1.0 1:326.0 2:192.0 3:106.0 4:218.0 
1.0 1:361.0 2:228.0 3:147.0 4:254.0 
1.0 1:372.0 2:241.0 3:161.0 4:268.0 
1.0 1:379.0 2:248.0 3:170.0 4:273.0 
1.0 1:368.0 2:240.0 3:162.0 4:264.0 
1.0 1:375.0 2:249.0 3:172.0 4:266.0 
1.0 1:398.0 2:272.0 3:199.0 4:280.0 
1.0 1:426.0 2:301.0 3:230.0 4:301.0 
1.0 1:466.0 2:340.0 3:273.0 4:334.0 
1.0 1:467.0 2:342.0 3:275.0 4:341.0 
1.0 1:477.0 2:281.0 3:182.0 4:254.0 
1.0 1:458.0 2:271.0 3:175.0 4:234.0 
1.0 1:471.0 2:278.0 3:182.0 4:247.0 
1.0 1:478.0 2:281.0 3:181.0 4:258.0 
1.0 1:277.0 2:126.0 3:31.0 4:24.0 
1.0 1:279.0 2:128.0 3:32.0 4:23.0 
1.0 1:280.0 2:129.0 3:33.0 4:24.0 
-1.0 1:336.0 2:198.0 3:118.0 4:202.0 
-1.0 1:429.0 2:294.0 3:221.0 4:290.0 
-1.0 1:453.0 2:319.0 3:248.0 4:306.0 
-1.0 1:400.0 2:266.0 3:191.0 4:265.0 
-1.0 1:374.0 2:239.0 3:165.0 4:244.0 
-1.0 1:377.0 2:241.0 3:168.0 4:249.0 
-1.0 1:367.0 2:231.0 3:156.0 4:244.0 
-1.0 1:358.0 2:222.0 3:146.0 4:240.0 
-1.0 1:372.0 2:235.0 3:159.0 4:252.0 
-1.0 1:383.0 2:246.0 3:170.0 4:258.0 
-1.0 1:402.0 2:263.0 3:189.0 4:268.0 
-1.0 1:419.0 2:281.0 3:208.0 4:277.0 
-1.0 1:386.0 2:247.0 3:171.0 4:249.0 
-1.0 1:422.0 2:288.0 3:212.0 4:292.0 
-1.0 1:442.0 2:308.0 3:237.0 4:303.0 
-1.0 1:351.0 2:218.0 3:142.0 4:231.0 
-1.0 1:365.0 2:231.0 3:157.0 4:242.0 
-1.0 1:367.0 2:232.0 3:158.0 4:245.0 
-1.0 1:365.0 2:230.0 3:155.0 4:245.0 
-1.0 1:368.0 2:231.0 3:154.0 4:245.0 
-1.0 1:366.0 2:228.0 3:151.0 4:233.0 
-1.0 1:344.0 2:207.0 3:127.0 4:212.0 
-1.0 1:456.0 2:321.0 3:250.0 4:315.0 
-1.0 1:338.0 2:201.0 3:121.0 4:202.0 
-1.0 1:362.0 2:224.0 3:146.0 4:223.0 
-1.0 1:347.0 2:209.0 3:130.0 4:217.0 
-1.0 1:352.0 2:216.0 3:138.0 4:225.0 
-1.0 1:377.0 2:240.0 3:164.0 4:246.0 
-1.0 1:379.0 2:243.0 3:168.0 4:251.0 
-1.0 1:357.0 2:221.0 3:144.0 4:236.0 
-1.0 1:363.0 2:228.0 3:153.0 4:243.0 
-1.0 1:362.0 2:229.0 3:153.0 4:242.0 
-1.0 1:364.0 2:231.0 3:156.0 4:243.0 
-1.0 1:384.0 2:251.0 3:177.0 4:258.0 
-1.0 1:369.0 2:237.0 3:161.0 4:248.0 
-1.0 1:408.0 2:276.0 3:200.0 4:283.0 
-1.0 1:449.0 2:315.0 3:243.0 4:314.0 
-1.0 1:438.0 2:304.0 3:229.0 4:308.0 
-1.0 1:322.0 2:185.0 3:103.0 4:185.0 
-1.0 1:356.0 2:218.0 3:140.0 4:213.0 
-1.0 1:355.0 2:217.0 3:139.0 4:215.0 
-1.0 1:357.0 2:219.0 3:141.0 4:221.0 
-1.0 1:373.0 2:236.0 3:160.0 4:237.0 
-1.0 1:383.0 2:245.0 3:171.0 4:247.0 
-1.0 1:369.0 2:233.0 3:159.0 4:241.0 
-1.0 1:364.0 2:229.0 3:153.0 4:240.0 
-1.0 1:372.0 2:237.0 3:162.0 4:247.0 
-1.0 1:369.0 2:235.0 3:160.0 4:246.0 
-1.0 1:371.0 2:238.0 3:164.0 4:249.0 
-1.0 1:404.0 2:271.0 3:199.0 4:273.0 
-1.0 1:413.0 2:281.0 3:209.0 4:282.0 
-1.0 1:426.0 2:293.0 3:218.0 4:301.0 
-1.0 1:431.0 2:298.0 3:222.0 4:307.0 
-1.0 1:412.0 2:280.0 3:208.0 4:282.0 
-1.0 1:392.0 2:261.0 3:186.0 4:271.0 
-1.0 1:383.0 2:251.0 3:177.0 4:259.0 
-1.0 1:360.0 2:226.0 3:151.0 4:238.0 
-1.0 1:374.0 2:239.0 3:165.0 4:245.0 
-1.0 1:377.0 2:242.0 3:168.0 4:244.0 
-1.0 1:377.0 2:240.0 3:166.0 4:240.0 
-1.0 1:368.0 2:232.0 3:156.0 4:230.0 
-1.0 1:351.0 2:214.0 3:136.0 4:213.0 
-1.0 1:332.0 2:195.0 3:115.0 4:196.0 
-1.0 1:322.0 2:186.0 3:104.0 4:186.0 
-1.0 1:322.0 2:184.0 3:102.0 4:181.0 
-1.0 1:336.0 2:198.0 3:116.0 4:189.0 
-1.0 1:329.0 2:191.0 3:109.0 4:185.0 
-1.0 1:381.0 2:250.0 3:175.0 4:260.0 
-0.8769426369948198 1:358.0 2:226.0 3:150.0 4:240.0 
-1.0 1:352.0 2:219.0 3:142.0 4:229.0 
-1.0 1:367.0 2:233.0 3:158.0 4:236.0 
-1.0 1:376.0 2:239.0 3:166.0 4:237.0 
-1.0 1:363.0 2:226.0 3:150.0 4:223.0 
-1.0 1:342.0 2:205.0 3:127.0 4:204.0 
-1.0 1:331.0 2:195.0 3:115.0 4:192.0 
-1.0 1:315.0 2:178.0 3:96.0 4:177.0 
-1.0 1:294.0 2:157.0 3:73.0 4:158.0 
-1.0 1:320.0 2:182.0 3:99.0 4:176.0 
-1.0 1:348.0 2:211.0 3:129.0 4:198.0 
-1.0 1:335.0 2:198.0 3:115.0 4:191.0 
-1.0 1:363.0 2:229.0 3:153.0 4:234.0 
-1.0 1:366.0 2:231.0 3:157.0 4:232.0 
-1.0 1:368.0 2:233.0 3:157.0 4:228.0 
-1.0 1:339.0 2:203.0 3:126.0 4:202.0 
-1.0 1:310.0 2:174.0 3:93.0 4:177.0 
-1.0 1:312.0 2:175.0 3:94.0 4:174.0 
-1.0 1:309.0 2:172.0 3:91.0 4:169.0 
-1.0 1:297.0 2:160.0 3:76.0 4:157.0 
-1.0 1:307.0 2:170.0 3:86.0 4:167.0 
-1.0 1:349.0 2:212.0 3:130.0 4:199.0 
-1.0 1:351.0 2:215.0 3:133.0 4:204.0 
-1.0 1:383.0 2:251.0 3:176.0 4:259.0 
-1.0 1:371.0 2:239.0 3:162.0 4:246.0 
-1.0 1:366.0 2:233.0 3:156.0 4:239.0 
-1.0 1:365.0 2:231.0 3:155.0 4:234.0 
-1.0 1:360.0 2:225.0 3:149.0 4:224.0 
-1.0 1:351.0 2:215.0 3:139.0 4:213.0 
-1.0 1:319.0 2:183.0 3:103.0 4:185.0 
-1.0 1:289.0 2:152.0 3:70.0 4:158.0 
-1.0 1:290.0 2:154.0 3:70.0 4:152.0 
-1.0 1:344.0 2:208.0 3:125.0 4:194.0 
-1.0 1:381.0 2:244.0 3:165.0 4:224.0 
-1.0 1:365.0 2:228.0 3:148.0 4:217.0 
-1.0 1:368.0 2:232.0 3:152.0 4:222.0 
-1.0 1:387.0 2:251.0 3:172.0 4:232.0 
-1.0 1:361.0 2:226.0 3:146.0 4:209.0 
-1.0 1:304.0 2:168.0 3:85.0 4:165.0 
-1.0 1:305.0 2:169.0 3:86.0 4:169.0 
-1.0 1:316.0 2:181.0 3:100.0 4:182.0 
-1.0 1:345.0 2:210.0 3:132.0 4:207.0 
-1.0 1:364.0 2:228.0 3:152.0 4:225.0 
-1.0 1:366.0 2:232.0 3:155.0 4:233.0 
-1.0 1:364.0 2:231.0 3:154.0 4:236.0 
-1.0 1:396.0 2:264.0 3:188.0 4:270.0 
-1.0 1:415.0 2:282.0 3:208.0 4:284.0 
-1.0 1:396.0 2:263.0 3:187.0 4:267.0 
-1.0 1:364.0 2:229.0 3:153.0 4:229.0 
-1.0 1:361.0 2:226.0 3:149.0 4:222.0 
-1.0 1:347.0 2:212.0 3:134.0 4:208.0 
-1.0 1:343.0 2:207.0 3:129.0 4:200.0 
-1.0 1:354.0 2:217.0 3:140.0 4:204.0 
-1.0 1:350.0 2:214.0 3:136.0 4:198.0 
-1.0 1:317.0 2:181.0 3:99.0 4:172.0 
-1.0 1:332.0 2:197.0 3:114.0 4:187.0 
-1.0 1:365.0 2:230.0 3:149.0 4:214.0 
-1.0 1:375.0 2:240.0 3:161.0 4:226.0 
-1.0 1:360.0 2:226.0 3:144.0 4:220.0 
-1.0 1:395.0 2:262.0 3:184.0 4:269.0 
-1.0 1:414.0 2:281.0 3:205.0 4:281.0 
-1.0 1:426.0 2:292.0 3:218.0 4:286.0 
-1.0 1:347.0 2:213.0 3:134.0 4:216.0 
-1.0 1:349.0 2:213.0 3:135.0 4:213.0 
-1.0 1:348.0 2:213.0 3:135.0 4:210.0 
-1.0 1:364.0 2:228.0 3:151.0 4:216.0 
-1.0 1:386.0 2:249.0 3:174.0 4:228.0 
-1.0 1:383.0 2:246.0 3:171.0 4:222.0 
-1.0 1:346.0 2:210.0 3:130.0 4:193.0 
-1.0 1:322.0 2:187.0 3:104.0 4:177.0 
-1.0 1:330.0 2:195.0 3:113.0 4:183.0 
-1.0 1:347.0 2:212.0 3:130.0 4:197.0 
-1.0 1:364.0 2:230.0 3:149.0 4:214.0 
-1.0 1:362.0 2:229.0 3:148.0 4:219.0 
-1.0 1:368.0 2:232.0 3:155.0 4:211.0 
-1.0 1:425.0 2:291.0 3:216.0 4:283.0 
-1.0 1:406.0 2:272.0 3:195.0 4:272.0 
-1.0 1:353.0 2:218.0 3:139.0 4:220.0 
-1.0 1:363.0 2:228.0 3:150.0 4:225.0 
-1.0 1:373.0 2:237.0 3:161.0 4:228.0 
-1.0 1:390.0 2:253.0 3:179.0 4:236.0 
-1.0 1:411.0 2:273.0 3:200.0 4:247.0 
-1.0 1:406.0 2:269.0 3:196.0 4:240.0 
-1.0 1:348.0 2:213.0 3:133.0 4:196.0 
-1.0 1:350.0 2:215.0 3:135.0 4:198.0 
-1.0 1:359.0 2:224.0 3:144.0 4:207.0 
-1.0 1:365.0 2:230.0 3:151.0 4:216.0 
-1.0 1:408.0 2:274.0 3:199.0 4:269.0 
-1.0 1:406.0 2:271.0 3:194.0 4:267.0 
-1.0 1:414.0 2:280.0 3:204.0 4:271.0 
-1.0 1:377.0 2:244.0 3:164.0 4:242.0 
-1.0 1:366.0 2:232.0 3:154.0 4:229.0 
-1.0 1:384.0 2:249.0 3:173.0 4:240.0 
-1.0 1:394.0 2:258.0 3:183.0 4:243.0 
-1.0 1:397.0 2:260.0 3:187.0 4:242.0 
-1.0 1:403.0 2:266.0 3:193.0 4:243.0 
-1.0 1:397.0 2:260.0 3:186.0 4:235.0 
-1.0 1:365.0 2:229.0 3:151.0 4:209.0 
-1.0 1:368.0 2:233.0 3:154.0 4:211.0 
-1.0 1:374.0 2:238.0 3:161.0 4:217.0 
-1.0 1:364.0 2:229.0 3:150.0 4:215.0 
-1.0 1:372.0 2:236.0 3:159.0 4:214.0 
-1.0 1:352.0 2:218.0 3:138.0 4:218.0 
-1.0 1:378.0 2:243.0 3:166.0 4:235.0 
-1.0 1:375.0 2:241.0 3:161.0 4:237.0 
-1.0 1:397.0 2:262.0 3:184.0 4:255.0 
-1.0 1:344.0 2:209.0 3:128.0 4:200.0 
-1.0 1:366.0 2:230.0 3:152.0 4:211.0 
-1.0 1:355.0 2:220.0 3:141.0 4:202.0 
-1.0 1:342.0 2:207.0 3:128.0 4:192.0 
-1.0 1:342.0 2:207.0 3:127.0 4:194.0 
-1.0 1:359.0 2:224.0 3:146.0 4:209.0 
-1.0 1:375.0 2:240.0 3:163.0 4:224.0 
-1.0 1:386.0 2:250.0 3:174.0 4:236.0 
-1.0 1:389.0 2:254.0 3:178.0 4:241.0 
-1.0 1:366.0 2:232.0 3:154.0 4:222.0 
-1.0 1:342.0 2:206.0 3:126.0 4:193.0 
-1.0 1:343.0 2:208.0 3:127.0 4:192.0 
-1.0 1:322.0 2:188.0 3:106.0 4:178.0 
-1.0 1:322.0 2:189.0 3:107.0 4:180.0 
-1.0 1:350.0 2:214.0 3:135.0 4:203.0 
-1.0 1:370.0 2:234.0 3:157.0 4:221.0 
-1.0 1:352.0 2:218.0 3:137.0 4:215.0 
-1.0 1:352.0 2:217.0 3:135.0 4:214.0 
-1.0 1:349.0 2:215.0 3:134.0 4:212.0 
-1.0 1:341.0 2:207.0 3:126.0 4:205.0 
-1.0 1:363.0 2:229.0 3:150.0 4:217.0 
-1.0 1:349.0 2:213.0 3:134.0 4:202.0 
-1.0 1:321.0 2:186.0 3:104.0 4:179.0 
-1.0 1:333.0 2:198.0 3:117.0 4:186.0 
-1.0 1:363.0 2:227.0 3:150.0 4:206.0 
-1.0 1:344.0 2:208.0 3:128.0 4:193.0 
-1.0 1:380.0 2:246.0 3:165.0 4:239.0 
-1.0 1:414.0 2:279.0 3:202.0 4:266.0 
-1.0 1:396.0 2:261.0 3:182.0 4:247.0 
-1.0 1:360.0 2:224.0 3:143.0 4:215.0 
-1.0 1:348.0 2:212.0 3:131.0 4:207.0 
-1.0 1:376.0 2:239.0 3:161.0 4:229.0 
-1.0 1:349.0 2:213.0 3:132.0 4:212.0 
-1.0 1:341.0 2:206.0 3:126.0 4:200.0 
-1.0 1:337.0 2:202.0 3:121.0 4:193.0 
-1.0 1:326.0 2:190.0 3:108.0 4:182.0 
-1.0 1:351.0 2:215.0 3:135.0 4:197.0 
-1.0 1:375.0 2:237.0 3:161.0 4:213.0 
-1.0 1:348.0 2:212.0 3:131.0 4:195.0 
-1.0 1:329.0 2:192.0 3:111.0 4:183.0 
-1.0 1:341.0 2:204.0 3:123.0 4:198.0 
-1.0 1:348.0 2:211.0 3:130.0 4:209.0 
-1.0 1:406.0 2:269.0 3:192.0 4:251.0 
-1.0 1:336.0 2:200.0 3:119.0 4:199.0 
-1.0 1:346.0 2:210.0 3:128.0 4:207.0 
-1.0 1:334.0 2:198.0 3:117.0 4:192.0 
-1.0 1:348.0 2:212.0 3:132.0 4:198.0 
-1.0 1:363.0 2:226.0 3:148.0 4:205.0 
-1.0 1:349.0 2:212.0 3:132.0 4:193.0 
-1.0 1:315.0 2:178.0 3:96.0 4:170.0 
-1.0 1:311.0 2:175.0 3:91.0 4:170.0 
-1.0 1:336.0 2:199.0 3:118.0 4:193.0 
-1.0 1:443.0 2:307.0 3:232.0 4:284.0 
-1.0 1:395.0 2:258.0 3:179.0 4:241.0 
-1.0 1:352.0 2:216.0 3:135.0 4:211.0 
-1.0 1:373.0 2:236.0 3:157.0 4:227.0 
-1.0 1:346.0 2:209.0 3:128.0 4:207.0 
-1.0 1:349.0 2:213.0 3:133.0 4:203.0 
-1.0 1:373.0 2:235.0 3:158.0 4:216.0 
-1.0 1:357.0 2:219.0 3:141.0 4:202.0 
-1.0 1:309.0 2:172.0 3:88.0 4:165.0 
-1.0 1:450.0 2:311.0 3:239.0 4:286.0 
-1.0 1:397.0 2:261.0 3:184.0 4:248.0 
-1.0 1:361.0 2:223.0 3:143.0 4:216.0 
-1.0 1:380.0 2:242.0 3:164.0 4:232.0 
-1.0 1:344.0 2:207.0 3:125.0 4:206.0 
-1.0 1:354.0 2:216.0 3:137.0 4:207.0 
-1.0 1:386.0 2:248.0 3:172.0 4:228.0 
-1.0 1:353.0 2:214.0 3:135.0 4:200.0 
-1.0 1:300.0 2:164.0 3:80.0 4:161.0 
-1.0 1:307.0 2:169.0 3:86.0 4:168.0 
-1.0 1:326.0 2:189.0 3:106.0 4:181.0 
-1.0 1:368.0 2:229.0 3:152.0 4:214.0 
-1.0 1:392.0 2:254.0 3:178.0 4:234.0 
-1.0 1:343.0 2:205.0 3:125.0 4:202.0 
-1.0 1:345.0 2:206.0 3:125.0 4:207.0 
-1.0 1:359.0 2:220.0 3:140.0 4:215.0 
-1.0 1:375.0 2:236.0 3:157.0 4:225.0 
-1.0 1:358.0 2:219.0 3:139.0 4:211.0 
-1.0 1:366.0 2:231.0 3:150.0 4:227.0 
-1.0 1:354.0 2:216.0 3:134.0 4:210.0 
-1.0 1:406.0 2:267.0 3:190.0 4:247.0 
-1.0 1:411.0 2:271.0 3:196.0 4:253.0 
-1.0 1:347.0 2:208.0 3:127.0 4:208.0 
-1.0 1:338.0 2:200.0 3:119.0 4:201.0 
-1.0 1:392.0 2:253.0 3:177.0 4:237.0 
-1.0 1:380.0 2:240.0 3:164.0 4:226.0 
-1.0 1:344.0 2:206.0 3:126.0 4:198.0 
-1.0 1:313.0 2:175.0 3:92.0 4:174.0 
-1.0 1:356.0 2:219.0 3:139.0 4:212.0 
-1.0 1:378.0 2:240.0 3:162.0 4:229.0 
-1.0 1:375.0 2:237.0 3:159.0 4:230.0 
-1.0 1:369.0 2:232.0 3:152.0 4:225.0 
-1.0 1:375.0 2:238.0 3:159.0 4:230.0 
-1.0 1:409.0 2:271.0 3:195.0 4:254.0 
-1.0 1:401.0 2:262.0 3:186.0 4:249.0 
-1.0 1:369.0 2:232.0 3:151.0 4:231.0 
-1.0 1:391.0 2:257.0 3:175.0 4:243.0 
-1.0 1:418.0 2:283.0 3:203.0 4:258.0 
-1.0 1:408.0 2:271.0 3:190.0 4:248.0 
-1.0 1:342.0 2:205.0 3:123.0 4:204.0 
-1.0 1:344.0 2:207.0 3:125.0 4:205.0 
-1.0 1:340.0 2:203.0 3:121.0 4:202.0 
-1.0 1:347.0 2:210.0 3:128.0 4:208.0 
-1.0 1:372.0 2:234.0 3:155.0 4:228.0 
-1.0 1:383.0 2:246.0 3:167.0 4:239.0 
-1.0 1:379.0 2:243.0 3:162.0 4:237.0 
-1.0 1:392.0 2:255.0 3:176.0 4:247.0 
-1.0 1:410.0 2:272.0 3:196.0 4:259.0 
-1.0 1:383.0 2:246.0 3:166.0 4:239.0 
-1.0 1:376.0 2:240.0 3:159.0 4:235.0 
-0.9978677776170926 1:367.0 2:233.0 3:148.0 4:218.0 
-1.0 1:397.0 2:260.0 3:179.0 4:241.0 
-1.0 1:395.0 2:260.0 3:179.0 4:244.0 
-1.0 1:379.0 2:244.0 3:160.0 4:231.0 
-1.0 1:365.0 2:228.0 3:144.0 4:221.0 
-1.0 1:392.0 2:253.0 3:171.0 4:254.0 
-0.785089284407457 1:363.0 2:227.0 3:142.0 4:215.0 
-1.0 1:368.0 2:230.0 3:147.0 4:221.0 
-1.0 1:378.0 2:241.0 3:159.0 4:227.0 
-1.0 1:360.0 2:222.0 3:138.0 4:210.0 
-1.0 1:373.0 2:235.0 3:152.0 4:233.0 
-1.0 1:383.0 2:246.0 3:164.0 4:237.0 
-1.0 1:387.0 2:250.0 3:168.0 4:236.0 
-1.0 1:394.0 2:256.0 3:175.0 4:238.0 
-1.0 1:386.0 2:249.0 3:168.0 4:230.0 
-1.0 1:373.0 2:236.0 3:154.0 4:219.0 
-1.0 1:396.0 2:257.0 3:177.0 4:236.0 
-1.0 1:406.0 2:268.0 3:188.0 4:248.0 
-1.0 1:404.0 2:266.0 3:186.0 4:250.0 
-1.0 1:380.0 2:243.0 3:161.0 4:237.0 
-1.0 1:401.0 2:265.0 3:181.0 4:255.0 
-1.0 1:429.0 2:292.0 3:210.0 4:280.0 
-1.0 1:371.0 2:236.0 3:153.0 4:222.0 
-1.0 1:366.0 2:230.0 3:146.0 4:217.0 
-1.0 1:358.0 2:221.0 3:138.0 4:210.0 
-1.0 1:354.0 2:217.0 3:134.0 4:201.0 
-1.0 1:388.0 2:251.0 3:171.0 4:224.0 
-1.0 1:343.0 2:206.0 3:123.0 4:191.0 
-0.3226251589121196 1:410.0 2:273.0 3:189.0 4:266.0 
-1.0 1:353.0 2:215.0 3:133.0 4:198.0 
-1.0 1:394.0 2:255.0 3:176.0 4:229.0 
-1.0 1:369.0 2:233.0 3:151.0 4:213.0 
-1.0 1:342.0 2:206.0 3:122.0 4:196.0 
-1.0 1:355.0 2:220.0 3:136.0 4:207.0 
-1.0 1:345.0 2:209.0 3:125.0 4:195.0 
-1.0 1:389.0 2:250.0 3:170.0 4:226.0 
-1.0 1:379.0 2:241.0 3:161.0 4:221.0 
-1.0 1:365.0 2:227.0 3:145.0 4:212.0 
-1.0 1:387.0 2:250.0 3:170.0 4:231.0 
-1.0 1:379.0 2:242.0 3:160.0 4:226.0 
-1.0 1:448.0 2:312.0 3:230.0 4:304.0 
-1.0 1:457.0 2:322.0 3:241.0 4:311.0 
-1.0 1:373.0 2:235.0 3:153.0 4:218.0 
-1.0 1:407.0 2:270.0 3:191.0 4:246.0 
-1.0 1:412.0 2:273.0 3:195.0 4:247.0 
-1.0 1:373.0 2:235.0 3:154.0 4:217.0 
-1.0 1:368.0 2:230.0 3:148.0 4:212.0 
-1.0 1:379.0 2:242.0 3:160.0 4:225.0 
-1.0 1:376.0 2:239.0 3:157.0 4:222.0 
-1.0 1:347.0 2:210.0 3:125.0 4:199.0 
-1.0 1:348.0 2:211.0 3:127.0 4:200.0 
-1.0 1:340.0 2:202.0 3:118.0 4:193.0 
-1.0 1:387.0 2:249.0 3:168.0 4:233.0 
-1.0 1:416.0 2:278.0 3:198.0 4:258.0 
-1.0 1:388.0 2:251.0 3:167.0 4:240.0 
-1.0 1:344.0 2:206.0 3:121.0 4:195.0 
-1.0 1:350.0 2:212.0 3:127.0 4:201.0 
-0.33176290683246185 1:345.0 2:208.0 3:122.0 4:194.0 
-1.0 1:350.0 2:212.0 3:128.0 4:199.0 
-1.0 1:350.0 2:212.0 3:128.0 4:200.0 
-1.0 1:346.0 2:209.0 3:124.0 4:195.0 
-1.0 1:341.0 2:204.0 3:119.0 4:193.0 
-1.0 1:354.0 2:218.0 3:132.0 4:199.0 
-1.0 1:365.0 2:228.0 3:144.0 4:209.0 
-1.0 1:354.0 2:219.0 3:134.0 4:203.0 
-1.0 1:374.0 2:238.0 3:155.0 4:218.0 
-1.0 1:365.0 2:231.0 3:146.0 4:212.0 
-1.0 1:353.0 2:217.0 3:133.0 4:203.0 
-1.0 1:372.0 2:237.0 3:153.0 4:221.0 
-1.0 1:375.0 2:240.0 3:157.0 4:223.0 
-1.0 1:363.0 2:229.0 3:145.0 4:214.0 
-1.0 1:386.0 2:250.0 3:169.0 4:229.0 
-1.0 1:379.0 2:243.0 3:160.0 4:224.0 
-1.0 1:364.0 2:229.0 3:144.0 4:213.0 
-1.0 1:359.0 2:223.0 3:139.0 4:214.0 
-1.0 1:369.0 2:235.0 3:151.0 4:223.0 
-1.0 1:371.0 2:236.0 3:153.0 4:222.0 
-1.0 1:394.0 2:258.0 3:176.0 4:238.0 
-1.0 1:404.0 2:269.0 3:188.0 4:245.0 
-1.0 1:390.0 2:255.0 3:174.0 4:235.0 
-1.0 1:376.0 2:239.0 3:157.0 4:223.0 
-1.0 1:360.0 2:224.0 3:139.0 4:211.0 
-1.0 1:366.0 2:230.0 3:146.0 4:217.0 
-1.0 1:363.0 2:227.0 3:144.0 4:216.0 
-1.0 1:387.0 2:253.0 3:170.0 4:238.0 
-1.0 1:402.0 2:267.0 3:186.0 4:247.0 
-1.0 1:393.0 2:258.0 3:176.0 4:239.0 
-1.0 1:372.0 2:237.0 3:153.0 4:223.0 
-1.0 1:367.0 2:230.0 3:146.0 4:218.0 
-1.0 1:379.0 2:242.0 3:160.0 4:226.0 
-1.0 1:383.0 2:247.0 3:165.0 4:231.0 
-1.0 1:371.0 2:235.0 3:150.0 4:222.0 
-1.0 1:380.0 2:244.0 3:162.0 4:228.0 
-1.0 1:399.0 2:265.0 3:182.0 4:256.0 
-1.0 1:383.0 2:247.0 3:164.0 4:240.0 
-1.0 1:396.0 2:261.0 3:178.0 4:251.0 
-1.0 1:406.0 2:271.0 3:189.0 4:260.0 
-1.0 1:413.0 2:278.0 3:197.0 4:267.0 
-1.0 1:394.0 2:255.0 3:166.0 4:230.0 
-1.0 1:363.0 2:240.0 3:166.0 4:202.0 
-1.0 1:364.0 2:243.0 3:167.0 4:208.0 
-1.0 1:357.0 2:233.0 3:159.0 4:192.0 
-1.0 1:355.0 2:229.0 3:157.0 4:189.0 
-1.0 1:368.0 2:243.0 3:171.0 4:196.0 
-1.0 1:362.0 2:237.0 3:165.0 4:191.0 
-1.0 1:353.0 2:228.0 3:155.0 4:186.0 
-1.0 1:368.0 2:245.0 3:173.0 4:200.0 
-1.0 1:356.0 2:231.0 3:159.0 4:184.0 
-1.0 1:369.0 2:244.0 3:174.0 4:191.0 
-1.0 1:356.0 2:232.0 3:159.0 4:183.0 
-1.0 1:360.0 2:237.0 3:164.0 4:189.0 
-1.0 1:364.0 2:239.0 3:168.0 4:187.0 
-1.0 1:371.0 2:249.0 3:174.0 4:208.0 
-1.0 1:370.0 2:245.0 3:175.0 4:189.0 
-1.0 1:362.0 2:239.0 3:168.0 4:189.0 
-1.0 1:370.0 2:247.0 3:174.0 4:199.0 
-1.0 1:361.0 2:237.0 3:166.0 4:182.0 
-1.0 1:373.0 2:251.0 3:177.0 4:210.0 
-1.0 1:357.0 2:232.0 3:160.0 4:181.0 
-1.0 1:363.0 2:237.0 3:167.0 4:186.0 
-1.0 1:358.0 2:233.0 3:162.0 4:180.0 
-1.0 1:371.0 2:246.0 3:176.0 4:190.0 
-1.0 1:368.0 2:243.0 3:173.0 4:186.0 
-1.0 1:357.0 2:233.0 3:162.0 4:178.0 
-1.0 1:372.0 2:252.0 3:176.0 4:210.0 
-1.0 1:365.0 2:242.0 3:170.0 4:189.0 
-1.0 1:371.0 2:248.0 3:175.0 4:200.0 
-1.0 1:365.0 2:240.0 3:170.0 4:183.0 
-1.0 1:356.0 2:232.0 3:161.0 4:177.0 
-1.0 1:369.0 2:249.0 3:173.0 4:211.0 
-1.0 1:370.0 2:247.0 3:175.0 4:202.0 
-1.0 1:366.0 2:243.0 3:170.0 4:191.0 
-1.0 1:360.0 2:235.0 3:165.0 4:182.0 
-1.0 1:371.0 2:246.0 3:177.0 4:189.0 
-1.0 1:370.0 2:247.0 3:174.0 4:202.0 
-1.0 1:367.0 2:243.0 3:171.0 4:192.0 
-1.0 1:361.0 2:237.0 3:166.0 4:183.0 
-1.0 1:357.0 2:232.0 3:162.0 4:176.0 
-1.0 1:362.0 2:237.0 3:167.0 4:179.0 
-1.0 1:371.0 2:245.0 3:176.0 4:186.0 
-1.0 1:369.0 2:248.0 3:173.0 4:212.0 
-1.0 1:369.0 2:246.0 3:173.0 4:202.0 
-1.0 1:369.0 2:248.0 3:172.0 4:213.0 
-1.0 1:363.0 2:239.0 3:168.0 4:184.0 
-1.0 1:355.0 2:230.0 3:159.0 4:174.0 
-1.0 1:375.0 2:250.0 3:181.0 4:187.0 
-1.0 1:359.0 2:235.0 3:164.0 4:176.0 
-1.0 1:368.0 2:244.0 3:172.0 4:193.0 
-1.0 1:354.0 2:228.0 3:158.0 4:170.0 
-1.0 1:376.0 2:250.0 3:182.0 4:186.0 
-1.0 1:352.0 2:227.0 3:156.0 4:171.0 
-1.0 1:367.0 2:242.0 3:171.0 4:185.0 
-1.0 1:367.0 2:244.0 3:170.0 4:200.0 
-1.0 1:367.0 2:246.0 3:169.0 4:211.0 
-1.0 1:368.0 2:245.0 3:173.0 4:192.0 
-1.0 1:345.0 2:220.0 3:149.0 4:163.0 
-1.0 1:371.0 2:246.0 3:177.0 4:180.0 
-1.0 1:348.0 2:223.0 3:152.0 4:167.0 
-1.0 1:367.0 2:242.0 3:172.0 4:184.0 
-1.0 1:365.0 2:242.0 3:169.0 4:190.0 
-1.0 1:363.0 2:241.0 3:166.0 4:196.0 
-1.0 1:363.0 2:242.0 3:165.0 4:208.0 
-1.0 1:367.0 2:242.0 3:173.0 4:176.0 
-1.0 1:343.0 2:218.0 3:146.0 4:159.0 
-1.0 1:352.0 2:226.0 3:156.0 4:168.0 
-1.0 1:368.0 2:242.0 3:172.0 4:183.0 
-1.0 1:364.0 2:239.0 3:168.0 4:187.0 
-1.0 1:359.0 2:237.0 3:162.0 4:192.0 
-1.0 1:360.0 2:240.0 3:162.0 4:204.0 
-1.0 1:365.0 2:241.0 3:170.0 4:174.0 
-1.0 1:347.0 2:222.0 3:151.0 4:161.0 
-1.0 1:360.0 2:234.0 3:163.0 4:172.0 
-1.0 1:367.0 2:242.0 3:171.0 4:182.0 
-1.0 1:364.0 2:240.0 3:168.0 4:186.0 
-1.0 1:360.0 2:238.0 3:163.0 4:192.0 
-1.0 1:360.0 2:241.0 3:163.0 4:202.0 
-1.0 1:364.0 2:239.0 3:168.0 4:171.0 
-1.0 1:352.0 2:227.0 3:156.0 4:164.0 
-1.0 1:363.0 2:238.0 3:167.0 4:174.0 
-1.0 1:365.0 2:244.0 3:168.0 4:193.0 
-1.0 1:367.0 2:246.0 3:169.0 4:204.0 
-1.0 1:365.0 2:242.0 3:169.0 4:185.0 
-1.0 1:366.0 2:242.0 3:170.0 4:180.0 
-1.0 1:366.0 2:242.0 3:171.0 4:179.0 
-1.0 1:367.0 2:247.0 3:170.0 4:202.0 
-1.0 1:369.0 2:245.0 3:174.0 4:186.0 
-1.0 1:369.0 2:247.0 3:173.0 4:194.0 
-1.0 1:357.0 2:231.0 3:160.0 4:166.0 
-1.0 1:363.0 2:238.0 3:167.0 4:170.0 
-1.0 1:365.0 2:240.0 3:170.0 4:174.0 
-1.0 1:426.0 2:283.0 3:203.0 4:273.0 
-1.0 1:434.0 2:291.0 3:211.0 4:277.0 
-1.0 1:391.0 2:249.0 3:165.0 4:248.0 
-1.0 1:364.0 2:243.0 3:167.0 4:196.0 
-1.0 1:406.0 2:265.0 3:183.0 4:260.0 
-1.0 1:415.0 2:274.0 3:193.0 4:268.0 
-1.0 1:435.0 2:295.0 3:215.0 4:285.0 
-1.0 1:440.0 2:301.0 3:222.0 4:292.0 
-1.0 1:425.0 2:288.0 3:206.0 4:283.0 
-1.0 1:370.0 2:247.0 3:174.0 4:191.0 
-1.0 1:369.0 2:246.0 3:174.0 4:185.0 
-1.0 1:367.0 2:242.0 3:171.0 4:178.0 
-1.0 1:364.0 2:239.0 3:169.0 4:174.0 
-1.0 1:359.0 2:234.0 3:163.0 4:167.0 
-1.0 1:359.0 2:234.0 3:163.0 4:167.0 
-1.0 1:408.0 2:266.0 3:183.0 4:261.0 
-1.0 1:395.0 2:253.0 3:171.0 4:252.0 
-1.0 1:446.0 2:310.0 3:230.0 4:311.0 
-1.0 1:457.0 2:319.0 3:241.0 4:317.0 
-1.0 1:448.0 2:308.0 3:230.0 4:308.0 
-1.0 1:428.0 2:288.0 3:209.0 4:293.0 
-1.0 1:424.0 2:283.0 3:201.0 4:286.0 
-1.0 1:432.0 2:291.0 3:209.0 4:290.0 
-1.0 1:330.0 2:185.0 3:103.0 4:176.0 
-1.0 1:329.0 2:184.0 3:100.0 4:173.0 
-1.0 1:337.0 2:190.0 3:109.0 4:182.0 
-1.0 1:343.0 2:198.0 3:116.0 4:193.0 
-1.0 1:360.0 2:216.0 3:134.0 4:205.0 
-1.0 1:340.0 2:194.0 3:112.0 4:193.0 
-1.0 1:356.0 2:212.0 3:130.0 4:211.0 
-1.0 1:340.0 2:196.0 3:113.0 4:201.0 
-1.0 1:380.0 2:236.0 3:155.0 4:227.0 
-1.0 1:367.0 2:225.0 3:144.0 4:226.0 
-1.0 1:395.0 2:253.0 3:173.0 4:245.0 
-1.0 1:391.0 2:250.0 3:169.0 4:247.0 
-0.605459973994773 1:378.0 2:242.0 3:155.0 4:223.0 
-1.0 1:382.0 2:246.0 3:160.0 4:226.0 
-1.0 1:375.0 2:239.0 3:153.0 4:223.0 
-1.0 1:378.0 2:241.0 3:155.0 4:225.0 
-1.0 1:378.0 2:241.0 3:155.0 4:225.0 
-1.0 1:375.0 2:239.0 3:153.0 4:223.0 
-1.0 1:369.0 2:232.0 3:147.0 4:218.0 
-1.0 1:366.0 2:230.0 3:144.0 4:214.0 
-1.0 1:363.0 2:228.0 3:141.0 4:205.0 
-1.0 1:360.0 2:224.0 3:138.0 4:205.0 
-1.0 1:377.0 2:241.0 3:160.0 4:225.0 
-1.0 1:385.0 2:249.0 3:170.0 4:226.0 
-1.0 1:393.0 2:257.0 3:178.0 4:234.0 
-1.0 1:374.0 2:237.0 3:156.0 4:224.0 
-1.0 1:371.0 2:235.0 3:153.0 4:223.0 
-1.0 1:383.0 2:248.0 3:166.0 4:241.0 
-1.0 1:383.0 2:249.0 3:167.0 4:240.0 
-1.0 1:390.0 2:255.0 3:174.0 4:243.0 
-1.0 1:401.0 2:266.0 3:186.0 4:249.0 
-1.0 1:392.0 2:257.0 3:177.0 4:240.0 
-1.0 1:413.0 2:275.0 3:190.0 4:264.0 
-1.0 1:383.0 2:232.0 3:146.0 4:145.0 
-1.0 1:378.0 2:226.0 3:141.0 4:141.0 
-1.0 1:396.0 2:245.0 3:162.0 4:167.0 
-1.0 1:375.0 2:226.0 3:141.0 4:153.0 
-1.0 1:394.0 2:247.0 3:163.0 4:178.0 
-1.0 1:356.0 2:209.0 3:122.0 4:151.0 
-1.0 1:353.0 2:209.0 3:120.0 4:160.0 
-1.0 1:378.0 2:234.0 3:147.0 4:178.0 
-1.0 1:373.0 2:230.0 3:144.0 4:192.0 
-1.0 1:390.0 2:249.0 3:162.0 4:200.0 
-1.0 1:388.0 2:246.0 3:160.0 4:200.0 
-1.0 1:382.0 2:240.0 3:154.0 4:197.0 
-1.0 1:390.0 2:249.0 3:162.0 4:213.0 
-1.0 1:397.0 2:257.0 3:171.0 4:217.0 
-1.0 1:407.0 2:266.0 3:180.0 4:221.0 
-1.0 1:378.0 2:237.0 3:149.0 4:206.0 
-1.0 1:417.0 2:279.0 3:191.0 4:238.0 
-1.0 1:404.0 2:266.0 3:178.0 4:231.0 
-1.0 1:397.0 2:257.0 3:169.0 4:227.0 
-1.0 1:389.0 2:249.0 3:161.0 4:223.0 
-1.0 1:410.0 2:265.0 3:182.0 4:242.0 
-1.0 1:374.0 2:230.0 3:143.0 4:215.0 
-1.0 1:357.0 2:212.0 3:124.0 4:202.0 
-1.0 1:359.0 2:213.0 3:127.0 4:203.0 
-1.0 1:414.0 2:265.0 3:185.0 4:239.0 
-1.0 1:399.0 2:251.0 3:169.0 4:226.0 
-1.0 1:386.0 2:240.0 3:156.0 4:220.0 
-1.0 1:418.0 2:273.0 3:190.0 4:248.0 
-1.0 1:405.0 2:258.0 3:176.0 4:243.0 
-1.0 1:403.0 2:257.0 3:174.0 4:244.0 
-1.0 1:374.0 2:228.0 3:143.0 4:225.0 
-1.0 1:396.0 2:253.0 3:168.0 4:246.0 
-1.0 1:437.0 2:293.0 3:212.0 4:275.0 
-1.0 1:430.0 2:287.0 3:205.0 4:271.0 
-1.0 1:385.0 2:240.0 3:155.0 4:242.0 
-1.0 1:427.0 2:283.0 3:201.0 4:279.0 
-1.0 1:431.0 2:289.0 3:206.0 4:284.0 
